{"format": "ncof-gnb2-mlp-v1", "activation": "relu", "actions": ["DEEP_SLEEP", "ACTIVE"], "obs": {"features": ["wlan_dl_norm", "prev_wlan_dl_norm", "gnb2_active"], "norm_mbps": 1000.0}, "layers": [{"name": "encoder.encoder.net.mlp.0", "w": [[-0.4998399317264557, 0.1685311496257782, 0.6907781958580017], [0.4122564196586609, 0.6261765956878662, 0.008205701597034931], [1.0674982070922852, 0.507318377494812, 0.46629470586776733], [0.567431628704071, -0.32482191920280457, -0.1617095023393631], [0.7440407872200012, 0.4245392382144928, -0.40120983123779297], [0.5341191291809082, 0.616733193397522, -0.5475755333900452], [0.14315608143806458, 0.250570148229599, -0.4820343255996704], [0.5239744186401367, 0.7487168312072754, -0.9663746953010559], [-0.5755413174629211, 0.0775505006313324, -0.4142339825630188], [0.2542921006679535, 0.06034671142697334, 0.21976496279239655], [0.7802661657333374, 0.13504739105701447, -0.1781356781721115], [0.42184481024742126, -0.27130740880966187, -0.09206954389810562], [0.34421366453170776, -0.198198139667511, -0.23419705033302307], [0.7945319414138794, 0.5224228501319885, 0.24277512729167938], [0.49320584535598755, 0.5231293439865112, -0.5427101254463196], [0.09920622408390045, -0.5600981116294861, 0.3561205565929413], [-0.7787067294120789, -0.6451782584190369, 0.5624423027038574], [0.6080963611602783, 0.01712147891521454, -0.7681633234024048], [-0.6079254150390625, 0.25975409150123596, 0.29864075779914856], [-1.071960210800171, -0.8789023756980896, 0.15535606443881989], [-0.28138864040374756, 0.15029282867908478, 0.17579714953899384], [0.516652524471283, 0.7692679762840271, 0.5033326148986816], [0.5760477781295776, 0.2950820028781891, 0.13642671704292297], [0.19263958930969238, 0.26612019538879395, -0.37802040576934814], [-0.6022957563400269, -0.7836959958076477, 0.4862389862537384], [-0.8843675851821899, 0.48053669929504395, -0.24610909819602966], [0.7349564433097839, 0.7666764855384827, 0.2849333882331848], [-0.0741078108549118, 0.5983649492263794, 0.17385749518871307], [-0.5602417588233948, -0.33768191933631897, -0.3182637691497803], [1.003085970878601, -0.5359309911727905, 0.3953589200973511], [-0.5009959936141968, -0.4429430365562439, -0.27333295345306396], [0.2940979599952698, 0.05517246574163437, 0.4076918661594391], [-0.6638374328613281, 0.04023507237434387, 0.009523914195597172], [0.6039608120918274, -0.7016414403915405, -0.10047204792499542], [0.060664210468530655, 0.1568056344985962, 0.6048968434333801], [-0.6943122148513794, -0.0740390494465828, 0.4652599096298218], [0.482484370470047, -0.5412346720695496, 0.05844947323203087], [-0.3748131990432739, -1.0016353130340576, 0.1894860863685608], [0.9155852794647217, 0.8922595977783203, -0.056458085775375366], [0.11459730565547943, 0.09421180188655853, -0.04306178539991379], [0.5430225133895874, 0.5449676513671875, -0.041453611105680466], [0.8846768140792847, 0.47044113278388977, 0.22120900452136993], [-0.7692430019378662, 0.12537619471549988, 0.6448909044265747], [0.9222854971885681, 0.5130929350852966, 0.19308684766292572], [0.7139433026313782, 0.5950607657432556, -0.26979419589042664], [-0.6695941090583801, 0.4054177403450012, -0.1567481905221939], [0.32286038994789124, 0.2656131386756897, -0.4498518705368042], [-0.17119073867797852, -0.18097826838493347, -0.08894142508506775], [-0.5944629907608032, 0.10008544474840164, 0.6512690186500549], [0.30257683992385864, -0.5165442824363708, -0.1773790419101715], [0.2152310162782669, -0.34597623348236084, 0.09338927268981934], [-0.011213741265237331, -0.22695529460906982, -0.048494938760995865], [0.3478928208351135, 0.053630951792001724, -0.04311196878552437], [-0.15674996376037598, -0.1323675811290741, 0.1126822903752327], [0.6670016646385193, 1.1951169967651367, 0.6490317583084106], [1.0052876472473145, 0.6215645670890808, 0.22215060889720917], [-0.3005174696445465, 0.3109351694583893, 0.661880373954773], [0.25808992981910706, 1.1771663427352905, 0.3849538266658783], [0.6373032927513123, -0.14567475020885468, 0.38400357961654663], [-0.5222905278205872, -0.14938026666641235, -0.3783503770828247], [0.2719707190990448, -1.2678537368774414, 0.1329779177904129], [0.9234681725502014, 0.7141309976577759, -0.6051585078239441], [-0.36186569929122925, 0.8062679767608643, -0.6384233236312866], [0.6337694525718689, 0.2560756504535675, 0.01622074283659458]], "b": [0.28233686089515686, -0.5547778010368347, -0.6067549586296082, 0.2969590127468109, 0.38409796357154846, 0.02893655188381672, 0.3042077124118805, 0.0356496199965477, 0.16585342586040497, 0.16741091012954712, 0.2400749772787094, -0.2871590256690979, -0.5504558086395264, -0.13937737047672272, 0.08422093838453293, 0.20012889802455902, 0.4737147092819214, 0.3875255286693573, 0.6339067220687866, 0.7354007363319397, -0.5312649607658386, -0.5795632600784302, 0.14030151069164276, -0.45730891823768616, -0.41317102313041687, 0.4929799437522888, 0.00035978079540655017, -0.6058489680290222, -0.33437788486480713, -0.26869431138038635, -0.23709969222545624, 0.4865542948246002, 0.525236964225769, 0.30591145157814026, 0.6750038266181946, 0.47208383679389954, 0.17582105100154877, -0.1864384412765503, -0.7640051245689392, -0.3639732599258423, -0.5613996386528015, -0.7335079908370972, 0.46023115515708923, -0.7722839713096619, -0.2323940098285675, 0.6099159121513367, 0.13940593600273132, -0.5250544548034668, 0.7736718654632568, -0.2454838901758194, -0.30579376220703125, -0.4397847056388855, 0.030122514814138412, 0.2128346860408783, -0.1779232919216156, -0.13196225464344025, 0.030446400865912437, -0.11963585764169693, -0.2657809257507324, -0.4686005711555481, 0.21663901209831238, -0.16544051468372345, 0.23065336048603058, -0.4850991368293762]}, {"name": "encoder.encoder.net.mlp.2", "w": [[0.11024444550275803, 0.043780792504549026, 0.09301052242517471, 0.023041434586048126, 0.08008211106061935, -0.34154212474823, -0.10226321220397949, -0.16527646780014038, -0.22673287987709045, -0.05760066211223602, -0.04307311773300171, -0.026249274611473083, -0.029406949877738953, 0.07187281548976898, 0.0013733383966609836, -0.18380682170391083, -0.2883734703063965, 0.028669673949480057, -0.06655017286539078, -0.9136790633201599, 0.02195797860622406, 0.04987162724137306, 0.020614774897694588, 0.09217029809951782, 0.05113149806857109, -0.18055419623851776, 0.004678655881434679, 0.17985491454601288, 0.0838039219379425, -0.015604060143232346, 0.05228601396083832, -0.09293206036090851, -0.20758041739463806, -0.22982794046401978, 0.02688341587781906, -0.007704297546297312, 0.0020441017113626003, -0.06868462264537811, -0.023755593225359917, -0.12277206778526306, -0.14368000626564026, -0.0017232459504157305, -0.10618055611848831, 0.016551220789551735, 0.05497172847390175, -0.1271074116230011, -0.2290876805782318, -0.006657108664512634, -0.07733078300952911, 0.03980398178100586, -0.0374939888715744, -0.04296089708805084, -0.05313815176486969, -0.05166731774806976, 0.05558587610721588, 0.08053002506494522, -0.04741678386926651, 0.1520170420408249, -0.05021628737449646, 0.09309841692447662, -0.06637617945671082, -0.27389276027679443, 0.08527812361717224, 0.08083656430244446], [0.07904399931430817, 1.012685775756836, 0.3808365762233734, -0.04904633015394211, 0.030079510062932968, 0.3510451912879944, 0.08339676260948181, -0.6940850615501404, -0.17665015161037445, 0.0949784517288208, -0.027443479746580124, 0.047118306159973145, -0.052904605865478516, 0.08353876322507858, 0.15154458582401276, -0.24610203504562378, -0.16414622962474823, 0.06480834633111954, -0.04856031388044357, 0.13110089302062988, 0.011834144592285156, 0.2958190441131592, -0.012272199615836143, -0.07747070491313934, -0.6092279553413391, -0.05549777299165726, 0.17040926218032837, -0.12724831700325012, -0.0572265088558197, 0.36194178462028503, 0.12142488360404968, -0.05835786834359169, -0.3540343642234802, -0.12890911102294922, -0.11324884742498398, -0.07731388509273529, -0.11750099062919617, -0.18262825906276703, 1.6478289365768433, -0.051561757922172546, 1.698790431022644, 0.43107423186302185, -0.12466953694820404, 0.6838001012802124, 0.36984533071517944, -0.0681377500295639, 0.17859646677970886, 0.024572253227233887, 0.016325693577528, -0.009058728814125061, 0.07083570957183838, -0.020413562655448914, 0.017708323895931244, -0.021250499412417412, 0.2292097508907318, 0.11256629228591919, 0.050162531435489655, 0.07583282142877579, 0.2930072844028473, 0.04399503767490387, 1.0582443475723267, 0.5687225461006165, -0.3229624330997467, 0.2717602252960205], [-0.011140748858451843, 0.10503348708152771, -0.09809419512748718, -0.004378125071525574, -0.11394819617271423, -0.07162274420261383, 0.07619230449199677, -0.054133132100105286, -0.11917535960674286, 0.11727246642112732, -0.045071497559547424, -0.04815293848514557, -0.11408768594264984, -0.07782167196273804, 0.0006664693355560303, -0.07832930982112885, -0.1029604971408844, -0.10845884680747986, -0.012735337018966675, -0.023071229457855225, 0.10419686138629913, -0.04939480125904083, 0.11155040562152863, 0.12463347613811493, -0.07432235777378082, -0.09067398309707642, -0.027313530445098877, -0.1032869964838028, -0.056369200348854065, -0.08668242394924164, 0.06351248919963837, -0.05449923872947693, 0.02376347780227661, -0.06837384402751923, 0.07431980967521667, 0.0061784833669662476, 0.024658024311065674, -0.07015024125576019, -0.04846113920211792, -0.11702056229114532, 0.11757200956344604, -0.06673838198184967, -0.09244820475578308, -0.10836423933506012, 0.012513473629951477, 0.09905655682086945, -0.006169378757476807, 0.07595056295394897, 0.054687440395355225, -0.047473400831222534, -0.11879363656044006, -0.1148245632648468, -0.08461034297943115, 0.11069254577159882, -0.12209963798522949, 0.048161864280700684, 0.034329190850257874, 0.11620786786079407, -0.04513901472091675, -0.03309506177902222, 0.08618532121181488, -0.017600372433662415, -0.06664775311946869, -0.020634785294532776], [-0.09705936908721924, 0.09084150195121765, -0.03643670678138733, 0.0157441645860672, -0.12477220594882965, 0.06592616438865662, 0.11476941406726837, -0.09684576094150543, -0.06506043672561646, 0.11983321607112885, 0.029034703969955444, -0.07893955707550049, 0.06830944120883942, 0.046535879373550415, 0.09859612584114075, -0.10763323307037354, 0.11280840635299683, 0.03190834820270538, -0.1101532131433487, -0.08302222192287445, -0.0040024518966674805, -0.09105241298675537, 0.025748521089553833, -0.09179125726222992, -0.07665236294269562, -0.03889741003513336, -0.04394085705280304, 0.06601119041442871, 0.12185736000537872, 0.10735966265201569, 0.09219510853290558, 0.07100364565849304, -0.10186661779880524, -0.1076992005109787, -0.0016435682773590088, 0.05557273328304291, -0.07090426981449127, -0.083092600107193, -0.07378217577934265, -0.11151584982872009, 0.038398921489715576, 0.015187099575996399, -0.006065741181373596, 0.07138039171695709, 0.018138021230697632, -0.06926794350147247, 0.06492215394973755, 0.09892363846302032, 0.10846617817878723, 0.07152220606803894, -0.03671358525753021, 0.027234405279159546, -0.08774639666080475, -0.11996528506278992, -0.07451865077018738, -0.1185254454612732, -0.044542208313941956, -0.10544465482234955, 0.11022511124610901, 0.10270905494689941, 0.11729040741920471, -0.09793968498706818, 0.04770475625991821, 0.026102319359779358], [0.051371488720178604, 1.1671286821365356, 0.362409383058548, 0.10423313081264496, 0.11152053624391556, 0.3904678225517273, 0.11770544201135635, -0.791350245475769, 0.0767843946814537, -0.013674148358404636, 0.12568272650241852, 0.03832218796014786, -0.08125050365924835, 0.11783521622419357, 0.08869538456201553, 0.0036533400416374207, 0.08265794068574905, 0.15698468685150146, -0.07411807030439377, 0.39500874280929565, -0.09669554233551025, 0.25192469358444214, 0.1624063402414322, -0.018529385328292847, -0.4587934613227844, -0.08406930416822433, 0.029051892459392548, -0.051428355276584625, -0.045111700892448425, 0.27769914269447327, 0.09950397908687592, -0.032447393983602524, -0.0401068814098835, -0.08905511349439621, -0.08179637789726257, -0.09933756291866302, 0.008695579133927822, -0.3584611713886261, 1.781084418296814, 0.05749121308326721, 1.8485658168792725, 0.44840705394744873, 0.09406056255102158, 0.5133816599845886, 0.17771488428115845, 0.07742410898208618, 0.18784306943416595, -0.028715506196022034, -0.040799036622047424, -0.03990226984024048, -0.08771032094955444, 0.0682360827922821, 0.13137899339199066, 0.10499691218137741, 0.10487093031406403, 0.056574564427137375, 0.10857600718736649, 0.01693999581038952, 0.0682993158698082, -0.012055397033691406, 0.642066478729248, 0.6369014978408813, -0.07673481106758118, 0.5957332849502563], [0.032308004796504974, 0.9380406141281128, 0.25727909803390503, -0.07423287630081177, -0.05834202840924263, 0.24149414896965027, -0.1408812254667282, -0.3750843107700348, 0.39766067266464233, -0.1458040475845337, -0.24925869703292847, 0.08208268135786057, 0.08200311660766602, -0.13090600073337555, -0.0332927480340004, -0.2070239931344986, 0.09269752353429794, -0.04109491780400276, 0.17655529081821442, 0.6720275282859802, 0.09504500031471252, 0.2262033075094223, -0.17898136377334595, -0.08137023448944092, -0.7956287860870361, 0.38104796409606934, -0.11607778072357178, -0.1164659708738327, -0.11536848545074463, -0.22166618704795837, 0.06474603712558746, -0.11153329908847809, 0.3304600417613983, -0.4662119150161743, 0.051524050533771515, 0.29359033703804016, -0.5674741864204407, -0.23128552734851837, 0.8409337997436523, 0.01820129156112671, 0.9919402599334717, 0.27699047327041626, 0.16891638934612274, 0.28148022294044495, 0.00018207254470326006, 0.20001700520515442, 0.15486618876457214, -0.014947354793548584, 0.06405863165855408, -0.10673476755619049, 0.0435156524181366, -0.0035397708415985107, 0.032838497310876846, -0.0040473975241184235, 0.1291610300540924, -0.032532237470149994, 0.16798372566699982, 0.13013270497322083, 0.0017891543684527278, -0.12437690794467926, 0.10608905553817749, 0.08073978871107101, 0.2556920647621155, 1.6032367944717407], [0.06635447591543198, 0.0929221361875534, 0.10693151503801346, 0.02652718871831894, 0.03681694716215134, 0.0471760518848896, 0.08929474651813507, 0.09023717790842056, 0.09288216382265091, 0.07881434261798859, 0.011082316748797894, -0.11859595775604248, 0.1064029335975647, -0.12424659729003906, 0.06470902264118195, -0.11098894476890564, -0.04373404383659363, 0.07072718441486359, -0.1038149744272232, -0.07810859382152557, 0.09992954134941101, 0.0035834298469126225, -0.1374233514070511, -0.06790846586227417, -0.11398044228553772, -0.14825381338596344, -0.02677563950419426, 0.06560598313808441, 0.10991957783699036, 0.106605164706707, -0.10766294598579407, 0.022308478131890297, 0.015807511284947395, 0.0006038116989657283, 0.07988833636045456, -0.0617036446928978, -0.09155081957578659, 0.060311201959848404, -0.033386047929525375, -0.060894712805747986, -0.12356925010681152, -0.09200552850961685, 0.027318919077515602, -0.12092909216880798, -0.03690791502594948, -0.08955362439155579, -0.1417284458875656, 0.006067380309104919, 0.01331558171659708, 0.0721600353717804, -0.08911256492137909, -0.05501382052898407, -0.09993740171194077, -0.1245974749326706, 0.0204428993165493, 0.017746640369296074, 0.09778754413127899, -0.09175655245780945, -0.026070520281791687, 0.006538018584251404, 0.06286918371915817, 0.00980628002434969, -0.07812877744436264, 0.07583769410848618], [-0.396038293838501, 0.25181272625923157, 0.2434135377407074, 0.06539060175418854, 0.11085034906864166, -0.04744615778326988, 0.04510488733649254, 0.47082144021987915, -0.9036858081817627, 0.0203874334692955, 0.16096095740795135, 0.07150130718946457, 0.10899516940116882, 0.1888454705476761, 0.19490252435207367, -0.3879183232784271, -0.8767235279083252, -0.027788929641246796, -0.0818626806139946, -1.1253242492675781, 0.04187142848968506, 0.2816348075866699, -0.07881632447242737, -0.10640065371990204, -0.3483272194862366, -0.0910283774137497, 0.21343517303466797, 0.19996929168701172, -0.12066866457462311, -0.3531900644302368, 0.12155747413635254, -0.08351591974496841, -0.8110563158988953, -0.03328419476747513, -0.13095775246620178, -0.6980264186859131, -0.04129461944103241, -0.060609716922044754, 0.3558814525604248, -0.051607951521873474, 0.09150011092424393, 0.18097126483917236, -0.4087778925895691, 0.04795576259493828, 0.16967348754405975, -0.2536102831363678, -0.09204886108636856, -0.0032940804958343506, -0.26332539319992065, 0.08501659333705902, 0.0016486644744873047, 0.04547683894634247, 0.13875822722911835, -0.2938854396343231, 0.06772903352975845, 0.20633520185947418, -0.4524425268173218, 0.16672775149345398, -0.15693430602550507, 0.09810207784175873, -1.0739628076553345, 0.31011998653411865, -0.09403534978628159, -0.6340899467468262], [0.022260788828134537, 0.9731813669204712, 0.4365212619304657, 0.03424932807683945, -0.030722346156835556, 0.39639729261398315, -0.009904835373163223, -0.7819210290908813, 0.31954410672187805, 0.08699191361665726, 0.057529572397470474, 0.006853461265563965, 0.10297873616218567, 0.04659700021147728, 0.12318302690982819, -0.10943603515625, 0.11612873524427414, 0.008686447516083717, -0.04762179031968117, 0.37060531973838806, -0.072896808385849, 0.34840598702430725, 0.05073124170303345, -0.0883847326040268, -0.6486738324165344, 0.1376369595527649, 0.07277238368988037, -0.2996695637702942, 0.04318556189537048, 0.24211962521076202, 0.09673359990119934, -0.05029425770044327, -0.08594681322574615, -0.11888071894645691, -0.07921535521745682, 0.0016300003044307232, -0.08242817968130112, -0.32089218497276306, 1.761336326599121, -0.0708806961774826, 1.8383015394210815, 0.4171665906906128, 0.060312677174806595, 0.6432977318763733, 0.2687349021434784, -0.01835104636847973, 0.2212447226047516, 0.1178959310054779, 0.026627488434314728, 0.10170593857765198, 0.11143864691257477, -0.1019076406955719, 0.1550273448228836, 0.013043551705777645, 0.11163017153739929, 0.08684741705656052, 0.21591268479824066, 0.026785265654325485, 0.23061668872833252, -0.0961616188287735, 0.641444742679596, 0.527043342590332, -0.13210362195968628, 1.1127930879592896], [-0.024493495002388954, -0.000771124439779669, -0.03466072678565979, 0.0885682925581932, 0.04464111849665642, 0.06367320567369461, 0.04666958749294281, 0.08299762010574341, -0.0470086894929409, -0.09061688184738159, 0.0030021804850548506, -0.046724528074264526, 0.02419663965702057, -0.06397607177495956, 0.015074186958372593, -0.06021352484822273, 0.013526953756809235, 0.025054987519979477, -0.12253747135400772, -0.026090985164046288, -0.03584688901901245, -0.13321372866630554, -0.09979767352342606, 0.1227085143327713, 0.013676956295967102, -0.00018957542488351464, -0.09394658356904984, -0.06592895835638046, -0.12170585989952087, 0.06233460083603859, -0.05606934428215027, -0.04931624233722687, 0.0003454832767602056, -0.040129899978637695, -0.09213670343160629, -0.03315707668662071, -0.04137372970581055, 0.12200316786766052, -0.062143974006175995, -0.11831998825073242, -0.11801362782716751, -0.0022885159123688936, 0.08638565987348557, 0.10068924725055695, 0.01362886093556881, 0.06615803390741348, 0.08889814466238022, 0.11513654887676239, -0.0006104459753260016, 0.1152651458978653, -0.04043625295162201, 0.002191901206970215, 0.07702676951885223, 0.006551914382725954, -0.00614953925833106, 0.016968905925750732, 0.06821509450674057, 0.043907128274440765, -0.12758338451385498, -0.06983865797519684, -0.11394058167934418, 0.08294714242219925, -0.11044672131538391, 0.010822408832609653], [0.011002412997186184, -0.10493259876966476, -0.12513287365436554, 0.043988581746816635, -0.10012251883745193, 0.08061747997999191, 0.11744704097509384, 0.0985734686255455, 0.10803815722465515, 0.015934471040964127, -0.10078956931829453, -0.09254355728626251, -0.04444137215614319, 0.1174670085310936, -0.02451157756149769, -0.02379506826400757, -0.05500807985663414, 0.026513803750276566, -0.08246945589780807, 0.11476419121026993, -0.09231157600879669, 0.08003830164670944, -0.0002898536913562566, -0.09667067229747772, 0.08211402595043182, -0.03356776013970375, -0.05626724660396576, 0.06154629588127136, 0.05496247112751007, -0.12661096453666687, -0.0049221813678741455, -0.07732808589935303, -0.08480745553970337, 0.014585153199732304, 0.10377512872219086, -0.002073629293590784, 0.05120358616113663, -0.1236831545829773, -0.012824305333197117, -0.03744515776634216, 0.0881381630897522, -0.0076071275398135185, -0.06458757817745209, 0.059444721788167953, -0.05249185115098953, -0.08857718855142593, -0.10997632145881653, 0.008406475186347961, 0.021342376247048378, 0.042320266366004944, 0.10903710126876831, -0.08778966963291168, 0.07349419593811035, -0.0827648714184761, -0.09679555892944336, 0.08653279393911362, -0.01946619153022766, 0.1120266541838646, 0.04285327345132828, -0.05984906852245331, 0.024289870634675026, -0.11931677162647247, 0.09117010235786438, -0.0735701248049736], [-0.06559494137763977, 0.11712191998958588, 0.08551134169101715, 0.024522855877876282, -0.03516826033592224, -0.04209284484386444, -0.05984391272068024, -0.06865398585796356, 0.052394747734069824, -0.014476612210273743, -0.05835239589214325, 0.11215542256832123, 0.12335680425167084, 0.05997845530509949, 0.08246156573295593, -0.04779060184955597, 0.11544926464557648, 0.005840972065925598, -0.021114543080329895, 0.06538872420787811, -0.11103212833404541, -0.11061590909957886, 0.10548567771911621, 0.009565591812133789, -0.11002369225025177, 0.05735461413860321, -0.09163731336593628, 0.04528401792049408, 0.052359580993652344, -0.11139293015003204, -0.060379743576049805, 0.017296314239501953, -0.09621992707252502, -0.06890909373760223, -0.011287078261375427, -0.01495826244354248, -0.09732945263385773, 0.042620882391929626, 0.08245058357715607, 0.0037292391061782837, 0.0721953958272934, 0.014483839273452759, 0.10598377883434296, -0.005738928914070129, -0.01517169177532196, -0.031885623931884766, -0.09039880335330963, 0.11457742750644684, -0.11331954598426819, 0.08864685893058777, -0.08576947450637817, 0.09214486181735992, 0.03396572172641754, -0.034846097230911255, 0.014195963740348816, -0.10620462894439697, -0.08101971447467804, -0.01933915913105011, -0.06567096710205078, 0.037201449275016785, 0.07705321907997131, 0.02944256365299225, -0.07737819850444794, -0.054097071290016174], [0.12280013412237167, 1.0030676126480103, 0.26301389932632446, -0.06896553933620453, -0.06332982331514359, 0.23106932640075684, 0.0971079170703888, -0.6553351879119873, 0.2341238260269165, 0.03617440164089203, -0.05401301756501198, -0.016434289515018463, 0.017688214778900146, 0.0740821436047554, 0.06476341187953949, -0.2337019294500351, -0.032331373542547226, -0.03716949000954628, 0.11910730600357056, 0.44418248534202576, -0.1162790060043335, 0.14292649924755096, 0.02360646240413189, -0.039832159876823425, -0.7315171360969543, 0.24805675446987152, 0.0769708976149559, -0.2903082072734833, 0.08060984313488007, 0.14171499013900757, -0.10730011761188507, 0.12102758884429932, 0.027217820286750793, -0.06284188479185104, -0.01615070551633835, 0.027561314404010773, -0.2231549322605133, -0.31461721658706665, 1.3394559621810913, -0.008444473147392273, 1.4882093667984009, 0.33549222350120544, 0.06378506869077682, 0.5839114785194397, 0.18331009149551392, 0.08861289918422699, 0.11151926219463348, -0.011571705341339111, 0.051359325647354126, -0.07224060595035553, 0.04158890247344971, -0.0004703700542449951, -0.10725583136081696, 0.07957863807678223, 0.1472182273864746, 0.028606751933693886, 0.05627242103219032, 0.005689281038939953, -0.018586331978440285, 0.10251474380493164, 0.6459808349609375, 0.3300190567970276, 0.04673419147729874, 1.3841133117675781], [0.09375613927841187, 1.0119836330413818, 0.3202325403690338, 0.13060207664966583, 0.1662699580192566, 0.4146762490272522, -0.009745709598064423, -0.8039031624794006, 0.15502572059631348, 0.06328729540109634, 0.16802270710468292, 0.003769244533032179, -0.09260506927967072, 0.08432363718748093, 0.0476762056350708, -0.13136781752109528, -0.08939654380083084, 0.12510108947753906, -0.10851521044969559, 0.35333406925201416, -0.0447249710559845, 0.16061735153198242, 0.10670643299818039, -0.07104717195034027, -0.6726133227348328, 0.027303166687488556, 0.12740932404994965, -0.13734391331672668, 0.05821347236633301, 0.4833241105079651, -0.04506422579288483, 0.1183633878827095, -0.21932417154312134, 0.04444613680243492, -0.026344824582338333, -0.10649945586919785, 0.020565157756209373, -0.36251696944236755, 1.704207420349121, -0.03908652067184448, 1.843072772026062, 0.6799508333206177, -0.04908325523138046, 0.6551096439361572, 0.3446144461631775, -0.05234259366989136, 0.041248757392168045, 0.050622209906578064, -0.09429513663053513, 0.07655219733715057, 0.02270609140396118, -0.03532284498214722, -0.02806813269853592, -0.01923532411456108, 0.17461302876472473, 0.04922633245587349, 0.05597545951604843, -0.0013877826277166605, 0.06816785782575607, 0.11801737546920776, 0.5073176026344299, 0.6504729390144348, -0.24178177118301392, 0.4542596936225891], [-0.24115899205207825, 0.06718537956476212, 0.06275217980146408, 0.10711929202079773, 0.10549245774745941, 0.0369955413043499, -0.028217772021889687, 0.014770370908081532, -0.22819176316261292, 0.05915554240345955, 0.04892991483211517, 0.0605560801923275, 0.02862788736820221, 0.012073093093931675, 0.08067334443330765, -0.040188465267419815, -0.5999569892883301, 0.06007011979818344, -0.2483920156955719, -0.970892071723938, 0.018359124660491943, -0.023247359320521355, -0.010107387788593769, -0.03074340522289276, -0.0999322459101677, -0.2226877510547638, -0.04613252356648445, 0.14807891845703125, -0.08163678646087646, 0.24490076303482056, -0.09852676093578339, -0.14375492930412292, -0.6795836091041565, -0.010740983299911022, -0.07473324984312057, -0.7497613430023193, 0.1420733779668808, -0.01273956149816513, -0.2210908681154251, 0.0728769451379776, -0.22841255366802216, 0.05651012808084488, -0.52860426902771, 0.1157088354229927, 0.23505949974060059, -0.32736384868621826, -0.0437299981713295, 0.018549293279647827, -0.1211204007267952, 0.04370921850204468, 0.10322012007236481, -0.06565439701080322, -0.03484730049967766, -0.03279798477888107, -0.03208785131573677, 0.022690806537866592, -0.05002998933196068, -0.05905146524310112, 0.11444447934627533, -0.0017083287239074707, -0.05030281841754913, 0.10760816931724548, -0.16753409802913666, -0.31555333733558655], [0.08699071407318115, -0.9297258853912354, -0.4585520625114441, 0.07301819324493408, 0.23804688453674316, -0.12091028690338135, 0.1972707360982895, 0.9446359872817993, -0.17911309003829956, 0.1753443330526352, 0.17048658430576324, 0.056067079305648804, -0.03534811735153198, 0.0028474933933466673, 0.03198890760540962, 0.16799771785736084, 0.20197512209415436, 0.0109410360455513, 0.09647974371910095, -0.34913405776023865, 0.044313058257102966, -0.2173091322183609, 0.036261819303035736, -0.07032135128974915, 0.7422245144844055, 0.06090572848916054, 0.007173217833042145, 0.5368726253509521, -0.08298476040363312, -0.3855489194393158, -0.0805632472038269, 0.2514778971672058, 0.1336706578731537, 0.18220578134059906, 0.22026601433753967, 0.07861222326755524, 0.22605304419994354, 0.5825109481811523, -1.4521366357803345, -0.06223689019680023, -1.369608998298645, -0.43425801396369934, 0.08855646848678589, -0.587716281414032, 0.027106307446956635, 0.19245333969593048, 0.11229345947504044, -0.11907212436199188, 0.26669761538505554, -0.12427905201911926, -0.05524894595146179, -0.08319362998008728, 0.20723985135555267, 0.06255848705768585, 0.1820402890443802, 0.049476902931928635, 0.017686422914266586, 0.15057148039340973, 0.05077893286943436, 0.08390156924724579, -0.42351800203323364, 0.027780774980783463, 0.31445321440696716, -0.9224758148193359], [0.08022651076316833, -0.11342454701662064, 0.06599754095077515, -0.05309594050049782, -0.10542376339435577, -0.2081664800643921, -0.1614813506603241, -0.0027247979305684566, -0.06888218224048615, 0.04106804355978966, 0.007428176235407591, -0.028895989060401917, -0.04140055179595947, 0.0911450982093811, -0.06414681673049927, -0.015192996710538864, 0.008824414573609829, -0.057161346077919006, -0.0321032889187336, -0.10116609930992126, 0.05138307809829712, 0.011734707280993462, 0.09858199208974838, -0.10376067459583282, -0.31649667024612427, -0.135039821267128, -0.12899696826934814, 0.027886109426617622, -0.10921715199947357, 0.029978496953845024, 0.09631754457950592, -0.08893933147192001, 0.07344800233840942, 0.04169660061597824, 0.07512110471725464, -0.03623078390955925, -0.03758732229471207, 0.05014809966087341, -0.0729248896241188, -0.023466631770133972, -0.1512036919593811, -0.12733930349349976, 0.03361723944544792, -0.1466449499130249, -0.07223697751760483, -0.05885705351829529, -0.044189006090164185, 0.12050756812095642, -0.011531232856214046, 0.08097802102565765, 0.09048379957675934, -0.12141035497188568, -0.032929692417383194, 0.058628495782613754, -0.09196203202009201, 0.04762592166662216, 0.043315015733242035, 0.07734771817922592, 0.09129789471626282, -0.04251192510128021, -0.10439035296440125, -0.17520667612552643, 0.03331680968403816, -0.06431164592504501], [0.09932942688465118, 0.8196971416473389, 0.0682104080915451, -0.17136281728744507, -0.04713479056954384, 0.3117256462574005, -0.048664968460798264, -0.5801119804382324, 0.2295854538679123, 0.0188287366181612, 0.011793202720582485, -0.07062621414661407, 0.10100144147872925, -0.1066853404045105, 0.14505238831043243, -0.09600310027599335, -0.04463210701942444, 0.09088189154863358, 0.16466836631298065, 0.6576134562492371, 0.08325016498565674, 0.16040609776973724, -0.0460074357688427, 0.07377627491950989, -0.7736765146255493, 0.11659956723451614, 0.09347132593393326, -0.3028329014778137, 0.06474311649799347, 0.18047407269477844, 0.0680558830499649, 0.06384127587080002, 0.3537788391113281, -0.19378544390201569, -0.02974875085055828, 0.01888817921280861, -0.3114809989929199, -0.43621864914894104, 1.0141468048095703, -0.04818242788314819, 1.2245734930038452, 0.20294435322284698, 0.15785729885101318, 0.46300578117370605, 0.0044173588976264, 0.2853216230869293, 0.16326166689395905, -0.08736363053321838, 0.05794946849346161, 0.002972140908241272, -0.04224078357219696, -0.06660042703151703, -0.12422099709510803, -0.1032136008143425, 0.0030505547765642405, -0.07962113618850708, -0.0007814202690497041, 0.1603841334581375, 0.10019298642873764, -0.09758493304252625, 0.3930916488170624, 0.19915926456451416, 0.1204591915011406, 1.4118412733078003], [0.09574727714061737, 0.0488089919090271, 0.039106473326683044, 0.07334265112876892, -0.09151040017604828, -0.016518250107765198, 0.032786667346954346, -0.10550548136234283, 0.11366946995258331, 0.05825759470462799, 0.05349850654602051, -0.06724396347999573, -0.011032044887542725, -0.10871249437332153, 0.004759356379508972, -0.0601019412279129, 0.03660967946052551, -0.07865320146083832, -0.09966793656349182, -0.1072535514831543, 0.0836658626794815, 0.024618864059448242, -0.07111367583274841, -0.0985695868730545, 0.06615859270095825, 0.11584034562110901, -0.08792150020599365, 0.108950674533844, -0.01549556851387024, -0.09400005638599396, 0.039319947361946106, -0.043874576687812805, -0.11225943267345428, 0.007660523056983948, 0.005606517195701599, -0.09704945981502533, -0.10795451700687408, 0.07493053376674652, -0.08339107036590576, -0.07568411529064178, -0.10687822103500366, 0.05080170929431915, 0.003500014543533325, 0.08804892003536224, 0.07156547904014587, -0.051878899335861206, 0.05088542401790619, -0.11970497667789459, -0.0005949884653091431, -0.008932068943977356, -0.05236385762691498, 0.0047782957553863525, -0.11206778883934021, -0.016152724623680115, 0.09258295595645905, -0.11683464050292969, 0.05642995238304138, -0.05256316065788269, -0.016708210110664368, -0.10645577311515808, -0.0654640942811966, 0.04908348619937897, 0.07603071630001068, 0.047084420919418335], [0.33674782514572144, -0.6084585785865784, 0.28719204664230347, 0.010382073000073433, -0.25799885392189026, -1.1926051378250122, -0.5144595503807068, -0.9220362305641174, -0.14375202357769012, 0.12713362276554108, -0.08223196119070053, -0.04929174482822418, 0.033698081970214844, 0.06570255011320114, -0.8436592817306519, 0.40161076188087463, 0.5200104713439941, -0.7409121990203857, 0.19277510046958923, -0.537307620048523, 0.08845716714859009, 0.36006060242652893, 0.0523284412920475, -0.002038225531578064, 0.6118823289871216, -0.3692673146724701, -0.07158979773521423, 0.28771746158599854, -0.09340327978134155, 0.3257685899734497, 0.09019461274147034, 0.10168331861495972, 0.007458328269422054, 0.23163600265979767, 0.11458554863929749, 0.43889132142066956, 0.2933993339538574, 0.5304028987884521, -1.2854549884796143, 0.10099241137504578, -1.3851062059402466, 0.20517729222774506, 0.35178983211517334, 0.02195010893046856, -0.522371768951416, -0.03501198813319206, -0.6112054586410522, -0.01137116551399231, 0.09084558486938477, 0.09625868499279022, -0.0861312747001648, -0.07237562537193298, 0.03268783167004585, -0.027979396283626556, 0.18005084991455078, 0.016070470213890076, 0.3452453315258026, 0.1739484965801239, 0.3772367238998413, -0.05973680317401886, -0.2799968421459198, -2.290405035018921, -0.12029492855072021, -0.8958218693733215], [-0.06452611088752747, 0.04392126202583313, -0.07755310833454132, -0.10158312320709229, -0.11936777830123901, 0.005831792950630188, -0.11419391632080078, -0.10713845491409302, 0.059797972440719604, -0.12109838426113129, -0.08753673732280731, 0.07025100290775299, -0.07928931713104248, 0.04509271681308746, 0.11571753025054932, 0.11215968430042267, -0.06530074775218964, -0.12107686698436737, -0.019353032112121582, -0.07040934264659882, 0.047378525137901306, -0.024133652448654175, -0.1128503680229187, 0.1060224175453186, -0.09375296533107758, 0.07673531770706177, -0.09206391870975494, 0.1132056713104248, -0.10234278440475464, -0.03968173265457153, 0.10103806853294373, -0.09667390584945679, -0.11414298415184021, -0.03555192053318024, 0.10964791476726532, 0.05329568684101105, 0.0615142285823822, 0.06754419207572937, 0.022439420223236084, -0.06093838810920715, -0.09121820330619812, -0.08066420257091522, 0.10873271524906158, -0.06463998556137085, -0.024014711380004883, -0.0962708592414856, -0.015444263815879822, 0.09505172073841095, 0.07909421622753143, 0.07307106256484985, -0.034680336713790894, -0.06250502169132233, 0.11467447876930237, -0.1018892377614975, 0.0697593092918396, -0.08070914447307587, -0.11001744866371155, 0.014995187520980835, -0.010713741183280945, 0.02658948302268982, 0.09419459104537964, -0.04827943444252014, -0.026531800627708435, 0.037951961159706116], [0.00018162534979637712, 0.1037953719496727, -0.04028650000691414, -0.10341449081897736, 0.0030792125035077333, -0.05942761152982712, 0.021592844277620316, -0.08927987515926361, 0.004331889096647501, -0.00619317963719368, -0.08280975371599197, 0.034472495317459106, 0.0506463348865509, 0.02264261431992054, -0.06719350069761276, 0.0844767838716507, -0.08234065026044846, 0.038567110896110535, 0.015048026107251644, -0.10542668402194977, 0.07232296466827393, -0.10135165601968765, 0.05723999813199043, -0.01073940098285675, 0.07194869220256805, -0.007664356380701065, 0.11802732944488525, -0.10469769686460495, 0.04472239315509796, -0.09601088613271713, -0.014134123921394348, 0.054179009050130844, 0.05039248988032341, 0.05702833831310272, 0.0006570437690243125, -0.06507088989019394, -0.1301639974117279, 0.11444497108459473, -0.006021019537001848, -0.0733993649482727, -0.02787512168288231, 0.11768854409456253, -0.1287471354007721, -0.08543417602777481, -0.0834534764289856, -0.11482139676809311, 0.02987508289515972, 0.0007516294717788696, -0.05902387574315071, 0.07860638201236725, -0.07220663130283356, 0.10777784883975983, -0.017577040940523148, 0.08084829151630402, 0.050766363739967346, -0.10032965987920761, -0.11765503138303757, 0.01662687584757805, -0.0057448954321444035, -0.07347171008586884, 0.09616188704967499, -0.04708051681518555, -0.12311339378356934, -0.11585339158773422], [0.09510491043329239, 1.052298665046692, 0.3067532479763031, 0.09037868678569794, -0.017102040350437164, 0.3008002042770386, 0.06216639652848244, -0.8200362920761108, 0.16805075109004974, -0.0026209093630313873, -0.05220915377140045, 0.06822553277015686, -0.060323894023895264, 0.13965772092342377, 0.06823042780160904, 0.00527858454734087, 0.05390297621488571, 0.13954252004623413, 0.0722101628780365, 0.3524300754070282, -0.03376007080078125, 0.16892988979816437, -0.06209595501422882, 0.009641140699386597, -0.6302576661109924, 0.185580775141716, 0.04746974632143974, -0.308536171913147, 0.011712238192558289, 0.4128229320049286, 0.05916978418827057, 0.09517838805913925, 0.08453838527202606, 0.03578558564186096, 0.020227717235684395, -0.12937109172344208, -0.009069622494280338, -0.514197051525116, 1.6514397859573364, 0.09181888401508331, 1.7027415037155151, 0.4804573655128479, -0.0364992618560791, 0.5455535650253296, 0.1775251179933548, 0.012496823444962502, 0.14403954148292542, 0.077357217669487, 0.060714494436979294, 0.056049689650535583, 0.04454521834850311, 0.05275459587574005, -0.025003522634506226, -0.10822082310914993, 0.13368220627307892, 0.021013768389821053, 0.08677340298891068, 0.04434429481625557, 0.2277071326971054, 0.08889839053153992, 0.6181081533432007, 0.4766343832015991, -0.04375855624675751, 1.3110747337341309], [0.06669817119836807, -0.11969754844903946, 0.06483469903469086, 0.0941959097981453, 0.050574466586112976, -0.08211980760097504, -0.06048237904906273, 0.0312560498714447, 0.09643235802650452, -0.030072582885622978, -0.039873793721199036, -0.023097440600395203, 0.07174260914325714, -0.09142211079597473, 0.07777246832847595, 0.029538080096244812, -0.06890087574720383, -0.08729256689548492, -0.05312992259860039, -0.1038760244846344, 0.0684230625629425, -0.005032842978835106, -0.11461121588945389, 0.06113588809967041, 0.025724142789840698, -0.03528979420661926, 0.0768997073173523, -0.005340829491615295, -0.009780675172805786, -0.0400007888674736, -0.03241485357284546, 0.11990377306938171, -0.03449232876300812, -0.08864463865756989, -0.03533635288476944, 0.09927303344011307, -0.019204795360565186, 0.10002940893173218, -0.03076118789613247, -0.1111346185207367, 0.11956186592578888, -0.08242768049240112, -0.06460760533809662, 0.10933996737003326, 0.016547678038477898, 0.028963031247258186, -0.01109391450881958, 0.0389009565114975, 0.017578357830643654, 0.050204306840896606, -0.0700903832912445, -0.07685904204845428, 0.07318411022424698, -0.030072737485170364, 0.01892554759979248, -0.05980554595589638, -0.017829835414886475, -0.09244230389595032, -0.05011903494596481, -0.0784306675195694, -0.057278722524642944, -0.12053513526916504, -0.05438041687011719, 0.10158386826515198], [-0.08423817902803421, 1.0780805349349976, 0.44490957260131836, 0.04320168122649193, -0.10906050354242325, 0.2152128517627716, -0.022327428683638573, -0.9556491374969482, 0.24234841763973236, 0.03353913873434067, 0.11185405403375626, -0.013775457628071308, -0.03228375315666199, 0.09468543529510498, 0.010343258269131184, -0.27295544743537903, -0.36160361766815186, 0.10012782365083694, -0.029543790966272354, 0.7502976655960083, -0.048893362283706665, 0.28655239939689636, -0.10828745365142822, 0.013093739748001099, -0.42662882804870605, -0.09818947315216064, 0.04055686667561531, -0.0865376740694046, 0.1048818826675415, 0.43737515807151794, -0.08758664131164551, -0.012210588902235031, -0.2368038147687912, 0.13533896207809448, -0.14129412174224854, -0.30348119139671326, -0.08640210330486298, -0.31503358483314514, 1.7896950244903564, -0.0060663968324661255, 1.884305715560913, 0.4779629409313202, -0.22172811627388, 0.576677680015564, 0.27514058351516724, -0.2601242661476135, 0.1783493012189865, 0.117404505610466, -0.20851008594036102, -0.0798061341047287, -0.04699665307998657, -0.03690637648105621, -0.10754141956567764, -0.038645483553409576, -0.08718279004096985, 0.015898358076810837, -0.11732286959886551, 0.08725008368492126, 0.20304690301418304, -0.12120102345943451, 1.4427679777145386, 0.6261217594146729, -0.6665045022964478, 0.3908288776874542], [-0.07033112645149231, 0.07874981313943863, 0.07711919397115707, 0.07618529349565506, -0.1298074573278427, -0.06736762076616287, -0.04160948842763901, -0.04802040383219719, 0.04770968481898308, 0.04673275351524353, 0.013716371729969978, -0.024663612246513367, 0.12157115340232849, -0.03402215987443924, -0.13458824157714844, -0.01783660613000393, -0.07418416440486908, -0.08945776522159576, 0.04498859494924545, -0.1241021454334259, -0.10599477589130402, 0.04413756728172302, 0.06564745306968689, -0.08587749302387238, -0.028817882761359215, -0.12811730802059174, 0.07309913635253906, -0.0033932747319340706, -0.0021182596683502197, 0.011626362800598145, -0.10426643490791321, 0.0200643390417099, 0.057610880583524704, 0.0816681757569313, -0.10648084431886673, 0.04211900383234024, -0.08869142085313797, -0.03756631910800934, 0.040291596204042435, 0.07177010178565979, -0.042149823158979416, 0.06906024366617203, -0.01794431172311306, -0.01228189468383789, -0.11725274473428726, -0.06685354560613632, -0.08081463724374771, -0.003369376063346863, -0.054438091814517975, 0.06916634738445282, 0.025922581553459167, -0.009547173976898193, 0.0664897933602333, 0.04727896675467491, -0.13148634135723114, 0.05836622789502144, -0.08745434880256653, -0.13209106028079987, -0.05106806382536888, -0.07926732301712036, 0.07530303299427032, -0.11122658848762512, -0.07572802156209946, -0.08234735578298569], [-0.038713742047548294, 0.99541836977005, 0.536196768283844, 0.03451310098171234, 0.07182423025369644, 0.25053665041923523, 0.13257594406604767, -0.8431102633476257, 0.16078023612499237, 0.07841995358467102, 0.11681023985147476, 0.056783244013786316, 0.11705681681632996, -0.009973329491913319, 0.11117231100797653, -0.07148949801921844, -0.09484593570232391, 0.16105180978775024, 0.05446923151612282, 0.29803013801574707, 0.11033043265342712, 0.2971663475036621, -0.07363519072532654, 0.0632457435131073, -0.5430290102958679, -0.11607977002859116, 0.011353741399943829, -0.05333637818694115, 0.10807172954082489, 0.4714185893535614, 0.040052637457847595, 0.019502125680446625, -0.18155032396316528, -0.02041221596300602, 0.10548432916402817, -0.03638708218932152, -0.018585028126835823, -0.48418039083480835, 1.7809460163116455, -0.09121610224246979, 2.0197341442108154, 0.5557540655136108, -0.010625762864947319, 0.7476421594619751, 0.3475699722766876, -0.08649182319641113, 0.03649212792515755, 0.011826395988464355, -0.08320628851652145, 0.12348034977912903, -0.01496058702468872, -0.09437161684036255, -0.02222944051027298, -0.026651378720998764, 0.02933875098824501, 0.24049822986125946, 0.11051569133996964, 0.12326819449663162, 0.11093419045209885, 0.09819690883159637, 0.5130009651184082, 0.4395405948162079, -0.14898471534252167, 0.4602852165699005], [-0.016436636447906494, -0.050083890557289124, 0.06097385287284851, 0.03427329659461975, -0.058231040835380554, 0.10118837654590607, 0.0299864262342453, -0.049560368061065674, -0.047161564230918884, -0.06327883899211884, -0.09396427869796753, -0.1133856475353241, 0.020940616726875305, 0.08666954934597015, -0.003628268837928772, 0.05624040961265564, 0.020864680409431458, -0.021123602986335754, -0.08428546786308289, -0.0939996987581253, -0.07231080532073975, 0.07254861295223236, 0.12376946210861206, -0.0006853193044662476, -0.09676423668861389, -0.06611743569374084, 0.04834127426147461, 0.05281125009059906, 0.12366709113121033, -0.050765663385391235, -0.009923011064529419, -0.0759543925523758, 0.11768397688865662, 0.11947125196456909, -0.07297779619693756, -0.07331967353820801, -0.1146027147769928, 0.07633861899375916, 0.03381511569023132, -0.04289485514163971, -0.11496411263942719, -0.11084195971488953, -0.12264326214790344, -0.07666902244091034, -0.04390014708042145, -0.08977702260017395, -0.10119016468524933, 0.10370378196239471, -0.004319667816162109, 0.09177201986312866, 0.10929350554943085, -0.05377647280693054, -0.06707069277763367, -0.11676564812660217, -0.007946372032165527, -0.08424849808216095, -0.0527646541595459, -0.03649352490901947, -0.10084863007068634, -0.05429817736148834, 0.10036471486091614, 0.005969792604446411, -0.07533417642116547, 0.06440721452236176], [0.23478546738624573, -0.146652951836586, -0.1933710128068924, -0.22735020518302917, -0.19654306769371033, -0.35396063327789307, -0.05884672701358795, -0.3872782588005066, -0.13489697873592377, -0.06276626884937286, -0.10300027579069138, -0.10742101073265076, -0.015493988990783691, 0.036280401051044464, -0.357290118932724, -0.029431169852614403, 0.11992739140987396, -0.29234588146209717, -0.04531565681099892, 0.20861929655075073, 0.08705046772956848, 0.00444234162569046, -0.04846259951591492, -0.0966431051492691, 0.13774114847183228, -0.08528080582618713, -0.0948161706328392, 0.12043504416942596, 0.07880738377571106, -0.229638010263443, -0.029025107622146606, 0.1263541877269745, 0.07973924279212952, -0.15221089124679565, -0.01817375048995018, 0.05113880708813667, -0.143530011177063, -0.0492369718849659, -0.13690795004367828, 0.10710868239402771, -0.10286762565374374, 0.06100066378712654, 0.15757645666599274, -0.013509409502148628, -0.03663024306297302, -0.02056686207652092, -0.1295982301235199, -0.04590991139411926, 0.18895728886127472, 0.08749598264694214, -0.05194196105003357, 0.007976636290550232, -0.03686852753162384, -0.0005667582154273987, 0.15026286244392395, -0.018866457045078278, 0.09676729142665863, 0.11266063153743744, -0.13830961287021637, -0.10066163539886475, 0.21833044290542603, -0.477153480052948, -0.6476357579231262, -0.1257072538137436], [-0.015942281112074852, 1.0937215089797974, 0.394900918006897, -0.027137409895658493, -0.017036667093634605, 0.3516731262207031, -0.060662634670734406, -0.7633354663848877, 0.2755727469921112, 0.07528805732727051, -0.07182198017835617, -0.017359113320708275, 0.06840497255325317, 0.1265164464712143, 0.1307394802570343, -0.0453137643635273, 0.053914379328489304, -0.07602749764919281, 0.075440414249897, 0.586721658706665, -0.02839203178882599, 0.23354315757751465, 0.06588210165500641, -0.055253103375434875, -0.5902294516563416, 0.1752811074256897, 0.04877340421080589, -0.28511911630630493, 0.11431944370269775, 0.4049385190010071, 0.10045193135738373, 0.050779420882463455, 0.05506270006299019, -0.004610548261553049, -0.07469232380390167, -0.08406826108694077, -0.06905361264944077, -0.37895503640174866, 1.5936133861541748, 0.07810467481613159, 1.5006096363067627, 0.5337716937065125, 0.0018765648128464818, 0.653172492980957, 0.20663098990917206, -0.04715634882450104, 0.2475559562444687, -0.036395251750946045, 0.09891113638877869, 0.022327527403831482, 0.008425295352935791, -0.036330804228782654, 0.045525625348091125, -0.0011857608333230019, -0.03244996815919876, 0.045046161860227585, 0.010224570520222187, 0.1044917032122612, 0.02749619446694851, 0.12025006115436554, 0.6347916722297668, 0.3102353513240814, -0.2068825662136078, 1.1722660064697266], [0.10550730675458908, -0.043020930141210556, 0.08297233283519745, -0.03856882080435753, 0.09462421387434006, -0.07754714787006378, 0.019355209544301033, -0.005932517349720001, 0.0020511650945991278, -0.12930962443351746, 0.05437778681516647, 0.06787660717964172, 0.0940915048122406, 0.03798360005021095, -0.1323053240776062, -0.0719200149178505, 0.007712006568908691, 0.031395088881254196, -0.053314000368118286, -0.03991251066327095, -0.011800318956375122, -0.01247316226363182, 0.0970005914568901, 0.06631673872470856, 0.002764053177088499, -0.11548103392124176, 0.007948532700538635, 0.06369040906429291, -0.02593514323234558, -0.08604499697685242, -0.07527534663677216, 0.03561311215162277, -0.09283992648124695, 0.008454717695713043, -0.013282643631100655, 0.06606172770261765, 0.08774610608816147, 0.08277082443237305, 0.06039698049426079, -0.05777265131473541, 0.03251113370060921, 0.037795741111040115, -0.08301809430122375, 0.04703226312994957, 0.036967940628528595, -0.009110186249017715, -0.06057481840252876, 0.08087027072906494, -0.08238325268030167, 0.040126144886016846, 0.0985451340675354, -0.1185731440782547, -0.025677889585494995, -0.043954405933618546, -0.10602155327796936, 0.020012617111206055, 0.02719586156308651, -0.029984615743160248, -0.04373166710138321, -0.09784470498561859, -0.09694129228591919, 0.11668220162391663, -0.0830313041806221, -0.028188571333885193], [0.27776390314102173, -0.8399272561073303, -0.16077257692813873, 0.23386956751346588, 0.06042078509926796, -0.17618218064308167, 0.2865920960903168, 0.40768346190452576, 0.19625239074230194, 0.09497353434562683, 0.08759307116270065, 0.049998655915260315, 0.031520336866378784, -0.05649309605360031, -0.03541422635316849, 0.21050505340099335, 0.2808986008167267, 0.18828065693378448, 0.29244276881217957, 0.017815617844462395, -0.10743975639343262, -0.09719598293304443, 0.1390112191438675, -0.08268676698207855, -0.1247730553150177, 0.41300952434539795, -0.0682467445731163, -0.15132814645767212, -0.058678776025772095, -0.3303949534893036, -0.0914296954870224, 0.18673762679100037, 0.5357280373573303, 0.22847673296928406, 0.12626656889915466, 0.40514227747917175, 0.1746269166469574, -0.043340686708688736, -1.212812066078186, 0.02559681236743927, -1.0917006731033325, -0.4960540533065796, 0.42529749870300293, -0.4713785946369171, -0.28128209710121155, 0.28450533747673035, 0.22475731372833252, -0.026069805026054382, 0.35436031222343445, 0.09882359206676483, 0.04207901656627655, -0.08519934117794037, 0.07042039930820465, 0.09486851096153259, 0.026039142161607742, -0.13951461017131805, -0.05924782529473305, 0.17151756584644318, -0.22041817009449005, 0.0007566213607788086, -0.518621563911438, -0.5108016133308411, 0.4354245364665985, -0.7812532186508179], [-0.06421622633934021, -0.022326424717903137, 0.023835450410842896, -0.017490416765213013, -0.05973123013973236, 0.04579345881938934, -0.09467628598213196, -0.05299249291419983, 0.07039204239845276, 0.02843618392944336, -0.02138476073741913, -0.06561751663684845, -0.0972009152173996, 0.03208093345165253, 0.01812770962715149, 0.10682286322116852, -0.11456595361232758, 0.03481768071651459, -0.033043861389160156, -0.04874517023563385, -0.07840053737163544, 0.07683590054512024, -0.06578072905540466, 0.11079952120780945, -0.02082693576812744, -0.11044633388519287, -0.08080437779426575, -0.11360792815685272, 0.06225062906742096, -0.006621837615966797, 0.08883650600910187, 0.08228670060634613, -0.05555516481399536, 0.08342193067073822, 0.06599000096321106, 0.11705383658409119, -0.008482217788696289, 0.029287606477737427, -0.030936941504478455, 0.0719207376241684, -0.012320905923843384, -0.05417090654373169, -0.07139953970909119, -0.05887317657470703, -0.07585480809211731, -0.044416338205337524, 0.09808845818042755, 0.10780568420886993, -0.11926782131195068, 0.028584495186805725, 0.11297199130058289, 0.01435735821723938, -0.04207800328731537, -0.012668401002883911, 0.06345279514789581, -0.023155435919761658, 0.08502611517906189, 0.03424985706806183, -0.12088030576705933, -0.03431454300880432, -0.04827535152435303, 0.055944666266441345, 0.08018854260444641, -0.09854717552661896], [-0.07611249387264252, 0.08939675986766815, -0.052499979734420776, -0.08042332530021667, 0.06869517266750336, 0.08235542476177216, -0.12133766710758209, -0.012454569339752197, -0.08170750737190247, 0.05464497208595276, 0.06925663352012634, -0.03356526792049408, 0.03621263802051544, -0.09820584952831268, -0.09989942610263824, -0.10568399727344513, -0.02581232786178589, -0.11447764933109283, 0.025054022669792175, -0.08363644778728485, -0.01866467297077179, 0.0661809891462326, 0.10568048059940338, -0.12172992527484894, -0.12218400835990906, 0.01049727201461792, 0.024443209171295166, 0.005210012197494507, 0.047829270362854004, -0.09847152233123779, 0.08776751160621643, 0.11215507984161377, 0.08809179067611694, -0.11923655867576599, -0.07935330271720886, -0.07824136316776276, -0.10084964334964752, 0.009060651063919067, -0.06391716003417969, 0.0897444486618042, 0.012356042861938477, -0.07058508694171906, 0.06535016000270844, 0.10799889266490936, 0.061282798647880554, -0.07235914468765259, -0.06650356948375702, -0.047679707407951355, -0.08023558557033539, -0.043371930718421936, -0.06562143564224243, 0.0840347558259964, -0.10344552993774414, -0.011300653219223022, 0.07827630639076233, -0.10988368093967438, 0.09311443567276001, -0.030958980321884155, 0.001293972134590149, -0.09194852411746979, 0.0607677698135376, 0.032539695501327515, 0.11127714812755585, 0.08675628900527954], [0.13488440215587616, 1.0090759992599487, 0.2251177281141281, -0.15960146486759186, -0.0523897260427475, 0.07147189229726791, -0.07702108472585678, -0.8593982458114624, 0.31085115671157837, 0.031332068145275116, -0.17203788459300995, 0.07351798564195633, -0.10210615396499634, -0.13169118762016296, -0.015929855406284332, -0.2974560558795929, 0.12302237749099731, -0.2632538974285126, 0.047037091106176376, 0.48314350843429565, 0.11118674278259277, 0.28516489267349243, -0.06029103696346283, -0.0363406240940094, -0.8759002089500427, 0.19656608998775482, 0.0005320454947650433, -0.31457749009132385, 0.0750700831413269, -0.0682649239897728, -0.005205407738685608, -0.06226625666022301, 0.21345578134059906, -0.3450601100921631, 0.04181995242834091, -0.022914167493581772, -0.312171071767807, -0.46799635887145996, 1.1611864566802979, -0.0688633918762207, 1.3257440328598022, 0.3111080527305603, 0.18457874655723572, 0.5634031295776367, 0.07388381659984589, 0.07003291696310043, -0.00971016101539135, -0.0007802098989486694, -0.12075214833021164, -0.03702439367771149, 0.008344873785972595, -0.07568874955177307, -0.12911051511764526, 0.03471408411860466, -0.08741741627454758, -0.06430277973413467, -0.002009801333770156, 0.004946386907249689, -0.12632311880588531, -0.011853739619255066, 0.1535385400056839, 0.010281667113304138, -0.1340223103761673, 1.6443381309509277], [0.16487178206443787, 1.02957284450531, 0.39345917105674744, 0.036661259829998016, 0.11209762841463089, 0.2802107334136963, 0.15092231333255768, -0.7525246739387512, 0.12845320999622345, 0.005563307553529739, 0.05099853500723839, 0.11303947120904922, -0.0598735511302948, -0.0005656331195496023, 0.08507805317640305, -0.055098336189985275, 0.02932938002049923, -0.06356722116470337, 0.06629008799791336, 0.4398268461227417, -0.04607595503330231, 0.22448411583900452, 0.014200873672962189, -0.11594472825527191, -0.6734814047813416, 0.18121306598186493, 0.13054920732975006, -0.4908899664878845, 0.057701289653778076, 0.2611018419265747, -0.03455880284309387, 0.08216815441846848, 0.02463424950838089, -0.035157460719347, 0.13056442141532898, 0.022135112434625626, -0.05126165971159935, -0.37549498677253723, 1.6332193613052368, 0.03193049132823944, 1.6904785633087158, 0.5586336255073547, 0.08393853157758713, 0.477741003036499, 0.11899183690547943, 0.09923650324344635, 0.21480150520801544, -0.09252890944480896, 0.11339887231588364, 0.06315793097019196, 0.012187734246253967, -0.032258644700050354, 0.08530358970165253, -0.04445744678378105, 0.08361796289682388, 0.038026824593544006, 0.18379177153110504, 0.05449454113841057, 0.059130676090717316, 0.09246774017810822, 0.6143423914909363, 0.3215816617012024, -0.0869477316737175, 1.319106101989746], [0.07390835136175156, 0.9053870439529419, 0.17725223302841187, 0.028816398233175278, -0.09955592453479767, 0.2021474391222, 0.013489835895597935, -0.6968207955360413, 0.30583441257476807, 0.04086896777153015, -0.08947303146123886, -0.07438872009515762, 0.029442235827445984, -0.0002232599799754098, 0.00011287868255749345, -0.23464275896549225, -0.014308365061879158, 0.13083931803703308, 0.1132517158985138, 0.5421130061149597, 0.11060146987438202, 0.08472037315368652, 0.10569985210895538, 0.11660504341125488, -0.8413686156272888, 0.18464979529380798, 0.0375218391418457, -0.3121984004974365, -0.06032636761665344, 0.1562960296869278, 0.07481645047664642, 0.10801029950380325, 0.05612555518746376, 0.009160241112112999, 0.12371130287647247, 0.07050444185733795, -0.11037072539329529, -0.3617607355117798, 1.3420337438583374, 0.11451281607151031, 1.3965673446655273, 0.40073585510253906, 0.008752601221203804, 0.44215232133865356, 0.13778918981552124, 0.18250326812267303, 0.25112828612327576, -0.04084236919879913, 0.06357479095458984, -0.001380234956741333, 0.04710832238197327, -0.05347508192062378, 0.0824911966919899, -0.04885629191994667, -0.009897898882627487, -0.13164645433425903, 0.1477077603340149, 0.06468814611434937, -0.05316932126879692, -0.017438873648643494, 0.62746262550354, 0.13786405324935913, 0.0835360586643219, 1.5424503087997437], [-0.1340990662574768, -0.04717191308736801, 0.09838094562292099, 0.07210798561573029, 0.08261082321405411, -0.1526862382888794, 0.03662664443254471, 0.02250841073691845, -0.13528190553188324, 0.04844527319073677, -0.04956835135817528, -0.005863294005393982, 0.03834110498428345, -0.12093131989240646, -0.010711662471294403, 0.03581392019987106, -0.08742363750934601, -0.05491659790277481, -0.04739627614617348, -0.14311885833740234, 0.04696124792098999, -0.018649931997060776, -0.020445477217435837, -0.033891692757606506, -0.05512518435716629, -0.11067688465118408, 0.018173042684793472, -0.10067465901374817, 0.044071704149246216, -0.10108499974012375, -0.037995874881744385, 0.06589441746473312, 0.03681107982993126, 0.007833571173250675, 0.04472629725933075, -0.09450999647378922, 0.008181482553482056, 0.06560073047876358, -0.08357486128807068, -0.07652886211872101, 0.08815643191337585, -0.10814069956541061, -0.02646622061729431, 0.06523894518613815, 0.0409431979060173, -0.051691316068172455, -0.12096951901912689, 0.015440031886100769, -0.1314757615327835, -0.07517348229885101, 0.045583054423332214, 0.05637027323246002, -0.11019532382488251, 0.05304494500160217, 0.08671581000089645, -0.04098637029528618, -0.019429443404078484, -0.08753054589033127, -0.09366124123334885, 0.033507391810417175, 0.08826597779989243, -0.05557740852236748, 0.011114843189716339, 0.11545120924711227], [-0.10094915330410004, -0.036881208419799805, -0.022739214822649956, -0.08355769515037537, 0.04215443879365921, -0.020246118307113647, -0.10554380714893341, 0.1144443154335022, -0.08137363940477371, 0.0693569928407669, 0.08438891917467117, -0.12298235297203064, 0.0049957334995269775, -0.11112263798713684, -0.044286951422691345, -0.180084228515625, -0.40999868512153625, -0.07948869466781616, -0.031113870441913605, -0.44493433833122253, -0.05678054690361023, -0.09243887662887573, 0.09454180300235748, -0.0010482966899871826, 0.08255884796380997, -0.14059418439865112, 0.10731323808431625, 0.03810814768075943, 0.06294366717338562, -0.034928206354379654, 0.014067143201828003, -0.07947324216365814, -0.33244404196739197, -0.11531044542789459, -0.0034974950831383467, -0.13589107990264893, -0.03965015336871147, -0.10475706309080124, 0.09802516549825668, 0.010722339153289795, -0.038686417043209076, 0.0760846883058548, -0.19143308699131012, 0.04623084515333176, 0.014534181915223598, -0.14654237031936646, -0.0029891920275986195, -0.08215802907943726, -0.09610865265130997, 0.12280268967151642, -0.053872525691986084, -0.11537334322929382, -0.09761832654476166, 0.018041349947452545, 0.058355461806058884, 0.03645987808704376, 0.027251873165369034, 0.058558084070682526, 0.0291408970952034, -0.09490852057933807, -0.17428378760814667, -0.07058628648519516, 0.01175621896982193, 0.016960766166448593], [-0.06076407805085182, -0.12039180099964142, -0.02278072200715542, 0.11047353595495224, -0.052413951605558395, 0.07636735588312149, -0.02832888811826706, -0.08445318043231964, -0.0648944079875946, -0.016874652355909348, -0.12210938334465027, -0.06709769368171692, -0.07198362052440643, -0.11676914244890213, -0.057676106691360474, 0.0750715509057045, 0.09505840390920639, 0.10194984823465347, 0.005109589081257582, -0.08303086459636688, -0.11592443287372589, -0.12958219647407532, 0.07923005521297455, -0.09435117244720459, 0.09979087114334106, -0.026661820709705353, 0.11266885697841644, -0.10051481425762177, 0.05493897199630737, 0.010207886807620525, -0.11298345029354095, -0.016550034284591675, -0.08777741342782974, -0.039187826216220856, 0.10995634645223618, -0.1077156513929367, 0.02246328815817833, -0.06085110455751419, -0.01493927650153637, 0.0341009646654129, -0.05780873820185661, -0.09709696471691132, -0.04906916618347168, -0.05503306910395622, -0.08339805155992508, 0.05002814531326294, -0.1311119943857193, 0.008421629667282104, 0.08090732991695404, 0.002583935856819153, -0.08337442576885223, -0.050526753067970276, 0.06909656524658203, -0.0042878491804003716, 0.01353932823985815, 0.007600449025630951, -0.10641024261713028, -0.12697117030620575, 0.11001668125391006, 0.02412310242652893, -0.09576456248760223, 0.019261037930846214, -0.08498036861419678, -0.009681868366897106], [-0.0731399729847908, 0.12002754211425781, -0.38589853048324585, -0.022615650668740273, -0.1880526840686798, -0.4923936426639557, -0.019973905757069588, -0.4868873059749603, 0.17129769921302795, -0.08947012573480606, -0.2805076241493225, -0.10554753243923187, -0.0077192336320877075, -0.8417923450469971, -0.30091995000839233, 0.2238728255033493, 0.3756677210330963, -0.09059062600135803, -0.13802111148834229, 0.3915615975856781, -0.05096721649169922, -0.04978855326771736, -0.3646681606769562, -0.0027078092098236084, 0.5131729245185852, -0.09907960891723633, -0.575912594795227, 0.5179829001426697, -0.07888108491897583, -0.4897903800010681, -0.10189592838287354, -0.09309995919466019, 0.3035256564617157, 0.09020373225212097, -0.09565605223178864, 0.23215188086032867, 0.09000226855278015, 0.6337892413139343, -0.010092672891914845, -0.012791693210601807, -0.22479094564914703, -0.28928396105766296, 0.14258475601673126, -0.23298536241054535, -1.254358172416687, 0.12802429497241974, -0.058322906494140625, 0.09619481861591339, 0.09001778811216354, 0.11855922639369965, -0.10359270870685577, 0.04092378914356232, -0.21751363575458527, 0.03738835081458092, -0.9947934746742249, -1.470481038093567, -0.1364249438047409, -0.7900101542472839, -0.44375860691070557, 0.08584344387054443, 0.34695613384246826, -2.0088086128234863, 0.01042639184743166, -0.00517847016453743], [0.06078869849443436, 0.9600621461868286, 0.4611292779445648, 0.017654210329055786, -0.02882644347846508, 0.19235859811306, -0.07124415785074234, -0.5951677560806274, 0.22627899050712585, -0.021635547280311584, 0.028636803850531578, -0.0972495749592781, 0.10214309394359589, 0.020272349938750267, 0.10329388082027435, -0.055343568325042725, -0.18764926493167877, 0.10405150800943375, 0.02904467284679413, 0.28939735889434814, -0.004764974117279053, 0.30284613370895386, 0.03350783884525299, -0.014215990900993347, -0.4903831481933594, 0.007019977550953627, 0.1815647929906845, 0.05298233404755592, -0.0312560498714447, 0.31923234462738037, 0.021579042077064514, 0.026252102106809616, -0.29603034257888794, 0.043404847383499146, -0.03135192021727562, -0.13512356579303741, 0.022372722625732422, -0.2238510400056839, 1.5861141681671143, -0.004523903131484985, 1.7252870798110962, 0.5649576187133789, -0.17935578525066376, 0.4984841048717499, 0.29152655601501465, -0.18743741512298584, 0.05889346823096275, -0.10104420781135559, -0.147424578666687, 0.05910123884677887, 0.04669971764087677, -0.10646027326583862, 0.11652582883834839, -0.02921859361231327, 0.09791877120733261, 0.015630599111318588, 0.09951610863208771, 0.12292709201574326, 0.16106881201267242, 0.01636183261871338, 0.7894593477249146, 0.5424036383628845, -0.19311384856700897, 0.40713605284690857], [0.08734484761953354, 0.06537904590368271, -0.03783457353711128, 0.09195873886346817, 0.10512682795524597, -0.0003245661500841379, 0.04830228537321091, 0.09213077276945114, 0.11077971756458282, -0.057661719620227814, -0.06227519363164902, 0.11012957990169525, 0.08912454545497894, -0.0763683095574379, 0.04769124463200569, -0.0652180090546608, -0.06282110512256622, -0.1152845174074173, -0.09807182103395462, -0.03605307638645172, -0.08787272870540619, -0.018908247351646423, -0.06982298195362091, 0.11661453545093536, 0.018300736322999, -0.057562679052352905, -0.09559986740350723, 0.04902222752571106, -0.04756206274032593, 0.12054552882909775, 0.03814925253391266, 0.05601589009165764, -0.12356439977884293, 0.004207203164696693, -0.11697744578123093, -0.033619772642850876, 0.0685390755534172, -0.07762490957975388, -0.08168977499008179, 0.10815788805484772, -0.06490135192871094, 0.06498095393180847, 0.02944585680961609, 0.016207566484808922, -0.12740394473075867, -0.09148011356592178, -0.09354933351278305, 0.002308100461959839, 0.09349623322486877, -0.0019670873880386353, -0.004264608025550842, -0.007602021098136902, 0.056929413229227066, 0.09931715577840805, -0.09557299315929413, -0.12603658437728882, -0.11305777728557587, -0.02015412598848343, -0.03950909897685051, -0.07258602976799011, 0.023825692012906075, 0.07948324084281921, -0.059888266026973724, -0.0798732340335846], [0.05065158009529114, -0.05309221148490906, 0.015579640865325928, 0.007201448082923889, 0.06483544409275055, -0.050915881991386414, -0.061907798051834106, -0.05941304564476013, -0.04947543144226074, 0.09482641518115997, -0.10046148300170898, -0.07293614745140076, 0.12300291657447815, -0.0960618257522583, 0.033595114946365356, -0.07253408432006836, 0.07955062389373779, -0.10503681004047394, 0.013225972652435303, 0.0978517234325409, -0.03669257462024689, -0.048062875866889954, 0.08103929460048676, 0.10333004593849182, -0.002047240734100342, -0.10937948524951935, -0.023976296186447144, 0.11420668661594391, -0.07980972528457642, -0.08173659443855286, 0.09954600036144257, -0.04065743088722229, -0.0007104873657226562, -0.007186383008956909, 0.01822185516357422, -0.08881606161594391, -0.018835559487342834, 0.07323051989078522, -0.09541614353656769, -0.1103614866733551, 0.09576015174388885, -0.1055557131767273, 0.00399896502494812, 0.06310784816741943, -0.12290321290493011, 0.07129551470279694, 0.0278262197971344, -0.01356862485408783, -0.06382414698600769, 0.026891306042671204, 0.0371483713388443, 0.045386120676994324, 0.05143842101097107, -0.021966874599456787, -0.002474382519721985, -0.08870749175548553, -0.07771621644496918, -0.10095556080341339, 0.06953899562358856, -0.07856947183609009, 0.08313331007957458, -0.030732497572898865, -0.11588148772716522, -0.11987616121768951], [-0.13454300165176392, -0.02049378491938114, -0.04826146736741066, -0.037994563579559326, 0.08632617443799973, -0.029920823872089386, -0.01931639015674591, 0.03678211197257042, -0.003605886362493038, 0.08222675323486328, 0.0980977788567543, -0.11010235548019409, 0.12421025335788727, -0.04269692301750183, 0.07718979567289352, -0.13607554137706757, 0.007375500630587339, 0.002286618109792471, 0.09641331434249878, -0.010652712546288967, -0.05541449785232544, 0.00033669950789771974, -0.04050935059785843, 0.11632141470909119, -0.1064491719007492, -0.09941453486680984, -0.11833033710718155, -0.0617499053478241, -0.09501950442790985, -0.08411012589931488, -0.09038224816322327, 0.08472244441509247, -0.029383959248661995, -0.09234663099050522, -0.08654767274856567, -0.061990682035684586, -0.027597690001130104, 0.02215324342250824, -0.12320496141910553, -0.09326107800006866, 0.06104831025004387, -0.04859733581542969, -0.12884019315242767, -0.12896884977817535, -0.00493222801014781, -0.08053337037563324, 0.043501317501068115, 0.03451979160308838, -0.08490657806396484, -0.004129841923713684, -0.0025382637977600098, -0.012135207653045654, -0.05618168041110039, -0.04661882668733597, 0.10736078768968582, 0.07102441042661667, 0.04610241949558258, -0.07353905588388443, 0.001161151216365397, 0.027538597583770752, 0.04025501385331154, -0.13083003461360931, -0.07895661145448685, 0.07148167490959167], [-0.09622403234243393, -0.03846107795834541, -0.4593174159526825, -0.18275627493858337, -0.3764573037624359, -0.4899502992630005, -0.2031458169221878, -0.5006356239318848, -0.03984566032886505, -0.14175903797149658, -0.33005303144454956, 0.03258273005485535, 0.010362863540649414, -1.119251012802124, -0.29223623871803284, 0.027067730203270912, 0.4886259436607361, -0.18447378277778625, 0.08318353444337845, 0.4345724284648895, 0.03268797695636749, -0.2354649007320404, -0.2818473279476166, -0.09287013113498688, 0.18450434505939484, -0.015365377068519592, -0.7225030660629272, 0.5109992027282715, 0.0980023741722107, -0.7589194178581238, -0.03478357195854187, -0.08855654299259186, 0.15539032220840454, 0.08819595724344254, -0.09723418205976486, 0.23286832869052887, 0.005034402012825012, 0.4491804242134094, -0.073108971118927, -0.09184564650058746, 0.014742611907422543, -0.673844039440155, 0.15127362310886383, -0.4574454724788666, -1.6724193096160889, -0.010007607750594616, -0.057490527629852295, -0.04118284583091736, -0.004962052218616009, 0.011880233883857727, -0.1028403788805008, -0.01587715744972229, -0.21225368976593018, -0.08509611338376999, -1.2372804880142212, -1.0977939367294312, -0.1331552118062973, -0.9620586633682251, -0.6277915239334106, -0.015473395586013794, 0.3516830801963806, -1.8719688653945923, -0.08839372545480728, 0.08225081861019135], [0.024488938972353935, 0.05542716383934021, 0.033654481172561646, 0.03229358419775963, -0.09735685586929321, -0.092036671936512, 0.035196706652641296, -0.09205935895442963, 0.018130939453840256, 0.027238754555583, -0.07730872929096222, -0.035616546869277954, -0.02507854998111725, 0.10398047417402267, 0.0964914932847023, -0.05126456916332245, 0.0328371487557888, 0.09559229016304016, 0.008002040907740593, -0.05557648092508316, 0.020000353455543518, -0.085503488779068, -0.07341098040342331, -0.032144010066986084, 0.04556502401828766, -0.10192698240280151, 0.005381342489272356, 0.06548863649368286, -0.05737940967082977, 0.05250212177634239, -0.04534810781478882, -0.05471205711364746, 0.06348661333322525, 0.11323359608650208, 0.1114092543721199, 0.01954115927219391, -0.07543209940195084, -0.11092625558376312, -0.10510174930095673, 0.10048918426036835, -0.008765652775764465, -0.1014929860830307, 0.0011071760673075914, 0.11027415096759796, 0.03307485580444336, -0.11878752708435059, 0.09207914024591446, 0.027406662702560425, -0.08789420872926712, -0.11402224004268646, 0.0743120014667511, -0.06258982419967651, -0.13095393776893616, -0.1187930554151535, 0.019465284422039986, 0.05704256892204285, -0.11948834359645844, -0.12442903220653534, 0.025363991037011147, -0.077384352684021, 0.0713299959897995, 0.09763070195913315, 0.05406178534030914, -0.07354161143302917], [-0.004140391945838928, -0.047926291823387146, -0.03656373918056488, -0.11252813041210175, -0.07744991779327393, -0.010198429226875305, -0.07211878895759583, -0.11198966205120087, -0.06236639618873596, 0.08391568064689636, -0.04773131012916565, 0.028200745582580566, 0.08534544706344604, 0.07901522517204285, 0.04231058061122894, -0.06584897637367249, -0.060819655656814575, -0.0965079814195633, 0.0634041279554367, -0.07782518863677979, -0.0760466456413269, 0.025034353137016296, -0.0214616060256958, 0.02275727689266205, 0.031700506806373596, -0.10365600883960724, -0.01905597746372223, 0.08930937945842743, 0.11862602829933167, 0.08690498769283295, 0.11703376471996307, -0.1214417964220047, -0.0347018837928772, -0.02365131676197052, 0.005149856209754944, -0.09542706608772278, 0.018722087144851685, -0.024896249175071716, 0.05159187316894531, 0.04377613961696625, 0.09695662558078766, -0.11533261835575104, -0.09005771577358246, 0.06606179475784302, -0.05797649919986725, 0.04549984633922577, -0.12353622913360596, -0.08508683741092682, -0.09277960658073425, -0.07364994287490845, 0.07179595530033112, -0.04839910566806793, 0.11516760289669037, -0.001250341534614563, 0.12098406255245209, 0.0010961145162582397, 0.056796908378601074, 0.028227895498275757, -0.09984754025936127, 0.026878520846366882, 0.12169268727302551, 0.05305369198322296, 0.07167516648769379, 0.05213227868080139], [0.03777758404612541, 0.7478607296943665, 0.3277573585510254, -0.18890422582626343, -0.022217029705643654, 0.23289817571640015, -0.0660252645611763, -0.42176559567451477, -0.2115837037563324, -0.0823914185166359, 0.07542413473129272, -0.05612124502658844, -0.03400617837905884, 0.18947874009609222, 0.12743215262889862, -0.28220972418785095, -1.2726671695709229, -0.03826082870364189, -0.10515480488538742, -0.035287048667669296, 0.12034676969051361, 0.13898780941963196, 0.10284298658370972, 0.10939435660839081, -0.3824831247329712, -0.21764785051345825, 0.13341352343559265, -0.15297001600265503, -0.0933263748884201, 0.14060761034488678, -0.007139056921005249, 0.060413286089897156, -0.6777867674827576, -0.40470272302627563, -0.08197307586669922, -0.3002583980560303, -0.23926900327205658, -0.2427792102098465, 0.6174551248550415, -0.066375732421875, 0.745660126209259, 0.36284339427948, -0.22422964870929718, 0.508312463760376, 0.30748000741004944, -0.147979274392128, -0.00040365365566685796, 0.07666739821434021, -0.13107915222644806, 0.1066182553768158, -0.12297128140926361, 0.03025035560131073, -0.06087092310190201, -0.105663001537323, 0.034277234226465225, 0.17862936854362488, 0.05602286756038666, 0.19578485190868378, 0.13632819056510925, 0.07867087423801422, -0.16851066052913666, 0.25351372361183167, -0.39583492279052734, 1.1747487783432007], [-0.3658345341682434, -0.18556751310825348, -0.014067701064050198, 0.0889064222574234, 0.01508645061403513, -0.04584411904215813, 0.1592966765165329, 0.19616083800792694, -0.46521109342575073, 0.07277737557888031, 0.13304603099822998, 0.00039130449295043945, -0.04205702245235443, -0.019074097275733948, -0.029135627672076225, 0.40182405710220337, -0.18357433378696442, 0.12547844648361206, -0.2322223037481308, 0.12893889844417572, -0.09351491928100586, -0.04750976711511612, -0.026379864662885666, 0.12276184558868408, 0.3377627432346344, -0.4528416395187378, 0.08993865549564362, -0.01564905047416687, 0.05587682127952576, 0.6059342622756958, 0.00864623486995697, 0.12938649952411652, -0.2436157912015915, 0.37426984310150146, 0.06415382772684097, -0.25793877243995667, 0.4497137665748596, -0.11366527527570724, -0.16233383119106293, 0.09750378131866455, -0.09706848859786987, -0.13074079155921936, -0.28231239318847656, -0.1363717019557953, -0.058389510959386826, -0.33260616660118103, 0.04857548698782921, 0.018246114253997803, -0.1300860494375229, -0.00376226007938385, -0.03987881541252136, 0.11005939543247223, 0.0891377329826355, -0.07594795525074005, -0.21321657299995422, -0.05255259945988655, -0.1578134298324585, -0.1462859809398651, 0.3370976448059082, 0.029737621545791626, 0.7804386019706726, 0.19681432843208313, -0.29085978865623474, -0.2764464318752289], [-0.09265455603599548, -0.022267043590545654, -0.08755923807621002, 0.024569038301706314, -0.09827129542827606, 0.09834253787994385, -0.09667158871889114, 0.0788268968462944, -0.055110156536102295, -0.12842142581939697, -0.08765573054552078, 0.0453018993139267, 0.1023564338684082, 0.013686724938452244, 0.017137786373496056, 0.07470741122961044, -0.023167941719293594, -0.0012303396360948682, -0.0756419450044632, 0.06700602173805237, -0.12362509965896606, 0.013859733939170837, 0.019764265045523643, 0.022466152906417847, 0.006717100739479065, -0.0843881219625473, -0.024616634473204613, 0.07227794826030731, 0.049619898200035095, -0.012226088903844357, -0.030270174145698547, -0.07875628024339676, 0.04679824039340019, 0.11106175184249878, 0.022860366851091385, -0.02227717638015747, 0.05524052679538727, 0.018846049904823303, -0.011575683020055294, 0.11701259016990662, -0.023828845471143723, 0.059019073843955994, 0.09066057205200195, -0.13236521184444427, 0.050678983330726624, 0.023426532745361328, -0.04288378730416298, 0.01783953607082367, -0.1049070730805397, -0.09318938851356506, -0.05255021154880524, -0.030900850892066956, 0.05114104226231575, -0.026933899149298668, -0.05806565657258034, 0.000906336004845798, -0.01621250808238983, 0.08530993014574051, -0.01072548795491457, -0.051105767488479614, 0.018214041367173195, 0.03433617204427719, -0.11532518267631531, 0.10383011400699615], [0.030784843489527702, 1.1758265495300293, 0.3072720766067505, -0.1022627130150795, -0.03607377037405968, 0.3458018898963928, 0.011251319199800491, -0.6174677610397339, -0.11723154038190842, 0.00558211887255311, -0.02019374445080757, -0.057520221918821335, -0.10262554883956909, 0.22577132284641266, 0.20106090605258942, -0.17240937054157257, -0.2667149007320404, -0.09253541380167007, -0.09725464135408401, 0.29487237334251404, 0.11600323021411896, 0.15478147566318512, 0.1501760631799698, -0.035970643162727356, -0.42556697130203247, 0.05926940590143204, 0.19980289041996002, -0.01319994404911995, -0.05023638904094696, 0.366921991109848, -0.11526532471179962, 0.03717746585607529, -0.31516095995903015, -0.02492203563451767, -0.13340187072753906, -0.035210493952035904, -0.19689638912677765, -0.3404565751552582, 1.7411136627197266, 0.022322162985801697, 1.710620403289795, 0.4504285156726837, -0.1034664586186409, 0.5096084475517273, 0.29534241557121277, -0.08585143834352493, 0.04059169441461563, -0.025873854756355286, 0.0422685444355011, -0.05737973749637604, 0.023323550820350647, 0.06779897212982178, 0.16336964070796967, -0.029752591624855995, 0.1518179029226303, 0.05282841622829437, 0.1823897510766983, 0.04136580973863602, 0.15563902258872986, 0.034349530935287476, 1.0230878591537476, 0.6879883408546448, -0.2798774838447571, 0.38878434896469116], [0.09382031857967377, -0.1229814738035202, 0.06693314015865326, 0.044354408979415894, -0.10884702205657959, -0.08141966164112091, 0.003937765955924988, -0.021671995520591736, 0.10054239630699158, -0.0611451119184494, 0.04840917885303497, -0.07635532319545746, -0.09569092094898224, -0.0378074049949646, -0.11405649781227112, -0.034434154629707336, -0.015300080180168152, 0.10910683870315552, -0.013001412153244019, -0.027374684810638428, -0.10365064442157745, -0.006934165954589844, 0.04085628688335419, -0.01956355571746826, 0.0977129340171814, 0.013338044285774231, -0.05435383319854736, -0.01702091097831726, 0.09017816185951233, -0.0571257621049881, -0.05401647090911865, 0.026669904589653015, -0.07752692699432373, 0.07572287321090698, -0.009359240531921387, -0.09929729998111725, 0.01472771167755127, -0.08758115768432617, 0.10109053552150726, -0.08197236061096191, -0.10079312324523926, -0.000581696629524231, -0.06298814713954926, 0.050147220492362976, -0.09894454479217529, -0.00014416873455047607, 0.05680900812149048, 0.10319828987121582, -0.08754803240299225, 0.040644556283950806, 0.015387684106826782, -0.0011506825685501099, -0.0003510713577270508, -0.04127645492553711, 0.053646624088287354, -0.03007519245147705, -0.0037270039319992065, -0.042558178305625916, -0.09942135214805603, 0.04209929704666138, -0.08994460105895996, 0.10424669086933136, 0.08946895599365234, -0.039983004331588745], [0.02371208555996418, -0.09258032590150833, 0.06500443071126938, 0.08452992886304855, -0.13674437999725342, 0.08946866542100906, -0.08242423087358475, -0.11234305053949356, -0.08454390615224838, 0.10411754250526428, 0.020085381343960762, -0.07244724035263062, -0.01673494279384613, -0.01495324820280075, 0.012170585803687572, 0.05734219402074814, -0.10660693794488907, -0.09647484123706818, 0.09839287400245667, -0.030790286138653755, -0.05172939598560333, 0.10336028039455414, -0.030733609572052956, -0.07415458559989929, 0.05168861150741577, -0.11012101918458939, -0.06117858365178108, -0.0652000680565834, -0.07134748995304108, 0.009182683192193508, -0.08211314678192139, 0.09041882306337357, -0.03669639304280281, -0.07890933752059937, 0.03314926102757454, -0.13773122429847717, 0.04429434984922409, -0.0898616835474968, 0.017172493040561676, 0.00974079966545105, -0.00354743585921824, -0.12342069298028946, -0.1101575717329979, -0.05905858427286148, -0.07593915611505508, 0.09463617950677872, -0.026299115270376205, 0.12193050980567932, -0.07767646759748459, 0.06779558956623077, -0.09698861837387085, 0.04977834224700928, 0.038732998073101044, -0.06359020620584488, -0.13624125719070435, 0.04393428936600685, -0.1336899846792221, 0.08884986490011215, -0.05270586535334587, 0.05684693157672882, 0.07477676868438721, 0.08930567651987076, 0.1101829782128334, 0.11604228615760803], [0.14516063034534454, 1.0231859683990479, 0.4466358423233032, -0.008487541228532791, -0.09136268496513367, 0.29830577969551086, 0.14064165949821472, -0.7928168177604675, 0.22656990587711334, 0.06007525324821472, 0.03194257989525795, 0.02938460372388363, -0.06181260943412781, 0.1343327760696411, 0.19618353247642517, -0.03703613206744194, -0.02309672348201275, 0.14195242524147034, 0.07706180959939957, 0.4594990909099579, -0.06463658809661865, 0.29717233777046204, -0.08932643383741379, 0.05454277992248535, -0.5899224281311035, 0.018286993727087975, 0.07165130227804184, -0.419665664434433, 0.08753067255020142, 0.4858361482620239, 0.0473482608795166, -0.037291254848241806, -0.06077120080590248, 0.06730616092681885, 0.09749583154916763, -0.1680753231048584, -0.08133429288864136, -0.4660482704639435, 1.7966747283935547, -0.03811436891555786, 1.9139007329940796, 0.5948217511177063, 0.027605222538113594, 0.5671678781509399, 0.21524715423583984, -0.0775865688920021, 0.022834116593003273, 0.014237508177757263, 0.027284594252705574, 0.05290684103965759, 0.12332792580127716, -0.03290490806102753, -0.04856179654598236, -0.05126699432730675, 0.10295883566141129, -0.0017740186303853989, 0.0443754568696022, 0.16976206004619598, 0.2620404362678528, 0.10136090219020844, 0.6975610256195068, 0.4343146085739136, -0.19977329671382904, 0.9918937683105469], [-0.21024782955646515, 1.1189069747924805, 0.3671523928642273, -0.06232922524213791, 0.11310750991106033, 0.31339186429977417, 0.023749547079205513, -0.9292858839035034, -0.1857413351535797, -0.014368690550327301, -0.014931865967810154, 0.02516229636967182, -0.007916808128356934, 0.13742150366306305, 0.1804659515619278, -0.20743918418884277, -1.75623619556427, 0.11221250146627426, -0.31633034348487854, 1.2290760278701782, -0.047170668840408325, 0.4194994568824768, -0.028960896655917168, 0.041344404220581055, -0.2998504936695099, -0.6707929372787476, 0.13281898200511932, 0.1307171881198883, 0.009059146046638489, 0.4494297504425049, -0.040168702602386475, -0.11410199105739594, -1.0172080993652344, -0.07268036901950836, -0.16145393252372742, -0.7743975520133972, 0.03677608445286751, -0.12407449632883072, 1.514084815979004, 0.12304560840129852, 1.3945552110671997, 0.6150068044662476, -0.41197675466537476, 0.5837469696998596, 0.4574796259403229, -0.3978229761123657, 0.060877107083797455, 0.039998531341552734, -0.44073623418807983, -0.11906397342681885, -0.014629274606704712, 0.04223029315471649, -0.015530931763350964, -0.3115200102329254, 0.04445332661271095, 0.1313210129737854, -0.14497928321361542, 0.06848318129777908, 0.31179869174957275, 0.007818400859832764, 0.8898868560791016, 0.7090683579444885, -1.0998440980911255, 0.3697863221168518], [-0.07246682792901993, -0.09427553415298462, -0.06690599024295807, 0.2467043399810791, 0.015415347181260586, -0.08974985778331757, 0.18319745361804962, -0.36124807596206665, 0.03347409889101982, 0.01801188848912716, 0.01030924916267395, -0.12182873487472534, -0.08232821524143219, -0.43473586440086365, -0.08264335989952087, 0.12574441730976105, 0.3287532925605774, 0.07605045288801193, 0.030657725408673286, 0.3729955554008484, 0.06331224739551544, -0.09347888827323914, 0.09984977543354034, -0.12196886539459229, -0.0050442335195839405, 0.07367771118879318, -0.252595990896225, -0.09910669177770615, 0.06046608090400696, -0.31090033054351807, 0.08253976702690125, -0.00905927550047636, 0.22382961213588715, 0.17259852588176727, 0.04888176545500755, 0.26659831404685974, 0.41621142625808716, 0.02457907237112522, 0.07493435591459274, 0.057106032967567444, 0.06207672879099846, 0.0564916655421257, -0.07786916941404343, -0.04195086658000946, -0.5440917611122131, 0.1371363252401352, 0.16776269674301147, 0.11253616213798523, 0.06547021120786667, -0.05364491045475006, 0.04268158972263336, -0.10499654710292816, 0.01815592497587204, 0.059505026787519455, -0.9610182642936707, -0.7368051409721375, -0.597653329372406, -0.9304258227348328, -0.3849991261959076, -0.0015158355236053467, 0.42293891310691833, -0.4811813235282898, -0.19326694309711456, 0.07717427611351013], [-0.08268312364816666, 0.9621806740760803, 0.5011146068572998, -0.04010343924164772, 0.11161432415246964, 0.3784046769142151, 0.06198379397392273, -0.7848691940307617, 0.21923401951789856, 0.019798683002591133, 0.12750475108623505, 0.040178332477808, -0.01018233597278595, 0.1092645525932312, 0.14970387518405914, -0.14539995789527893, 0.024456525221467018, -0.015553362667560577, 0.10073287785053253, 0.3584599494934082, -0.011883959174156189, 0.3532484173774719, 0.0951295793056488, 0.0940542072057724, -0.4987269341945648, -0.08639175444841385, 0.023206045851111412, -0.4344283938407898, -0.0702798068523407, 0.45393261313438416, 0.009036585688591003, 0.03644971922039986, 0.0402924120426178, -0.07881226390600204, 0.13330887258052826, -0.07148454338312149, 0.01120701339095831, -0.2581603527069092, 1.662074089050293, 0.004285082221031189, 1.9319911003112793, 0.4211922883987427, -0.07793024927377701, 0.7241520881652832, 0.3646242618560791, 0.13224931061267853, 0.022770142182707787, 0.0184972882270813, 0.04808182641863823, 0.0004145205020904541, 0.11166584491729736, 0.082453653216362, -0.05518898367881775, -0.03101026453077793, 0.02118603326380253, 0.08537636697292328, 0.2085687667131424, 0.18790389597415924, 0.14882132411003113, -0.015651613473892212, 0.5625793933868408, 0.4565254747867584, -0.19397284090518951, 1.0123896598815918], [-0.1459306925535202, 1.018381953239441, 0.3907448649406433, -0.026248056441545486, -0.03738626465201378, 0.29827505350112915, -0.21924017369747162, -0.9786964058876038, 0.20684368908405304, 0.058985620737075806, 0.060203537344932556, -0.10472142696380615, -0.04348498582839966, -0.04965247958898544, 0.15108239650726318, -0.2480156570672989, -0.13693931698799133, -0.2742452323436737, -0.01704656332731247, 0.20135581493377686, 0.039611056447029114, 0.32519349455833435, 0.007255771663039923, 0.07693739235401154, -0.7241355776786804, -0.11539382487535477, 0.14673329889774323, -0.259356826543808, 0.01608918607234955, 0.38164231181144714, 0.031348541378974915, -0.0435187965631485, -0.2219102829694748, -0.19270257651805878, -0.1033269613981247, -0.07445501536130905, -0.06462597846984863, -0.27080318331718445, 1.7975276708602905, 0.05873490869998932, 1.87775456905365, 0.576533317565918, 0.015363860875368118, 0.7487666010856628, 0.2979082465171814, -0.11892393976449966, 0.008437953889369965, 0.06661230325698853, -0.10946069657802582, 0.005747765302658081, -0.11755870282649994, -0.06196656823158264, 0.049619294703006744, -0.08195126056671143, 0.028268419206142426, -0.0011200889712199569, -0.005561891943216324, 0.08396576344966888, 0.2245459407567978, -0.07754343748092651, 0.4050295650959015, 0.44014811515808105, -0.42269450426101685, 0.5211586356163025], [-0.2554614245891571, 0.9929913282394409, 0.507141649723053, 0.14360783994197845, 0.16613157093524933, 0.4057711660861969, -0.08170701563358307, -0.6460524201393127, -0.1254633665084839, 0.005554532166570425, 0.06438309699296951, -0.0381796695291996, -0.0037960708141326904, 0.32551324367523193, 0.15349359810352325, -0.18110740184783936, -1.5452247858047485, 0.25563621520996094, -0.3100568950176239, 1.3999851942062378, 0.08955714106559753, 0.33266758918762207, 0.07407619804143906, -0.08359913527965546, -0.29942771792411804, -0.5281464457511902, 0.14689455926418304, -0.08221077919006348, 0.08123119175434113, 0.3089129626750946, -0.05975516140460968, -0.10437023639678955, -0.896139919757843, -0.06044376641511917, -0.1893126517534256, -0.6329292058944702, 0.048126522451639175, -0.24774840474128723, 1.5717113018035889, -0.02097855508327484, 1.4609863758087158, 0.6517428159713745, -0.38867253065109253, 0.6716856360435486, 0.510183572769165, -0.5046917796134949, 0.19693820178508759, -0.0170610249042511, -0.283273845911026, 0.10452374815940857, 0.017817705869674683, 0.07187750935554504, 0.10885874927043915, -0.10587527602910995, 0.27008575201034546, 0.35592740774154663, 0.021183976903557777, 0.11309085041284561, 0.35815340280532837, 0.042160093784332275, 1.1389833688735962, 0.8759000897407532, -0.8996155858039856, 0.21127456426620483], [-0.00020196665718685836, -0.11979120224714279, 0.06553024798631668, -0.013672678731381893, -0.04691837355494499, -0.09249404072761536, 0.08265236020088196, 0.10391431301832199, -0.024996090680360794, 0.060043007135391235, -0.04730057716369629, -0.06439799070358276, -0.09704488515853882, 0.07312803715467453, -0.14129789173603058, -0.07699250429868698, 0.07510703057050705, -0.1058054119348526, -0.15088224411010742, -0.07385232299566269, 0.021821781992912292, 0.09803181141614914, -0.10704493522644043, -0.010549619793891907, -0.007106040604412556, 0.06032799556851387, -0.10790681838989258, 0.03234092518687248, 0.028452754020690918, 0.050719913095235825, 0.0774979442358017, 0.09610485285520554, 0.07390079647302628, -0.016626447439193726, -0.01804351806640625, -0.08435092121362686, -0.005043163895606995, 0.020301125943660736, -0.027307763695716858, 0.034801751375198364, 0.019462700933218002, -0.009144299663603306, -0.06197464466094971, -0.04447202757000923, -0.11263015121221542, 0.08201277256011963, -0.06577102094888687, 0.09876511991024017, -0.02010750025510788, 0.10499680042266846, 0.037025317549705505, -0.020212695002555847, -0.04260162636637688, -0.08909931033849716, 0.03527752682566643, -0.03364575281739235, 0.09700363129377365, -0.09426719695329666, 0.002037172671407461, 0.09780243039131165, 0.01111177820712328, -0.07114136219024658, 0.08904114365577698, -0.04449312016367912], [0.1635124236345291, 0.9042617678642273, 0.22990867495536804, -0.14239153265953064, 0.12855057418346405, 0.33004528284072876, 0.11527052521705627, -0.5830393433570862, 0.18172374367713928, -0.10276947170495987, -0.0308123417198658, -0.07720620930194855, 0.028954535722732544, 0.0614677369594574, 0.12262870371341705, -0.06607071310281754, 0.0161946639418602, 0.1115453764796257, 0.04566071555018425, 0.42211002111434937, -0.06156499683856964, 0.3082900941371918, 0.09477542340755463, -0.0885222852230072, -0.7730851173400879, 0.28224754333496094, -0.019173597916960716, -0.3858529031276703, 0.03220300376415253, 0.13569025695323944, 0.01626618206501007, 0.06582898646593094, 0.03160536289215088, -0.19044852256774902, -0.058368753641843796, 0.15916268527507782, -0.10713616013526917, -0.4472420811653137, 1.2285648584365845, -0.11739274859428406, 1.4879298210144043, 0.4637273848056793, 0.12719975411891937, 0.3888976573944092, 0.0911702811717987, 0.19696399569511414, 0.2736836373806, -0.04495933651924133, -0.06469413638114929, -0.025187358260154724, -0.06026354432106018, -0.11241604387760162, -1.6201433027163148e-05, 0.002340517705306411, -0.052973780781030655, -0.12008903175592422, 0.09038989990949631, 0.1807178258895874, 0.12493057548999786, 0.11875922977924347, 0.4492938220500946, 0.3141699731349945, -0.07187672704458237, 1.4380971193313599], [0.00286123831756413, 0.11438798904418945, 0.04695113003253937, -0.030930595472455025, 0.08499464392662048, -0.10980865359306335, -0.09307656437158585, -0.11791469156742096, 0.09066005051136017, 0.05456889048218727, 0.03626227006316185, -0.11700282990932465, -0.018844321370124817, -0.08560620248317719, -0.1311473697423935, 0.10636322945356369, -0.09095486253499985, 0.012144103646278381, -0.03628045693039894, 0.10219744592905045, 0.03781607747077942, -0.08290278911590576, -0.08857176452875137, 0.03990824520587921, 0.05822928249835968, -0.10939939320087433, -0.10906936228275299, -0.0212690532207489, 0.1122882068157196, 0.06622516363859177, 0.009332269430160522, 0.005471936427056789, -0.08985620737075806, 0.06833347678184509, 0.00321417348459363, 0.030123550444841385, -0.07626083493232727, 0.10735306143760681, 0.10024750232696533, -0.06753401458263397, -0.12497292459011078, -0.09102704375982285, -0.08249962329864502, -0.056672774255275726, 0.020196015015244484, -0.044022336602211, -0.1009209007024765, -0.021019279956817627, -0.09219511598348618, -0.028214231133461, -0.028621062636375427, 0.014013946056365967, 0.07604123651981354, 0.04717917740345001, 0.08164842426776886, 0.025660179555416107, -0.08789072930812836, 0.05339379236102104, -0.10270579159259796, 0.013658180832862854, 0.020766999572515488, 0.08505967259407043, -0.02947908639907837, 0.03188897296786308], [-0.2325206845998764, 1.1885058879852295, 0.40349629521369934, -0.021537071093916893, 0.09049578756093979, 0.2803031802177429, -0.1160181313753128, -0.8410893678665161, 0.16419093310832977, 0.08328070491552353, -0.07315944135189056, 0.04643811285495758, 0.007891058921813965, -0.008122746832668781, 0.07324825972318649, 0.008140001446008682, -0.4498555064201355, 0.20676982402801514, -0.23394447565078735, 0.9849143624305725, -0.02869442105293274, 0.3404466211795807, 0.057953398674726486, -0.08535383641719818, -0.3389052152633667, -0.19448278844356537, -0.003926339093595743, -0.15314549207687378, -0.06022162735462189, 0.3746529221534729, -0.021562352776527405, 0.008574072271585464, -0.3392226994037628, 0.21786034107208252, -0.10733404010534286, -0.23729515075683594, -0.00814591534435749, -0.33846840262413025, 1.6601698398590088, 0.09770332276821136, 1.7188935279846191, 0.6532012224197388, -0.22072915732860565, 0.7013060450553894, 0.24924929440021515, -0.3058493137359619, 0.0637926384806633, -0.07206331193447113, -0.07245144248008728, -0.016369938850402832, 0.10633926093578339, 0.11073282361030579, -0.02391171269118786, -0.16152046620845795, -0.019944271072745323, 0.149465873837471, -0.04482525959610939, -0.09077611565589905, 0.07933425903320312, 0.06384079158306122, 1.55031156539917, 0.5427911877632141, -0.7016882300376892, 0.34080198407173157]], "b": [-0.09488264471292496, 0.05000528693199158, -0.088594451546669, 0.000933334231376648, -0.13991284370422363, -0.029743555933237076, -0.14056894183158875, -0.012433708645403385, 0.04975958541035652, -0.011368555016815662, -0.04780763387680054, -0.06313931941986084, -0.0695924162864685, 0.005257978569716215, -0.2294737547636032, 0.11172144114971161, -0.09867372363805771, 0.058821264654397964, -0.060019150376319885, 0.06578677147626877, -0.05164767801761627, 0.08639092743396759, -0.007102125324308872, -0.03587961569428444, -0.025057345628738403, 0.009770773351192474, 0.09571386128664017, -0.004110410809516907, 0.04012933000922203, -0.09741231799125671, -0.10483869910240173, 0.22959773242473602, -0.10399073362350464, -0.04306921362876892, -0.03183620423078537, 0.07096384465694427, 0.026391128078103065, 0.08751329779624939, -0.11138514429330826, -0.1327783465385437, -0.03887191042304039, -0.1146327331662178, 0.11209295690059662, -0.0889788568019867, 0.027323158457875252, 0.1201503649353981, -0.13050679862499237, -0.10549768805503845, -0.1740744709968567, 0.0016201281687244773, 0.03256397321820259, -0.007940038107335567, -0.020688116550445557, -0.030047858133912086, 0.08836148679256439, -0.21218332648277283, 0.22849619388580322, 0.08053228259086609, -0.20984391868114471, -0.101499043405056, 0.049113716930150986, 0.015438757836818695, -0.10132329165935516, -0.14135587215423584]}, {"name": "pi.net.mlp.0", "w": [[-0.012357017025351524, -0.33493465185165405, -0.03118613362312317, -0.07446537911891937, -0.2990354299545288, 0.3481019139289856, 0.05507302284240723, -0.427392840385437, -0.18597212433815002, -0.11396212130784988, -0.08696723729372025, 0.030275002121925354, 0.06656143069267273, -0.23312047123908997, -0.5882983207702637, 0.2719363272190094, 0.02582516148686409, 0.22153089940547943, 0.025137796998023987, 0.22285038232803345, -0.11933198571205139, 0.07404473423957825, -0.06316759437322617, 0.024052273482084274, -0.6025981903076172, -0.11212538927793503, -0.2867527902126312, -0.12158620357513428, -0.012743961997330189, -0.17009760439395905, 0.08368614315986633, 0.7418681383132935, 0.06385242938995361, -0.058995649218559265, 0.32113486528396606, 0.05907905846834183, 0.05304625630378723, -0.12577274441719055, 0.011253975331783295, -0.06824857741594315, 0.06789330393075943, -0.2979661524295807, -0.0696512833237648, -0.04139408469200134, 0.11450659483671188, 0.10737436264753342, -0.013635391369462013, -0.031153008341789246, 0.39320528507232666, -0.29894816875457764, -0.003626127727329731, -0.36683768033981323, 0.0066122859716415405, -0.09642680734395981, -0.28400832414627075, -0.16511790454387665, -0.0017196316039189696, -0.25307193398475647, -0.355869859457016, -0.5086072683334351, -0.04691585153341293, 0.04867164418101311, -0.043072689324617386, -0.5081496238708496], [0.02252279780805111, 0.4199337661266327, -0.07203905284404755, -0.053224071860313416, 0.17443953454494476, -0.24127663671970367, -0.10505516082048416, 0.48721274733543396, 0.14403149485588074, 0.03156789019703865, -0.077950619161129, 0.09805427491664886, 0.09728855639696121, 0.2742547392845154, 0.6141970753669739, -0.35099563002586365, 0.07841568440198898, -0.18277637660503387, 0.07242506742477417, -0.050059132277965546, 0.062703937292099, 0.033621400594711304, 0.18319472670555115, -0.007401727605611086, 0.42714858055114746, -0.09280040115118027, 0.17541003227233887, -0.08818942308425903, 0.06845112144947052, 0.1344747543334961, 0.07696545124053955, -0.7723740339279175, 0.08272188901901245, 0.10947252810001373, -0.3094237148761749, 0.1383609175682068, -0.05523012951016426, -0.09849172830581665, 0.045515142381191254, 0.07045795768499374, -0.09318266808986664, 0.4294845163822174, 0.07394859939813614, 0.11621032655239105, -0.0494786836206913, -0.029531849548220634, -0.014541856944561005, -0.10448601841926575, -0.3354276418685913, 0.24865694344043732, 0.0946296975016594, 0.3308282792568207, 0.07985837757587433, -0.09019071608781815, 0.06732788681983948, 0.11718641966581345, 0.06287551671266556, 0.03708909451961517, 0.13442754745483398, 0.49603280425071716, -0.018664875999093056, -0.0716739222407341, 0.026109596714377403, 0.5900777578353882]], "b": [0.21421965956687927, -0.24622772634029388]}]}