{"format": "ncof-gnb2-mlp-v1", "activation": "relu", "actions": ["DEEP_SLEEP", "ACTIVE"], "obs": {"features": ["wlan_dl_norm", "prev_wlan_dl_norm", "gnb2_active"], "norm_mbps": 1000.0}, "layers": [{"name": "encoder.encoder.net.mlp.0", "w": [[0.27254539728164673, -0.21509164571762085, 0.31666213274002075], [0.6272209882736206, 0.8083341121673584, 0.19222036004066467], [0.12026511877775192, 0.12729623913764954, 0.3120017647743225], [0.6875081062316895, 0.9309830069541931, 0.38276466727256775], [-0.09244950860738754, 0.8742818236351013, 0.13144776225090027], [0.18808044493198395, -0.3434256315231323, -0.560602605342865], [0.40691855549812317, 0.8614896535873413, 0.18511810898780823], [-0.44092419743537903, -0.5596252679824829, 0.10584421455860138], [-0.4114421308040619, 0.251871258020401, -0.24817173182964325], [0.5655634999275208, 0.33370736241340637, -0.020266713574528694], [-0.03290286287665367, -0.34768983721733093, -0.07061311602592468], [-0.4230217933654785, -0.38449451327323914, 0.5387011766433716], [0.4851298928260803, 0.9580007791519165, 0.16755534708499908], [-0.23148192465305328, -0.5127246975898743, -0.42835938930511475], [-0.05775847285985947, -0.501232385635376, 0.47316068410873413], [0.5579661726951599, 0.48859724402427673, -0.3392552435398102], [-0.47101277112960815, -0.27378830313682556, 0.1566864401102066], [0.9507271647453308, 0.05320564657449722, 0.23081976175308228], [0.026803692802786827, 0.6729151606559753, 0.08968224376440048], [0.3148461580276489, -0.1729573905467987, 0.5221487283706665], [0.7388930916786194, 0.503618061542511, 0.08820216357707977], [-0.39037981629371643, -0.4545183777809143, 0.5133902430534363], [0.34781137108802795, 0.35191214084625244, 0.24511085450649261], [0.7597739100456238, 0.4925343990325928, 0.23625579476356506], [0.03923175111413002, 0.8292737007141113, -0.4893491864204407], [-0.3599262535572052, -0.22190144658088684, -0.42373761534690857], [-0.03970419988036156, 0.05897162854671478, -0.1727391630411148], [0.6579885482788086, 1.0043280124664307, 0.2656639516353607], [-0.35795193910598755, -0.0798039436340332, -0.36650288105010986], [-0.2437390834093094, -0.7089391946792603, 0.7093878984451294], [-0.44941017031669617, 0.16007733345031738, -0.553290843963623], [0.8206647038459778, 0.12173715233802795, 0.01033894345164299], [-0.3807366192340851, 0.35847488045692444, -0.5585429072380066], [-0.11256810277700424, -0.11620507389307022, -0.532977819442749], [0.8769932985305786, 0.7835147380828857, -0.48598340153694153], [-0.1159106194972992, -0.7213614583015442, 0.49215763807296753], [-0.4696897566318512, -0.0058609056286513805, -0.5177609324455261], [-0.5600796341896057, -0.5179781913757324, 0.23300115764141083], [1.03830087184906, 0.05582123249769211, -0.2036038339138031], [0.6653205752372742, 0.24812434613704681, 0.4663231670856476], [0.11510571837425232, -0.3157421350479126, -0.11130496859550476], [0.8974368572235107, 0.8838307857513428, 0.025496263056993484], [-0.13147525489330292, -0.4168086349964142, 0.037960950285196304], [0.7403932213783264, -0.08335157483816147, 0.17584632337093353], [0.5658362507820129, 0.23670756816864014, -0.3708377480506897], [0.595564603805542, 0.646930456161499, 0.4193825423717499], [0.20497654378414154, 0.43489623069763184, 0.510138988494873], [0.37739139795303345, -0.6631210446357727, -0.28102752566337585], [-0.3905351758003235, -0.4146769344806671, 0.27218377590179443], [-0.7016564607620239, 0.6488205790519714, 0.45778557658195496], [0.02270912379026413, -0.03337182104587555, -0.05813983827829361], [0.20729804039001465, -0.153663769364357, 0.32024186849594116], [0.9643657207489014, 0.6330493688583374, 0.49632537364959717], [-0.5017919540405273, 0.47586020827293396, -0.19240085780620575], [0.7453616261482239, -0.12315503507852554, 0.1123424619436264], [-0.1746576428413391, -0.24237240850925446, 0.49574801325798035], [-0.5038655996322632, 0.2509396970272064, -0.13587890565395355], [0.8847501277923584, 0.9012302160263062, 0.5210112929344177], [0.8478598594665527, 0.8850796222686768, 0.4017537534236908], [-0.6989899277687073, -0.09952442348003387, 0.3323550224304199], [-0.45812147855758667, 0.5271058678627014, -0.05568624287843704], [-0.5296770334243774, -0.38710904121398926, -0.48725423216819763], [0.6341893672943115, 0.9346616268157959, -0.04107066988945007], [0.2596285045146942, -0.297603040933609, -0.06912001967430115]], "b": [-0.5594208836555481, 0.4196052551269531, 0.4515289068222046, -0.18924687802791595, 0.3541771173477173, -0.5706685185432434, 0.10153356194496155, -0.42503952980041504, 0.6097836494445801, -0.1193309798836708, -0.15493270754814148, -0.16215810179710388, 0.5039177536964417, 0.818849503993988, 0.1704120635986328, 0.1700776219367981, -0.17147883772850037, -0.1351930797100067, 0.03846404701471329, 0.4730774760246277, 0.31250056624412537, -0.09433887898921967, 0.5042526721954346, 0.526536226272583, 0.38914474844932556, -0.3132055699825287, -0.4990120828151703, -0.19301648437976837, -0.2998236119747162, -0.21624022722244263, -0.3142870366573334, 0.26839733123779297, -0.4220306873321533, 0.5272747874259949, 0.32165512442588806, -0.06194449961185455, -0.33970099687576294, 0.6329498291015625, -0.12978266179561615, 0.31057387590408325, -0.31575191020965576, -0.22492897510528564, 0.24728018045425415, 0.5280948281288147, 0.3402417004108429, 0.3698362410068512, 0.1946156769990921, -0.21187134087085724, 0.6368195414543152, -0.3359031081199646, 0.2837059497833252, -0.5045453310012817, -0.18966816365718842, 0.5874558687210083, 0.1359422355890274, -0.2743972837924957, -0.2701238989830017, -0.2062358558177948, -0.20276379585266113, 0.27727389335632324, -0.4133317768573761, -0.3108769953250885, 0.13797155022621155, -0.33310770988464355]}, {"name": "encoder.encoder.net.mlp.2", "w": [[0.008484944701194763, -0.017994463443756104, -0.06948760151863098, -0.05798427760601044, 0.04922240972518921, 0.040276601910591125, -0.03466424345970154, -0.08975233137607574, -0.0012929290533065796, 0.11569224298000336, 0.051313504576683044, -0.10968257486820221, 0.09063021838665009, 0.017538994550704956, 0.04953347146511078, 0.11974388360977173, -0.0494958758354187, 0.0062205493450164795, 0.12144318222999573, 0.04150670766830444, -0.08240711688995361, -0.06564873456954956, 0.07482874393463135, -0.09997217357158661, -0.011671975255012512, -0.12449024617671967, -0.08093847334384918, -0.05575881898403168, -0.09274598956108093, 0.07200981676578522, -0.09263603389263153, 0.05261118710041046, -0.06968872249126434, -0.005811601877212524, 0.11502601206302643, 0.09824532270431519, 0.009532451629638672, -0.05473195016384125, -0.06884536147117615, -0.09117917716503143, 0.08832253515720367, -0.06934580206871033, -0.09704452753067017, -0.051039621233940125, 0.018654048442840576, -0.06406822800636292, -0.10516148805618286, -0.09324710071086884, 0.025042161345481873, 0.06363549828529358, 0.0994713306427002, 0.029534921050071716, -0.01043422520160675, -0.1117708832025528, -0.10815173387527466, 0.011803999543190002, 0.04411721229553223, 0.010430097579956055, 0.08085405826568604, 0.044606417417526245, 0.03709942102432251, -0.06734035909175873, -0.07642817497253418, -0.07840597629547119], [-0.11476242542266846, -0.12056940793991089, 0.074666827917099, -0.11387874186038971, -0.11692729592323303, 0.0429578572511673, 0.03788018226623535, -0.11670185625553131, -0.09512196481227875, -0.11935892701148987, -0.005028754472732544, -0.06764186918735504, 0.009946674108505249, -0.06378597021102905, -0.014671921730041504, 0.08922678232192993, 0.004573345184326172, 0.010347753763198853, -0.03542828559875488, 0.0011085867881774902, -0.09310165047645569, -0.11957739293575287, -0.059429243206977844, -0.01141965389251709, 0.03074263036251068, 0.06588758528232574, -0.048246949911117554, -0.04038262367248535, -0.12147033214569092, -0.10660591721534729, -0.04715912044048309, 0.1092386394739151, 0.09770441055297852, 0.08023147284984589, 0.008143901824951172, 0.018449440598487854, -0.07024544477462769, -0.07198071479797363, -0.10704655945301056, -0.11230844259262085, -0.08965495228767395, -0.09421311318874359, 0.0715215802192688, 0.06814438104629517, 0.055267155170440674, -0.04365989565849304, -0.0897216647863388, 0.028241947293281555, -0.09527681767940521, 0.034444659948349, 0.04282297194004059, -0.08896827697753906, -0.006531059741973877, 0.11619232594966888, 0.01677839457988739, 0.10372656583786011, 0.06017376482486725, -0.018342390656471252, 0.11076447367668152, -0.01880475878715515, -0.10051749646663666, 0.08907772600650787, -0.013798058032989502, -0.09695367515087128], [-0.041645050048828125, 0.1291298121213913, 0.03553100675344467, 0.3859705328941345, -0.0010998211801052094, -0.0380045622587204, 0.2976316809654236, 0.023040875792503357, 0.12223758548498154, 0.5931721925735474, 0.02658480405807495, -0.14609788358211517, 0.08445215970277786, -0.08991537988185883, -0.018625177443027496, 0.21886023879051208, 0.11844947934150696, 0.2564261555671692, 0.32617783546447754, 0.0782480537891388, 0.1898370385169983, -0.22918465733528137, -0.02135765738785267, 0.11688864976167679, 0.1038227304816246, 0.010600030422210693, 0.06449620425701141, 0.4746217429637909, -0.010418936610221863, -0.6462693810462952, -0.10418984293937683, -0.018886305391788483, -0.02873167395591736, -0.0541745088994503, 0.32690194249153137, -0.4257963299751282, 0.09657208621501923, 0.10794315487146378, 0.4391930103302002, 0.1655183732509613, 0.09434640407562256, 0.46237462759017944, 0.07441333681344986, 0.16687631607055664, 0.1998623013496399, 0.1895274966955185, 0.08219452202320099, 0.1521051526069641, 0.008814719505608082, 0.6659460663795471, 0.09268052875995636, 0.06594052910804749, 0.2294587343931198, 0.10389842838048935, 0.029014505445957184, -0.20886215567588806, -0.008447811007499695, 0.35477468371391296, 0.3913918137550354, 0.18447604775428772, 0.04313649237155914, -0.101169154047966, 0.13260413706302643, 0.02420775592327118], [0.014027968049049377, 0.16346082091331482, 0.1379701942205429, 0.3787234127521515, 0.16379109025001526, -0.08919377624988556, 0.19933170080184937, 0.09593719244003296, 0.019460976123809814, 0.6744569540023804, -0.00763191282749176, -0.27642038464546204, 0.14488546550273895, -0.08950480073690414, 0.162376269698143, 0.022513622418045998, 0.017927497625350952, 0.3396197259426117, 0.17653393745422363, 0.10317569971084595, 0.2135649472475052, -0.3385816514492035, 0.16729050874710083, 0.054583411663770676, 0.07460547983646393, -0.009793460369110107, -0.07637456059455872, 0.42523086071014404, -0.0717817097902298, -0.5186530351638794, -0.09696599841117859, 0.02940472960472107, -0.05196721851825714, 0.08720964938402176, 0.26467472314834595, -0.3898494839668274, -0.09657691419124603, -0.14851780235767365, 0.5351161360740662, 0.07320349663496017, 0.117367222905159, 0.5288956761360168, -0.15523967146873474, 0.16797813773155212, 0.004527446813881397, 0.12935030460357666, 0.08249934762716293, 0.30866119265556335, -0.026048723608255386, 0.45235344767570496, 0.03428035229444504, 0.07201848924160004, 0.4011509418487549, -0.04940929636359215, 0.07703612744808197, -0.17110507190227509, -0.061869099736213684, 0.2874838709831238, 0.43310439586639404, 0.0332975834608078, 0.016664311289787292, -0.07863445580005646, 0.25478312373161316, -0.10696850717067719], [0.014154329895973206, 0.19936303794384003, -0.013218555599451065, 0.4093327224254608, 0.08648288249969482, -0.05487130582332611, 0.1672465056180954, 0.1217675656080246, 0.14073342084884644, 0.6353998780250549, -0.08255510032176971, -0.20826125144958496, 0.07617199420928955, -0.009699374437332153, 0.08750993758440018, 0.10435514152050018, -0.014647409319877625, 0.17540772259235382, 0.23826035857200623, 0.16430796682834625, 0.07522902637720108, -0.17391473054885864, 0.1755363941192627, 0.2026410847902298, 0.06077165901660919, 0.05564616620540619, -0.032318755984306335, 0.3710058331489563, -0.07167734205722809, -0.45656818151474, 0.031917884945869446, 0.1200864240527153, 0.06004384160041809, -0.08458450436592102, 0.26295486092567444, -0.33011385798454285, 0.05424480140209198, 0.07637679576873779, 0.43051639199256897, 0.06890008598566055, -0.01346103847026825, 0.3748687505722046, -0.0176529660820961, 0.1261252611875534, 0.14769600331783295, 0.05557813122868538, -0.005199568811804056, -0.04371882602572441, -0.0037875466514378786, 0.7596046924591064, 0.04474540054798126, 0.10521839559078217, 0.3974037170410156, 0.026522621512413025, 0.1282578408718109, -0.26614055037498474, 0.1207786351442337, 0.30962038040161133, 0.3221483528614044, 0.1828504502773285, -0.10047142207622528, -0.013348683714866638, 0.1212788075208664, -0.01705324649810791], [-0.09458068013191223, 0.16664817929267883, 0.2100699096918106, -0.2476007491350174, 0.1256960779428482, -0.01549471914768219, 0.2624731957912445, -0.1164996325969696, 0.12144248187541962, -0.9133570790290833, -0.09205237030982971, 0.2680726945400238, 0.12299536168575287, 0.26711541414260864, -0.09991221129894257, 0.19219587743282318, -0.10336670279502869, -0.5883481502532959, 0.2872703969478607, 0.195693239569664, 0.14874936640262604, 0.39458534121513367, 0.21261827647686005, 0.22359415888786316, 0.021163711324334145, -0.03201892971992493, 0.017191246151924133, -0.3061555325984955, 0.06281708180904388, 0.4714145362377167, -0.07025030255317688, 0.16730721294879913, 0.058180660009384155, 0.0872582420706749, 0.146168053150177, 0.3711310029029846, 0.1029931902885437, 0.07629738748073578, -0.8270614147186279, 0.14873270690441132, -0.014126509428024292, -0.7369464635848999, 0.06283857673406601, -0.012471666559576988, 0.040638744831085205, 0.006103357300162315, 0.2277231514453888, -0.17530836164951324, 0.07590609788894653, -0.21778839826583862, 0.17930787801742554, 0.06968803703784943, -0.3374304473400116, 0.10473227500915527, 0.2844105064868927, 0.31070154905319214, -0.056959956884384155, -0.15768079459667206, -0.18652130663394928, -0.041866593062877655, -0.05820609629154205, 0.0937066525220871, 0.08645680546760559, -0.11449028551578522], [-0.008012562990188599, 0.023038361221551895, 0.056930962949991226, 0.07760035246610641, -0.008373038843274117, 0.04984305799007416, -0.02525799162685871, -0.037650689482688904, 0.0482950285077095, -0.06911233812570572, 0.08430980145931244, 0.008985346183180809, -0.11422288417816162, 0.10135184973478317, 0.04755810275673866, -0.13670790195465088, -0.09088177978992462, -0.05558696761727333, -0.1324298083782196, -0.07165645807981491, -0.04348544776439667, 0.09111593663692474, -0.01899755746126175, 0.03818034753203392, -0.07126068323850632, 0.0022353529930114746, -0.11364917457103729, -0.06091262772679329, 0.01803836226463318, 0.06872211396694183, -0.03457632660865784, -0.035045478492975235, 0.07050032913684845, -0.13465994596481323, 0.0860261470079422, 0.0488845519721508, -0.09479114413261414, -0.012091483920812607, 0.053699880838394165, -0.09343577921390533, -0.014866635203361511, 0.022074086591601372, 0.03833657503128052, 0.06856554001569748, 0.003954934887588024, -0.07404782623052597, 0.01857738383114338, -0.03637191280722618, -0.11842087656259537, 0.031009510159492493, -0.14009802043437958, 0.098752960562706, -0.12462667375802994, -0.0822010487318039, 0.042977236211299896, 0.031243396922945976, 0.04159730672836304, -0.05758364871144295, 0.04644826054573059, 0.03293578326702118, 0.05611465871334076, -0.05123329162597656, -0.11896221339702606, -0.10380701720714569], [-0.077619269490242, -0.0303993821144104, 0.04871387779712677, -0.10574683547019958, -0.12371684610843658, -0.08462825417518616, -0.10331504046916962, 0.10104024410247803, -0.09567928314208984, 0.06552064418792725, 0.10734961926937103, 0.016478627920150757, -0.0645788311958313, 0.01824188232421875, -0.029613211750984192, -0.08235538005828857, -0.014345452189445496, -0.08920085430145264, 0.025302961468696594, -0.09979845583438873, 0.10406838357448578, -0.12463659048080444, -0.06337259709835052, -0.05310790240764618, -0.09123910963535309, 0.08788752555847168, -0.11225265264511108, -0.020987331867218018, 0.0010073482990264893, -0.04071836173534393, 0.11948789656162262, -0.10383594036102295, -0.11360016465187073, -0.12489047646522522, -0.0007539987564086914, -0.1043810099363327, 0.10572083294391632, -0.06940111517906189, -0.06801541149616241, 0.06713497638702393, -0.03892725706100464, -0.07173603773117065, -0.010606914758682251, 0.013136744499206543, 0.09342202544212341, 0.005058586597442627, 0.07498994469642639, -0.07620979845523834, -0.12291625142097473, 0.034903302788734436, 0.007427379488945007, 0.10070967674255371, 0.017029255628585815, 0.0378803014755249, -0.03492625057697296, -0.08131322264671326, -0.10298088192939758, -0.037439897656440735, -0.07152488827705383, -0.03469192981719971, 0.1068771481513977, -0.06312748789787292, 0.08514678478240967, -0.018260687589645386], [0.10009153187274933, 0.299061119556427, -0.05428155139088631, 0.38719049096107483, 0.07371212542057037, -0.09948170185089111, 0.22696515917778015, 0.06954659521579742, -0.14500288665294647, 0.6474645733833313, -0.08772897720336914, -0.8185650706291199, 0.19797880947589874, -0.9106371402740479, -0.009046203456819057, 0.2169170081615448, -0.05966438353061676, 0.5961329340934753, 0.17642854154109955, -0.11707331240177155, 0.12916618585586548, -0.7195166945457458, 0.14112234115600586, 0.16799846291542053, 0.15358759462833405, 0.07532444596290588, 0.07286332547664642, 0.48789557814598083, 0.09789180755615234, -1.094614028930664, 0.02052527666091919, 0.17928703129291534, 0.12000629305839539, -0.5750383734703064, 0.38700273633003235, -0.9061709046363831, 0.052139222621917725, -0.49442410469055176, 0.423509418964386, 0.1204204112291336, 0.01671518385410309, 0.625193178653717, -0.9184507727622986, -0.04560898244380951, 0.06637705862522125, 0.14739367365837097, 0.003948234487324953, 0.21685871481895447, -0.12071147561073303, 0.2943345606327057, -0.030412770807743073, 0.048042088747024536, 0.3973270654678345, -0.121938556432724, 0.03585207462310791, -0.7611566185951233, -0.07386685907840729, 0.3141089975833893, 0.2694091498851776, -0.27805280685424805, 0.11242799460887909, 0.04397009313106537, 0.44152140617370605, -0.02117350697517395], [-0.07375580072402954, 0.08227905631065369, 0.04505150020122528, -0.09926901757717133, 0.08474797755479813, 0.08969973027706146, 0.006908885668963194, 0.08242928981781006, 0.04635143280029297, 0.1065351814031601, -0.0931740254163742, -0.004304423928260803, -0.06974556297063828, 0.01042685192078352, -0.1314740628004074, 0.08255034685134888, -0.026246801018714905, -0.012460276484489441, 0.09223611652851105, -0.020656434819102287, -0.07947434484958649, 0.05284839868545532, -0.05601246654987335, 0.06099391728639603, 0.10281211882829666, 0.11460143327713013, 0.015007644891738892, 0.08192991465330124, -0.07820954918861389, 0.05270473659038544, 0.1143999695777893, -0.11565981060266495, 0.062174782156944275, 0.08372741937637329, -0.06314458698034286, -0.0031262338161468506, -0.07553988695144653, 0.029628129675984383, -0.10686014592647552, 0.0278751440346241, 0.06562453508377075, 0.10182598233222961, 0.04170191287994385, 0.016567986458539963, -0.12361165881156921, -0.009007833898067474, -0.08992791175842285, 0.10120806097984314, -0.12065959721803665, -0.10254988074302673, -0.10802386701107025, -0.013287454843521118, 0.08122654259204865, -0.10439105331897736, 0.027611497789621353, 0.04241769015789032, -0.028631314635276794, -0.08796988427639008, 0.04672045260667801, -0.11698771268129349, -0.1081882119178772, -0.08507347106933594, -0.04489768296480179, -0.047159165143966675], [0.09659291803836823, 0.02325466088950634, 0.058638155460357666, -0.3779142200946808, 0.13052277266979218, 0.10550004243850708, -0.030078910291194916, 0.0664234459400177, -0.03968578577041626, -0.36082372069358826, 0.058279573917388916, -0.12149683386087418, -0.08386996388435364, 0.027176963165402412, -0.24357502162456512, 0.04422217234969139, -0.05315700173377991, -0.24894222617149353, 0.12935775518417358, -0.04882195591926575, -0.12620976567268372, -0.01614605076611042, -0.04709174484014511, -0.005862623918801546, 0.12752632796764374, 0.11396816372871399, -0.02468162775039673, -0.06933751702308655, 0.07018020749092102, 0.044206783175468445, -0.0696469098329544, 0.01640414632856846, -0.007145285606384277, -0.010687104426324368, 0.08079651743173599, 0.08489542454481125, -0.03073926270008087, 0.03198456019163132, -0.4577760398387909, -0.12981344759464264, 0.05709974467754364, -0.19631485641002655, -0.29921725392341614, -0.12092211842536926, -0.1326405555009842, -0.034531861543655396, -0.03011779859662056, 0.07360561192035675, 0.02892346866428852, 0.014434338547289371, 0.03855773061513901, -0.01008082926273346, -0.3799940049648285, -0.014031165279448032, -0.30596470832824707, -0.12986376881599426, 0.11365441977977753, -0.11172574758529663, -0.13499689102172852, 0.2001175880432129, 0.059280335903167725, -0.11882966756820679, 0.07151729613542557, -0.051691532135009766], [0.016419067978858948, -0.029575131833553314, 0.16224543750286102, -0.22704467177391052, -0.017782004550099373, 0.05167721211910248, 0.03732401877641678, -0.08389519155025482, -0.0020845315884798765, -0.6607998609542847, -0.059198588132858276, 0.32054486870765686, 0.05754261836409569, -0.03692999482154846, 0.05797038599848747, 0.20307160913944244, 0.03185974061489105, 0.04184548556804657, 0.14684033393859863, 0.1321564018726349, 0.1363876610994339, 0.22484733164310455, 0.09247034043073654, 0.17282772064208984, -0.014172126539051533, -0.06084944307804108, -0.03766946494579315, -0.3528531789779663, -0.10818085074424744, 0.37385621666908264, -0.042592719197273254, 0.006401225924491882, 0.009754180908203125, 0.003922516945749521, -0.09093499928712845, 0.48727092146873474, 0.12366029620170593, 0.10001605749130249, -0.6634906530380249, 0.2110895812511444, -0.08993184566497803, -0.6513541340827942, 0.13481798768043518, 0.08593270927667618, -0.05301857739686966, 0.10838083922863007, 0.0496939979493618, 0.012433848343789577, 0.04541190341114998, -0.4801894426345825, 0.0642668828368187, -0.05479252338409424, -0.1270366609096527, 0.01791786588728428, 0.016992539167404175, 0.1616048961877823, -0.036398038268089294, -0.1301758587360382, -0.24599699676036835, 0.04448574408888817, -0.051855430006980896, -0.06827203929424286, 0.16369269788265228, 0.0355827659368515], [0.06375372409820557, 0.23216839134693146, 0.05716085061430931, 0.4651159644126892, 0.1343318521976471, -0.061856359243392944, 0.2357221394777298, 0.011243849992752075, -0.09467020630836487, 0.7086612582206726, 0.033335089683532715, -0.9696351289749146, 0.03965440392494202, -0.041372258216142654, -0.09375175833702087, 0.04214506223797798, 0.023737549781799316, 0.6138207912445068, 0.12745808064937592, -0.05988302454352379, 0.2305154800415039, -0.9596079587936401, 0.040534719824790955, -0.03481224924325943, 0.04646490141749382, -0.02469073235988617, 0.1051454246044159, 0.44382455945014954, 0.11890716850757599, -1.3465831279754639, 0.0802852213382721, 0.15732206404209137, -0.062170594930648804, -0.008821286261081696, 0.3011660575866699, -1.0227363109588623, -0.052898064255714417, -0.05913681909441948, 0.49049699306488037, -0.009328163228929043, -0.00930856168270111, 0.4239511489868164, -0.20066817104816437, 0.024362435564398766, 0.06684506684541702, 0.00716219050809741, -0.07521983236074448, 0.26807788014411926, -0.011114844121038914, 0.3253277540206909, 0.10556897521018982, 0.020349740982055664, 0.33746039867401123, 0.09629562497138977, -0.08770009130239487, -0.928191065788269, -0.11236324906349182, 0.3959173560142517, 0.4380582869052887, -0.014112296514213085, 0.09006050229072571, -0.070854052901268, 0.23695418238639832, 0.020852208137512207], [0.12113456428050995, 0.17624855041503906, 0.16691088676452637, -0.307815283536911, 0.1574321836233139, 0.11161725223064423, 0.13278211653232574, 0.013926327228546143, 0.030494673177599907, -0.8391234278678894, -0.0028073489665985107, 0.33527833223342896, 0.20806185901165009, 0.11309516429901123, -0.04082934558391571, 0.15641656517982483, -0.0342022180557251, -0.5122933387756348, 0.32340431213378906, 0.20464153587818146, 0.21228352189064026, 0.35532429814338684, 0.19614291191101074, 0.07039157301187515, 0.055847737938165665, -0.09615759551525116, -0.030144914984703064, -0.39971330761909485, 0.06427685916423798, 0.5656692385673523, 0.02842313051223755, 0.19534552097320557, 0.11220225691795349, 0.11406827718019485, -0.05849980562925339, 0.4701499044895172, -0.03925296664237976, 0.10834826529026031, -0.710845410823822, 0.15140560269355774, 0.04509425163269043, -0.7277392148971558, 0.19615760445594788, 0.03615386784076691, 0.14333955943584442, 0.1569308042526245, 0.012148118577897549, -0.011759861372411251, 0.02443952113389969, -0.31849658489227295, 0.20699825882911682, 0.07998153567314148, -0.1849360167980194, 0.19696766138076782, 0.2589337229728699, 0.29960736632347107, -0.10958234965801239, -0.23106072843074799, -0.23432449996471405, 0.10377845168113708, -0.04643729329109192, -0.012439846992492676, 0.25271397829055786, 0.08719147741794586], [-0.07772214710712433, 0.1965973824262619, 0.023636991158127785, 0.3557240664958954, 0.011034649796783924, 0.006702229380607605, 0.28435108065605164, 0.042000412940979004, 0.16983842849731445, 0.5946377515792847, -0.05780789256095886, -0.26214131712913513, 0.09573913365602493, -0.03803379088640213, 0.16394847631454468, 0.05159046873450279, -0.08371162414550781, 0.08395954221487045, 0.30185747146606445, -0.061930861324071884, 0.2102283537387848, -0.3274504244327545, 0.19652391970157623, 0.1513736993074417, 0.10582330077886581, -0.11891844868659973, 0.09037858247756958, 0.34473323822021484, 0.07633750140666962, -0.45843642950057983, -0.06441265344619751, 0.21807783842086792, -0.11415642499923706, 0.06838013231754303, 0.13010644912719727, -0.29953649640083313, -0.11596114933490753, -0.04439832642674446, 0.46793240308761597, 0.11414634436368942, -0.0731724351644516, 0.5516989827156067, 0.06885448843240738, 0.08516985923051834, 0.020766451954841614, 0.07207868993282318, -0.042959172278642654, 0.0024742428213357925, 0.1090545803308487, 0.7466540932655334, 0.16111958026885986, -0.0288458913564682, 0.35855603218078613, 0.15013475716114044, 0.0798439234495163, -0.15687008202075958, -0.05564337968826294, 0.39741185307502747, 0.4274851679801941, 0.06719013303518295, 0.052610620856285095, 0.10009565949440002, 0.20084048807621002, -0.024641618132591248], [-0.0586676299571991, -0.09957516193389893, -0.02004149556159973, -0.07728010416030884, -0.057686641812324524, -0.09911404550075531, 0.060733988881111145, 0.022167742252349854, -0.08773590624332428, 0.06832778453826904, -0.08596369624137878, 0.05531968176364899, 0.05723342299461365, 0.12002961337566376, -0.0069440752267837524, -0.08611202239990234, -0.09470365941524506, 0.06428420543670654, 0.12377388775348663, 0.1236782968044281, -0.018908917903900146, -0.06899036467075348, -0.02419435977935791, -0.031381428241729736, -0.07849235832691193, -0.0029946863651275635, -0.09418869018554688, 0.009729132056236267, 0.05330127477645874, -0.11414866149425507, -0.06471876800060272, 0.04212565720081329, 0.10766303539276123, -0.10549882054328918, 0.12421008944511414, -0.11334870755672455, 0.07800944149494171, -0.08344899117946625, 0.06646986305713654, -0.09603822231292725, 0.07365821301937103, -0.05143165588378906, 0.041494980454444885, -0.04486383497714996, -0.037779420614242554, 0.1082211434841156, -0.11476588249206543, -0.08710800111293793, -0.09802424907684326, 0.11261537671089172, -0.001757398247718811, 0.04099930822849274, -0.017127811908721924, -0.0994253158569336, -0.07361125946044922, 0.05645813047885895, -0.043356284499168396, -0.07546219229698181, 0.03563496470451355, -0.05825667083263397, 0.11103691160678864, -0.040909960865974426, 0.012177467346191406, -0.12251558899879456], [-0.10941869020462036, 0.24874521791934967, 0.011973402462899685, 0.4149623215198517, 0.19598403573036194, -0.08048194646835327, 0.20255537331104279, 0.06796447932720184, 0.18945951759815216, 0.6625696420669556, -0.03386567533016205, -0.3423001766204834, 0.17748555541038513, -0.15172179043293, 0.014805610291659832, 0.009613853879272938, 0.06974124908447266, 0.4690436124801636, 0.24236468970775604, -0.04659092053771019, 0.16103613376617432, -0.3476463854312897, 0.17468802630901337, -0.0252863559871912, 0.11465668678283691, -0.0008374154567718506, 0.077287957072258, 0.386597603559494, -0.046838030219078064, -0.5474496483802795, -0.08849005401134491, 0.20336776971817017, 0.08399416506290436, -0.09557271748781204, 0.12434563785791397, -0.4889683425426483, 0.10924138128757477, 0.0862848237156868, 0.5257804989814758, 0.13728731870651245, -0.08215667307376862, 0.559801459312439, 0.004745168145745993, 0.021051907911896706, 0.08729841560125351, -0.006794468034058809, 0.1037856712937355, 0.3149131238460541, -0.13114871084690094, 0.3280524015426636, -0.013823767192661762, 0.03233778476715088, 0.4185737073421478, -0.012417057529091835, 0.06799998879432678, -0.33780667185783386, -0.047212615609169006, 0.24628771841526031, 0.3123980164527893, 0.005473071709275246, 0.10173933207988739, 0.033087313175201416, 0.33820945024490356, -0.04743790626525879], [0.007362738251686096, -0.1296282857656479, -0.014601467177271843, 0.04977468028664589, -0.08907892554998398, 0.09694536030292511, -0.11238841712474823, -0.06846824288368225, 0.05791936442255974, 0.10787363350391388, -0.056320056319236755, 0.026700656861066818, -0.11225523054599762, -0.041798703372478485, 0.0015177108580246568, -0.10432824492454529, -0.0011662393808364868, 0.085320383310318, 0.02458452805876732, 0.029888594523072243, -0.06715564429759979, -0.03451086953282356, 0.03816644474864006, -0.09510372579097748, -0.03690199553966522, 0.04821197688579559, 0.11872440576553345, -0.017712321132421494, -0.027540504932403564, -0.04455422982573509, 0.047804057598114014, -0.011598221957683563, 0.05018682777881622, -0.030231373384594917, -0.1198047399520874, 0.041789330542087555, -0.035856470465660095, -0.03058561123907566, -0.04650169238448143, 0.06399570405483246, 0.05152392387390137, -0.08677645772695541, -0.015607429668307304, 0.07460932433605194, -0.04075925797224045, 0.046751029789447784, 0.04997432976961136, -0.06419111788272858, -0.0832502618432045, 0.04303266108036041, -0.027439961209893227, 0.0014224797487258911, 0.08522690087556839, -0.02555842138826847, -0.03900092467665672, -0.022816848009824753, 0.030001893639564514, -0.018297534435987473, 0.01571379415690899, -0.08248209953308105, 0.03608281910419464, -0.017439037561416626, -0.05986374244093895, 0.05874234437942505], [0.00013253092765808105, 0.2527593970298767, 0.08515710383653641, 0.32328665256500244, 0.09711205214262009, 0.06869937479496002, 0.2277010828256607, -0.024062633514404297, 0.09733778983354568, 0.7190062403678894, -0.08640696108341217, -0.21636001765727997, 0.1931033879518509, -0.036676302552223206, 0.08236362785100937, 0.017918327823281288, 0.1129327267408371, 0.3890371322631836, 0.08758760988712311, -0.05044253170490265, 0.03866253420710564, -0.42442581057548523, 0.07243893295526505, 0.04996157065033913, 0.0037972419522702694, -0.12120924890041351, -0.08304719626903534, 0.27508896589279175, -0.1058100014925003, -0.597535252571106, 0.013900980353355408, 0.008171276189386845, -0.09240752458572388, 0.04103545472025871, 0.31372326612472534, -0.460355669260025, -0.10126805305480957, 0.02964438684284687, 0.5974463224411011, 0.11638395488262177, -0.02904704213142395, 0.5388649702072144, -0.1634565144777298, 0.09495017677545547, 0.10600253194570541, 0.08152107894420624, 0.09830012917518616, 0.3231407701969147, -0.014098893851041794, 0.5007684230804443, -0.0032951480243355036, 0.11727222800254822, 0.36230355501174927, -0.05523219704627991, -0.1195986419916153, -0.16045361757278442, 0.11978001892566681, 0.2705751955509186, 0.31821030378341675, 0.05757506936788559, 0.04462629556655884, 0.060474857687950134, 0.13872481882572174, 0.07368195056915283], [0.041580989956855774, 0.039398543536663055, 0.09255826473236084, 0.11398116499185562, -0.04652254283428192, -0.0139712393283844, -0.07163888216018677, -0.06415830552577972, 0.1143137514591217, -0.0751841738820076, -0.09596338868141174, -0.04722662642598152, 0.05602968856692314, -0.029688144102692604, -0.11250871419906616, -0.10848886519670486, 0.08777464926242828, -0.026170317083597183, 0.03561488166451454, -0.11276164650917053, -0.08180152624845505, 0.10312771052122116, -0.04566412791609764, -0.10062350332736969, -0.09638936817646027, -0.08764106035232544, 0.09791934490203857, 0.03130267187952995, -0.08003409206867218, -0.007417455315589905, 0.07696402072906494, 0.07879076153039932, -0.07180362939834595, -0.06975100189447403, -0.04554843530058861, 0.0610739141702652, -0.09361468255519867, 0.07094606012105942, -0.008273403160274029, 0.05532529205083847, 0.04419201612472534, -0.08809078484773636, -0.0915544405579567, -0.011910396628081799, -0.07415306568145752, 0.06118658930063248, -0.014283688738942146, 0.0631089061498642, -0.010242943651974201, -0.08356988430023193, 0.11265343427658081, -0.05286857485771179, -0.09271625429391861, -0.0031644711270928383, -0.11171813309192657, -0.010413126088678837, -0.06656725704669952, 0.09515249729156494, -0.11132294684648514, -0.11130273342132568, -0.02551165223121643, 0.04662500321865082, 0.008432475849986076, -0.018054306507110596], [0.03419080376625061, 0.06500500440597534, 0.019484419375658035, 0.3680753707885742, 0.004027251619845629, -0.12202678620815277, 0.28025081753730774, 0.10124348104000092, 0.027360310778021812, 0.6164107918739319, -0.04167388379573822, -0.405387818813324, 0.1451750546693802, -0.16331268846988678, 0.06506684422492981, 0.13450677692890167, 0.07769179344177246, 0.4382384717464447, 0.2615700960159302, 0.11123786121606827, 0.23596687614917755, -0.35535043478012085, 0.1187119111418724, 0.09440437704324722, 0.20671047270298004, 0.07845281064510345, -0.10139288008213043, 0.4382428526878357, -0.03090226650238037, -0.7202161550521851, -0.11328206956386566, 0.045233651995658875, 0.09681786596775055, -0.0819370299577713, 0.12983475625514984, -0.45410671830177307, 0.07892352342605591, -0.0052461642771959305, 0.6038557291030884, 0.11026272177696228, 0.08841252326965332, 0.6435809135437012, -0.12199008464813232, 0.020059358328580856, 0.01574002206325531, 0.19976137578487396, 0.1652487963438034, 0.3474276661872864, 0.07713835686445236, 0.43365195393562317, 0.037261348217725754, -0.12160000205039978, 0.3703935742378235, 0.007834367454051971, -0.03439374268054962, -0.3190452456474304, 0.024881958961486816, 0.4023135304450989, 0.380415141582489, 0.019308701157569885, -0.06246037781238556, 0.10735133290290833, 0.1326913982629776, 0.08703023195266724], [0.021616533398628235, 0.04454997926950455, -0.12489769607782364, -0.10321572422981262, 0.12038016319274902, -0.07692781090736389, 0.09624260663986206, -0.014372214674949646, 0.04172031208872795, 0.0447438508272171, -0.08268748223781586, 0.10253824293613434, -0.03264870494604111, 0.02675027586519718, -0.04803931340575218, -0.04320801794528961, 0.027512326836586, 0.0751807689666748, -0.035400863736867905, 0.08709020912647247, 0.007878605276346207, 0.11927996575832367, -0.06765764206647873, 0.08196018636226654, -0.03862474858760834, 0.04902973771095276, -0.03257712721824646, -0.10254238545894623, 0.019859671592712402, 0.029292792081832886, 0.10356548428535461, 0.1155017763376236, -0.08793744444847107, 0.11886994540691376, -0.07457827776670456, -0.019422367215156555, -0.0357566773891449, -0.04579450935125351, -0.09063167870044708, -0.05064108222723007, 0.05540180206298828, 0.008988440036773682, 0.11951281875371933, -0.06364163011312485, -0.06506913900375366, -0.03570404648780823, -0.04988214746117592, 0.05453309416770935, -0.05357591062784195, 0.01963891088962555, -0.03077382594347, 0.08988560736179352, 0.05559447407722473, 0.0953657478094101, 0.0744752362370491, -0.10782432556152344, 0.030374854803085327, -0.053574323654174805, -0.05224815383553505, 0.0050187683664262295, 0.026751399040222168, 0.11526750028133392, 0.012279755435883999, 0.05128200352191925], [-0.05661860108375549, 0.025770332664251328, 0.061737529933452606, 0.3044587969779968, 0.10018924623727798, -0.015082627534866333, 0.23827184736728668, -0.06083384156227112, -0.010802725329995155, 0.3935578763484955, -0.10505558550357819, -0.6430461406707764, 0.0981641411781311, -0.8094314932823181, -0.03405735641717911, 0.1958291083574295, 0.014597341418266296, 0.3434720039367676, 0.31621530652046204, 0.04315923899412155, 0.21343602240085602, -0.8385075330734253, 0.0598020926117897, 0.013570824638009071, 0.07944587618112564, 0.06342907249927521, 0.087959423661232, 0.28502461314201355, -0.10536423325538635, -1.2310253381729126, -0.1119922399520874, 0.07036691159009933, 0.027033373713493347, -0.6924906969070435, 0.141275554895401, -0.9530397653579712, 0.0029528290033340454, -0.22397658228874207, 0.32946011424064636, 0.04525052756071091, -0.11857087910175323, 0.4313018023967743, -0.7879343032836914, -0.06253563612699509, 0.1502215713262558, 0.22541387379169464, 0.1328507959842682, 0.2829999625682831, -0.19508272409439087, 0.48002973198890686, -0.1143774762749672, -0.005837038159370422, 0.3247701823711395, -0.09665319323539734, 0.10314079374074936, -0.8061994314193726, 0.06437158584594727, 0.3051590919494629, 0.24686728417873383, -0.16291353106498718, 0.013660773634910583, -0.04696819186210632, 0.3193817734718323, -0.022131487727165222], [0.030689001083374023, -0.12818321585655212, 0.056710824370384216, 0.002143770456314087, -0.09261596947908401, 0.07633772492408752, 0.0709770917892456, -0.07829400897026062, -0.01339554600417614, -0.012330805882811546, 0.09743297100067139, -0.1186802089214325, -0.029509317129850388, -0.0030351418536156416, -0.13245487213134766, 0.02857075072824955, -0.01947815716266632, -0.1195714920759201, -0.11599282920360565, -0.033349696546792984, -0.11962402611970901, -0.03659598529338837, -0.024556420743465424, -0.11660511791706085, 0.03584267571568489, -0.050769224762916565, -0.052872925996780396, -0.013588118366897106, 0.072837233543396, -0.048817992210388184, 0.05887115001678467, -0.057169631123542786, -0.06540733575820923, 0.09592054784297943, 0.09478078782558441, 0.0334552526473999, -0.06383807957172394, 0.03890257701277733, -0.05631344020366669, 0.08088744431734085, -0.11256164312362671, -0.08525890111923218, -0.13125033676624298, 0.0324111133813858, -0.001818438759073615, 0.029423074796795845, -0.1381050944328308, 0.08673478662967682, 0.02576262317597866, 0.0624842643737793, -0.11593431979417801, 0.09508214890956879, 0.1030096709728241, 0.08413749933242798, 0.08773837238550186, -0.11966995894908905, -0.031395986676216125, -0.09820852428674698, -0.12544989585876465, 0.044214583933353424, -0.05763433873653412, -0.011426806449890137, -0.002124802442267537, 0.030619889497756958], [0.06938821077346802, 0.09535191208124161, 0.11184133589267731, 0.3103850483894348, 0.14957216382026672, -0.009099617600440979, 0.09704098105430603, 0.06596776843070984, 0.0811506137251854, 0.47620609402656555, -0.09225042164325714, -0.1044720709323883, 0.1237800270318985, -0.06868860125541687, 0.1514563113451004, -0.025579269975423813, -0.05432240664958954, -0.04568037763237953, 0.302864134311676, 0.14594589173793793, 0.14549443125724792, -0.2978644371032715, 0.07978416979312897, 0.05856054276227951, 0.1945934295654297, -0.0995788425207138, 0.034112244844436646, 0.42862313985824585, 0.09425874054431915, -0.5468711853027344, -0.014089763164520264, 0.15738029778003693, -0.04948253929615021, -0.04451094567775726, 0.13228556513786316, -0.46872010827064514, 0.016655609011650085, -0.03909596428275108, 0.3596521019935608, 0.013904307968914509, 0.1219969242811203, 0.28582414984703064, -0.09108683466911316, 0.07949914783239365, -0.01701655238866806, 0.11683733016252518, 0.1656513512134552, -0.029269304126501083, 0.15139493346214294, 0.777937650680542, 0.16371169686317444, -0.015980109572410583, 0.1255129873752594, 0.10387682914733887, -0.12277352809906006, -0.15470260381698608, 0.0029062777757644653, 0.36238953471183777, 0.26284682750701904, 0.17572017014026642, 0.07853686809539795, -0.003394871950149536, 0.07055152207612991, -0.0442565381526947], [0.1023382842540741, 0.2323702722787857, -0.06584309786558151, 0.35048195719718933, 0.21120700240135193, 0.027726292610168457, 0.11705143749713898, -0.022878974676132202, 0.044444866478443146, 0.6265906691551208, 0.031284987926483154, -0.11667260527610779, 0.0913282036781311, -0.14225512742996216, 0.15903620421886444, 0.22540180385112762, 0.015971511602401733, 0.10689263790845871, 0.29898181557655334, 0.04874768853187561, 0.23434987664222717, -0.3974230885505676, -0.000748460297472775, 0.212709441781044, 0.06893876194953918, -0.054855138063430786, -0.030641838908195496, 0.4376717805862427, -0.09268110990524292, -0.5494848489761353, 0.02211838960647583, 0.09139028191566467, -0.06151372194290161, 0.05036779120564461, 0.14171065390110016, -0.5237120389938354, 0.11826431751251221, 0.06326376646757126, 0.5140836834907532, 0.19246385991573334, 0.0007136017084121704, 0.5271338820457458, -0.05000133439898491, 0.08698054403066635, 0.20523874461650848, 0.18085850775241852, -0.009980956092476845, 0.10842372477054596, 0.040747176855802536, 0.5086328983306885, 0.10700202733278275, 0.0018110275268554688, 0.32822367548942566, 0.1039072573184967, 0.07223927229642868, -0.18157432973384857, -0.032763153314590454, 0.2528398633003235, 0.24442920088768005, 0.05075014755129814, -0.06730586290359497, 0.055688634514808655, 0.34580835700035095, -0.06083424389362335], [0.055375099182128906, 0.06872820109128952, -0.13770973682403564, -0.0674128532409668, -0.11425444483757019, -0.12162292003631592, 0.07412989437580109, -0.06969450414180756, -0.07397216558456421, 0.06716721504926682, -0.06758345663547516, 0.011836593970656395, -0.09935789555311203, -0.01808689534664154, 0.012758642435073853, 0.10576657950878143, 0.030453473329544067, 0.06650162488222122, 0.05457170680165291, -0.06985975801944733, 0.004746917635202408, 0.07105326652526855, 0.010374324396252632, 0.06508401781320572, -0.08808603882789612, -0.06579911708831787, 0.006644949316978455, -0.010077823884785175, -0.10643856227397919, 0.01029182504862547, -0.0016118735074996948, -0.08948448300361633, -0.0015913546085357666, -0.06427780538797379, -0.09253796935081482, -0.11934992671012878, -0.09043754637241364, 0.04330458864569664, -0.12944930791854858, -0.016904130578041077, -0.05281953513622284, 0.059421710669994354, -0.009302215650677681, -0.06367605924606323, -0.11697836220264435, -0.0016656086081638932, 0.06264153867959976, -0.11054179072380066, 0.04978471249341965, 0.03779483959078789, -0.04608488455414772, -0.08152419328689575, 0.04479510337114334, -0.06454066187143326, -0.05800387263298035, -0.08565589040517807, -0.05402812361717224, 0.07416361570358276, -0.0043918476440012455, -0.08456484228372574, 0.0035592615604400635, -0.11077004671096802, -0.019512245431542397, -0.040631383657455444], [-0.08789744973182678, 0.027324732393026352, 0.047009728848934174, 0.33565276861190796, 0.01909293606877327, 0.0834856778383255, 0.21572838723659515, -0.03315712511539459, 0.18172483146190643, 0.5163146257400513, -0.11275580525398254, -0.1750219762325287, 0.1500444859266281, 0.15433648228645325, 0.14587745070457458, 0.003194836201146245, 0.029134884476661682, -0.002197785535827279, 0.27316814661026, 0.037158191204071045, 0.17789557576179504, -0.18997642397880554, 0.003916013054549694, 0.10649089515209198, 0.043859004974365234, -0.004718989133834839, 0.023077741265296936, 0.32919836044311523, -0.023835092782974243, -0.38502997159957886, 0.05210001766681671, 0.044307541102170944, -0.021125882863998413, 0.09177848696708679, 0.06433926522731781, -0.40922707319259644, -0.09503211081027985, 0.16309194266796112, 0.3008694350719452, -0.03558572754263878, -0.0022833645343780518, 0.278830349445343, 0.10443009436130524, 0.08546465635299683, 0.03443264588713646, 0.01227461826056242, 0.11339090764522552, 0.07394532859325409, 0.031502898782491684, 0.81942218542099, 0.1874283403158188, -0.10307341814041138, 0.09232380241155624, 0.23947598040103912, -0.027306340634822845, -0.17376072704792023, 0.01913321018218994, 0.18340851366519928, 0.2553198039531708, 0.0691882073879242, -0.010822728276252747, -0.009816542267799377, 0.037113308906555176, -0.006236597895622253], [0.07834354043006897, -0.07172980904579163, -0.10503366589546204, -0.06583213806152344, 0.05754506215453148, -0.05843046307563782, -0.12078139185905457, 0.025935396552085876, -0.08643925189971924, 0.0613473504781723, -0.02154514193534851, 0.04056394100189209, 0.0038376287557184696, 0.08545336127281189, -0.05774267390370369, -0.1244892105460167, 0.058963894844055176, 0.08439725637435913, 0.005066184792667627, -0.09073566645383835, 0.06200193241238594, -0.11359629034996033, 0.060121044516563416, -0.04332250356674194, 0.0431232675909996, 0.013179421424865723, 0.03666551411151886, -0.13143835961818695, -0.045826345682144165, -0.0733630508184433, -0.027626395225524902, -0.0925617590546608, -0.0948072224855423, -0.06826842576265335, 0.001971860183402896, -0.0791088193655014, 0.10602137446403503, -0.010167740285396576, -0.060793183743953705, -0.05781252682209015, 0.09217222034931183, 0.08333390951156616, -0.02393539622426033, 0.11180736124515533, 0.04278632253408432, -0.022394105792045593, -0.02644333988428116, -0.013426065444946289, 0.060146499425172806, 0.10151036083698273, 0.07273727655410767, 0.07802926003932953, 0.08524744212627411, -0.03196195513010025, -0.10445897281169891, -0.03722900152206421, 0.01095069944858551, 0.02869555354118347, -0.0774826630949974, 0.10490304976701736, -0.08525742590427399, 0.058533668518066406, -0.08553387969732285, -0.06924325227737427], [-0.060120537877082825, -0.10265074670314789, 0.043847277760505676, 0.00818459689617157, 0.005888581275939941, 0.07352668046951294, -0.11076889932155609, -0.05501158535480499, -0.02030777931213379, 0.09616903960704803, -0.05891282856464386, -0.08040055632591248, -0.030037015676498413, 0.12079624831676483, 0.08179409801959991, 0.09914757311344147, 0.11309200525283813, 0.1161782294511795, 0.07026664912700653, 0.028911709785461426, -0.12228555977344513, -0.09926317632198334, -0.10519301891326904, 0.01655919849872589, -0.07416614890098572, 0.07776521146297455, -0.11552472412586212, -0.11305908858776093, -0.1045200526714325, 0.020955830812454224, -0.06786355376243591, -0.08258731663227081, 0.0814121663570404, -0.08302561938762665, 0.11802834272384644, -0.11002379655838013, -0.052657172083854675, -0.05880512297153473, 0.057017743587493896, -0.07181578874588013, -0.07193930447101593, 0.030755311250686646, 0.07440246641635895, -0.10887785255908966, -0.09980414807796478, -0.07453429698944092, 0.06872561573982239, -0.07933808863162994, -0.08166411519050598, -0.058705464005470276, 0.014906778931617737, -0.0728733241558075, 0.10717339813709259, -0.03620457649230957, -0.0011292695999145508, -0.023351624608039856, 0.08956409990787506, 0.05559876561164856, 0.0778428167104721, 0.031276628375053406, 0.05289824306964874, -0.0008287876844406128, -0.06606385111808777, 0.06148551404476166], [-0.03350821137428284, 0.03916115313768387, 0.0321868360042572, 0.311506986618042, 0.12930728495121002, -0.05245962738990784, 0.13025885820388794, 0.05002857744693756, 0.0975317731499672, 0.6274272799491882, 0.05483889579772949, -0.0603875070810318, 0.24074260890483856, -0.05487615987658501, 0.08460678905248642, 0.16690203547477722, 0.0694553405046463, 0.06894513219594955, 0.3141101896762848, -0.053449083119630814, 0.06657595187425613, -0.29858312010765076, 0.07447917014360428, 0.18767452239990234, 0.15121352672576904, 0.036279961466789246, -0.05515395104885101, 0.46512913703918457, -0.017897501587867737, -0.465779185295105, -0.07466381788253784, 0.06007274612784386, -0.041812822222709656, 0.08046349138021469, 0.24498078227043152, -0.3315680921077728, 0.08974763751029968, -0.06229046359658241, 0.443733274936676, -0.014492496848106384, 0.09622445702552795, 0.33705446124076843, 0.02763456478714943, 0.046888239681720734, 0.009094242937862873, 0.15297824144363403, 0.11467335373163223, 0.11654335260391235, 0.029577244073152542, 0.773984968662262, -0.021100563928484917, 0.10722488164901733, 0.18217474222183228, 0.2125156968832016, 0.07836682349443436, -0.10036882013082504, -0.061286017298698425, 0.3724021315574646, 0.31718695163726807, 0.1597139984369278, -0.05311238765716553, -0.12441058456897736, 0.26577290892601013, 0.0984460860490799], [-0.05757513642311096, -0.020603397861123085, 0.11540291458368301, 0.24683932960033417, 0.043876081705093384, 0.09183230996131897, 0.017842767760157585, 0.03775198757648468, 0.0901222676038742, 0.46782055497169495, 0.010742396116256714, -0.10501272976398468, -0.03746012970805168, 0.02220139652490616, 0.19093728065490723, -0.1522219181060791, -0.051114097237586975, 0.04271923750638962, -0.029547249898314476, 0.16552956402301788, 0.031578656286001205, -0.12571144104003906, 0.0413866825401783, -0.042975008487701416, -0.08863838762044907, 0.011711165308952332, 0.12061481177806854, 0.13445308804512024, 0.019399389624595642, -0.26074573397636414, 0.0064720213413238525, -0.13024920225143433, 0.0009115338325500488, 0.11234556138515472, -0.0424681156873703, -0.4571664333343506, -0.04246588051319122, 0.046988289803266525, 0.22715400159358978, -0.07121299207210541, 0.03387436270713806, 0.06760592013597488, 0.17911626398563385, -0.05464750900864601, -0.16728167235851288, -0.035533592104911804, 0.13771039247512817, 0.20204170048236847, 0.19975370168685913, 0.46198397874832153, 0.03678975999355316, -0.018388137221336365, 0.18435348570346832, 0.1195220872759819, 0.07360333204269409, -0.18046678602695465, -0.02250559628009796, 0.18575340509414673, 0.022569134831428528, 0.343631386756897, -0.10057137906551361, 0.12457449734210968, -0.017661230638623238, -0.11938706040382385], [0.07938751578330994, 0.11166245490312576, 0.018675554543733597, 0.02014385350048542, -0.03654797375202179, -0.07792240381240845, 0.10990932583808899, 0.028668418526649475, 0.041691701859235764, 0.02569938451051712, -0.017203018069267273, 0.040959835052490234, -0.012132077477872372, -0.12755940854549408, 0.037087537348270416, -0.027474582195281982, 0.0035793930292129517, 0.08365301042795181, 0.09630224108695984, -0.12919668853282928, -0.015529166907072067, 0.03706899285316467, 0.06906764954328537, 0.0011591968359425664, 0.0459606796503067, -0.024064764380455017, -0.035061851143836975, -0.11673346161842346, -0.09321607649326324, -0.02605520188808441, -0.05606086552143097, -0.11495471745729446, 0.007378712296485901, -0.02368863858282566, -0.08766450732946396, 0.02207590639591217, -0.08771303296089172, -0.056978072971105576, -0.0015720701776444912, -0.05492671579122543, 0.0457797646522522, 0.02094680443406105, 0.03659968078136444, -0.003807356348261237, 0.10873877257108688, 0.08629046380519867, -0.054627664387226105, -0.04339699447154999, -0.10602784901857376, 0.03890605270862579, 0.094162717461586, 0.013948485255241394, -0.10560169070959091, -0.05413798987865448, 0.041039228439331055, 0.04974330961704254, 0.007959723472595215, 0.06438086926937103, -0.03199215605854988, -0.11046804487705231, 0.1051868349313736, 0.019453734159469604, -0.08202394098043442, -0.08130162954330444], [-0.10810238122940063, 0.0115947425365448, -0.07944916188716888, -0.042667075991630554, -0.03895758092403412, -0.051441073417663574, 0.008248716592788696, -0.05903390049934387, -0.00856529176235199, -0.1190609335899353, 0.1180756539106369, -0.10254575312137604, -0.0059609562158584595, 0.11997708678245544, 0.060361579060554504, -0.05790749192237854, -0.11028243601322174, 0.09810993075370789, 0.06648522615432739, 0.011405527591705322, -0.12448790669441223, 0.024889156222343445, -0.06780345737934113, 0.04185722768306732, -0.025412634015083313, 0.054161250591278076, -0.03825882077217102, -0.01372651755809784, -0.06402836740016937, 0.008595913648605347, 0.07635903358459473, -0.09904108941555023, -0.05899636447429657, -0.023545056581497192, -0.09911859035491943, -0.04579158127307892, -0.017376065254211426, -0.004353433847427368, -0.030330851674079895, -0.10625851154327393, -0.045271486043930054, 0.08051984012126923, -0.04493921995162964, -0.055971428751945496, -0.11581926047801971, -0.09566596150398254, -0.12411278486251831, 0.044843658804893494, 0.07562325894832611, -0.0828966349363327, -0.02476823329925537, -0.049573853611946106, -0.03295396268367767, 0.0514342337846756, -0.10145844519138336, -0.10121513903141022, 0.022052645683288574, -0.10386517643928528, -0.05702626705169678, -0.10480865836143494, 0.09333287179470062, -0.01670783758163452, -0.06724604964256287, 0.000916704535484314], [0.09816400706768036, -0.07364006340503693, -0.07831527292728424, -0.020729243755340576, -0.018753454089164734, -0.11336895823478699, -0.08396071195602417, -0.12193657457828522, -0.05215427279472351, 0.018921390175819397, 0.0379941463470459, 0.004162430763244629, 0.06391285359859467, 0.025826111435890198, -0.07922536134719849, -0.10978032648563385, 0.007734939455986023, -0.010447964072227478, 0.01062844693660736, 0.10773499310016632, 0.10644574463367462, -0.038417741656303406, 0.04897862672805786, -0.057024046778678894, -0.11596594750881195, 0.07403191924095154, -0.03716832399368286, -0.11378240585327148, -0.05193527042865753, -0.09091387689113617, 0.01759946346282959, -0.09567588567733765, 0.039172619581222534, -0.08430831134319305, 0.026346713304519653, 0.09519392251968384, -0.0881713479757309, -0.07968930900096893, -0.020257383584976196, -0.10248056054115295, -0.0931696742773056, 0.027640223503112793, -0.014316752552986145, -0.07014772295951843, 0.06530247628688812, -0.08760139346122742, -0.001199975609779358, 0.09682899713516235, -0.005472823977470398, 0.07254980504512787, 0.004458427429199219, 0.04458898305892944, -0.0432792603969574, -0.08572937548160553, -0.011381059885025024, 0.06607256829738617, 0.05181795358657837, 0.018274039030075073, 0.01908944547176361, -0.004077106714248657, 0.035936906933784485, 0.12209212779998779, 0.09789784252643585, 0.06041093170642853], [0.017077773809432983, -0.08855503052473068, 0.021908225491642952, -0.03289220854640007, -0.08169478923082352, 0.12347231805324554, 0.029776515439152718, 0.10395395755767822, -0.06608067452907562, -0.08467414975166321, 0.00655992329120636, -0.06890976428985596, -0.041545916348695755, -0.1847113072872162, 0.03165946900844574, -0.10726934671401978, -0.049970462918281555, 0.30735111236572266, 0.07882975786924362, -0.0322718471288681, -0.007451891899108887, 0.008232674561440945, 0.01601792313158512, -0.04485386982560158, -0.02842479944229126, 0.11477607488632202, 0.01900196075439453, 0.0015479817520827055, -0.0793757438659668, -0.03498847037553787, -0.09891839325428009, -0.09020022302865982, 0.020417675375938416, -0.22297827899456024, 0.08014950156211853, 0.06657421588897705, -0.0873858779668808, -0.036287572234869, 0.03128760680556297, -0.045841727405786514, -0.05408453941345215, 0.0020202957093715668, 0.09345470368862152, -0.04025598615407944, -0.09933982044458389, 0.03711343929171562, 0.0423739030957222, 0.08226904273033142, -0.10519958287477493, -0.14664097130298615, -0.09125473350286484, -0.02376502752304077, 0.10099124908447266, 0.06401530653238297, -0.044056255370378494, -0.08225128799676895, 0.1095564067363739, 0.11017883569002151, -0.013545281253755093, -0.05337337404489517, -0.11763603985309601, 0.11291414499282837, -0.008136612363159657, 0.09954889118671417], [-0.0562543123960495, 0.13116252422332764, 0.002889373106881976, 0.2932599186897278, 0.16433468461036682, 0.04017592966556549, 0.2177530974149704, 0.11271390318870544, -0.23601536452770233, 0.5747522711753845, 0.10922248661518097, -0.6695969104766846, 0.177446648478508, -0.9477085471153259, -0.1134805753827095, 0.3278482258319855, -0.02521483600139618, 0.4192473590373993, 0.3498777747154236, 0.05679773911833763, 0.1672976315021515, -0.7187288403511047, 0.1403244286775589, 0.1189446821808815, 0.2035137265920639, -0.04466025531291962, -0.0019081085920333862, 0.4850166141986847, -0.040542274713516235, -1.116747260093689, -0.07216024398803711, 0.11325310170650482, -0.1076895147562027, -0.764703631401062, 0.37505078315734863, -0.9343560934066772, 0.124959796667099, -0.5155864953994751, 0.4995315968990326, 0.07955839484930038, -0.06950166821479797, 0.5968145132064819, -1.031988263130188, -0.002888128627091646, 0.176047682762146, 0.07185305655002594, 0.2095346301794052, 0.3403031826019287, -0.2248481661081314, 0.39700207114219666, -0.06543612480163574, 0.08729028701782227, 0.3221432864665985, 0.027384506538510323, -0.029604949057102203, -0.727098822593689, -0.01931418478488922, 0.22189326584339142, 0.3579334020614624, -0.1630539447069168, -0.07890133559703827, 0.029427051544189453, 0.26131126284599304, 0.027561888098716736], [0.015356779098510742, -0.001813842449337244, 0.005471374839544296, -0.04099542275071144, -0.1612020879983902, -0.07940790057182312, -0.0038696997798979282, 0.10380935668945312, 0.041159749031066895, -0.10782376676797867, -0.10338272154331207, -0.02310018800199032, 0.024685773998498917, 0.003184838453307748, -0.13573190569877625, -0.00724434107542038, -0.012025773525238037, -0.02036610245704651, -0.15825684368610382, -0.03898034989833832, -0.08029653131961823, 0.05955516919493675, 0.037520404905080795, -0.062328241765499115, -0.09191884100437164, -0.050204455852508545, 0.018186897039413452, 0.06323873996734619, 0.03435590863227844, 0.0887439176440239, 0.06097789108753204, 0.0264107845723629, 0.040360257029533386, 0.04342116415500641, -0.15593752264976501, -0.1371498554944992, -0.09540742635726929, 0.01907625049352646, -0.10618094354867935, 0.02285977639257908, 0.024060845375061035, 0.021730994805693626, -0.07783141732215881, 0.013325704261660576, 0.06399890035390854, 0.03865884244441986, -0.07939638197422028, -0.05195831507444382, 0.07146743685007095, -0.060014769434928894, 0.03630759194493294, -0.12400476634502411, 0.006472569890320301, 0.06144547834992409, -0.10350331664085388, -0.031201334670186043, 0.019890353083610535, 0.009033515118062496, 0.054020728915929794, 0.0009646263788454235, 0.08579719066619873, 0.027129217982292175, -0.11147069931030273, 0.06452946364879608], [0.09979017078876495, 0.006202861666679382, -0.034694477915763855, 0.10526353120803833, -0.09007963538169861, -0.08119344711303711, -0.11957629024982452, 0.020151451230049133, 0.005355522036552429, -0.10880663990974426, -0.12240320444107056, 0.08164282143115997, -0.10473446547985077, -0.004864692687988281, -0.12312264740467072, -0.059945449233055115, 0.10626374185085297, -0.036446720361709595, 0.00046475231647491455, 0.025904983282089233, -0.11908777058124542, 0.012326106429100037, -0.10009206831455231, -0.057380691170692444, 0.08489556610584259, -0.013962700963020325, -0.06729520857334137, -0.03355339169502258, -0.09009000658988953, 0.09497855603694916, -0.037314772605895996, -0.05081382393836975, -0.10961267352104187, 0.11923834681510925, -0.006943956017494202, 0.0406329482793808, 0.057003721594810486, -0.03538069128990173, 0.02072843909263611, -0.027505159378051758, -0.10830579698085785, 0.10738791525363922, 0.06118351221084595, -0.05989652872085571, -0.06562258303165436, -0.11413036286830902, 0.07469742000102997, -0.10605980455875397, 0.04697756469249725, -0.09498009085655212, 0.10397697985172272, -0.11713279783725739, 0.0837600827217102, 0.031092822551727295, 0.05521440505981445, 0.10255005955696106, 0.08187372982501984, -0.016010358929634094, 0.10635106265544891, 0.05926954746246338, 0.014874398708343506, 0.09433382749557495, 0.10638204216957092, -0.029934898018836975], [-0.037692248821258545, -0.01687510311603546, 0.026186712086200714, 0.10311784595251083, 0.049644939601421356, 0.11370152235031128, -0.10377596318721771, 0.09172314405441284, 0.057617831975221634, -0.10206744074821472, -0.11006110906600952, -0.0938887968659401, -0.04845426231622696, 0.07804382592439651, 0.10347383469343185, -0.08864855766296387, -0.02715297043323517, 0.0588061697781086, -0.10532927513122559, -0.07244350761175156, -0.12162546068429947, 0.06913349032402039, 0.05565677583217621, 0.03818994760513306, -0.07607235014438629, -0.006459414958953857, 0.038908347487449646, -0.0865563228726387, 0.1015433818101883, -0.060476940125226974, 0.040093570947647095, -0.11439120769500732, -0.06713907420635223, -0.03923303633928299, 0.04536813870072365, -0.04789699241518974, -0.07434935867786407, 0.07041863352060318, -0.06826449930667877, -0.11539274454116821, -0.0503411591053009, 0.10455525666475296, -0.0526474304497242, -0.03919683024287224, -0.025846362113952637, 0.06362217664718628, 0.09565740078687668, -0.07335914671421051, -0.012361734174191952, 0.0696793645620346, -0.06724503636360168, 0.0703454315662384, -0.003811734961345792, -0.021621229127049446, 0.0033330421429127455, 0.055136971175670624, 0.019691824913024902, -0.03567999228835106, 0.08915828913450241, -0.08307190239429474, 0.07674668729305267, 0.028720498085021973, -0.04985569417476654, -0.08651547133922577], [0.08936807513237, 0.24889396131038666, 0.08485547453165054, 0.40961754322052, 0.07595377415418625, 0.05664245784282684, 0.1830964982509613, 0.12399379909038544, 0.014617194421589375, 0.6938831210136414, 0.09148991107940674, -0.37445271015167236, 0.17523500323295593, -0.07412183284759521, -0.032853372395038605, 0.17260463535785675, 0.0016269832849502563, 0.3357669413089752, 0.21324512362480164, 0.11471973359584808, 0.2146466225385666, -0.18666405975818634, 0.17189402878284454, 0.024368634447455406, 0.03648380562663078, 0.059988200664520264, 0.10544884204864502, 0.3679777681827545, 0.003458544611930847, -0.5744384527206421, -0.00250224769115448, 0.13798749446868896, -0.013193175196647644, -0.027998466044664383, 0.28033480048179626, -0.44131922721862793, -0.004361942410469055, 0.013752764090895653, 0.5312288999557495, 0.09822233766317368, -0.03111204504966736, 0.6041695475578308, 0.06947978585958481, -0.031604208052158356, 0.06454132497310638, 0.09767359495162964, 0.15149575471878052, 0.2675512433052063, 0.05326349288225174, 0.5339505672454834, -0.01830347441136837, 0.11733484268188477, 0.3197663426399231, 0.0014603553572669625, -0.05659899488091469, -0.16679607331752777, -0.038855791091918945, 0.37292027473449707, 0.423907071352005, 0.1296299546957016, -0.04366365075111389, -0.10910585522651672, 0.23530758917331696, -0.06274504959583282], [-0.02084338665008545, -0.05207794904708862, -0.040900006890296936, 0.029768064618110657, -0.07507607340812683, -0.11035138368606567, 0.01326724886894226, 0.045182690024375916, -0.041018128395080566, -0.03164875507354736, 0.0608944445848465, -0.08706648647785187, 0.0315743088722229, 0.07095733284950256, 0.04934760928153992, 0.03400745987892151, -0.03511752188205719, 0.1125480979681015, -0.03555843234062195, 0.0484725683927536, 0.07055342197418213, -0.08088691532611847, -0.007799074053764343, 0.011958584189414978, -0.04740150272846222, -0.08500272035598755, 0.010112091898918152, -0.07047624886035919, 0.047242775559425354, -0.005428776144981384, -0.08286231756210327, 0.055354341864585876, 0.12194953858852386, -0.06526756286621094, -0.0754651129245758, 0.04187856614589691, -0.044353798031806946, -0.0968618243932724, 0.02709639072418213, -0.07980573177337646, 0.013225868344306946, -0.07124011218547821, -0.05843427777290344, 0.09243234992027283, -0.10072684288024902, 0.08471205830574036, -0.06256324052810669, 0.009590893983840942, -0.02812632918357849, 0.08584742248058319, -0.011486425995826721, 0.09861445426940918, -0.0032121092081069946, -0.09004327654838562, -0.09123513102531433, -0.05074632167816162, -0.09144565463066101, -0.05509604513645172, -0.04850219190120697, 0.06820426881313324, -0.05602496862411499, -0.06546345353126526, 0.05314528942108154, 0.0999860018491745], [-0.02743496000766754, 0.14802856743335724, 0.17069217562675476, -0.20481663942337036, 0.04434516280889511, -0.05806225538253784, 0.15688148140907288, -0.04851284623146057, 0.13361875712871552, -0.676438570022583, -0.09626689553260803, 0.11465716361999512, 0.0725928470492363, 0.1552027314901352, -0.09786579757928848, 0.17335078120231628, 0.12164045870304108, -0.06690571457147598, 0.24714295566082, 0.17137008905410767, 0.0371386893093586, 0.25775641202926636, 0.01868455670773983, 0.19089144468307495, 0.09280765801668167, -0.06829635798931122, 0.060372039675712585, -0.28187844157218933, 0.048358067870140076, 0.3587155342102051, 0.03647366166114807, 0.08771411329507828, 0.01908569037914276, 0.10235805064439774, 0.15048547089099884, 0.460578590631485, 0.11262431740760803, 0.08380148559808731, -0.655358076095581, 0.07023785263299942, 0.036754414439201355, -0.5336918234825134, 0.02853568270802498, 0.0891062468290329, 0.14485107362270355, 0.10180569440126419, 0.10905352234840393, -0.04908391833305359, 0.047937776893377304, -0.2307964563369751, -0.028242159634828568, 0.04606381058692932, -0.29979801177978516, 0.13679444789886475, 0.18149901926517487, 0.035422056913375854, -0.029956236481666565, -0.22363360226154327, -0.14004050195217133, -0.04403363913297653, -0.10352382063865662, -0.10483236610889435, 0.19837483763694763, -0.026253417134284973], [0.09971058368682861, 0.21594855189323425, -0.06144886091351509, 0.25659844279289246, 0.013217208907008171, -0.0935351699590683, 0.180471271276474, 0.1125498116016388, 0.13961437344551086, 0.5972354412078857, 0.05009542405605316, -0.2337561696767807, 0.1322604864835739, 0.11748325824737549, -0.0037813910748809576, 0.21030156314373016, -0.11370718479156494, -0.007773835677653551, 0.16850417852401733, 0.026311742141842842, 0.10334841161966324, -0.28901389241218567, 0.1445348709821701, 0.20160210132598877, 0.25198253989219666, -0.11316023766994476, 0.10187914967536926, 0.30866503715515137, -0.027585387229919434, -0.5680328011512756, -0.014639124274253845, -0.030033361166715622, 0.09528064727783203, 0.12861131131649017, 0.19557823240756989, -0.4912545382976532, 0.0011966079473495483, 0.08093204349279404, 0.43761199712753296, 0.1291152685880661, 0.0893169492483139, 0.3955906331539154, -0.005504765547811985, 0.05413393676280975, 0.04172712564468384, 0.085526242852211, -0.018594998866319656, 0.07946059852838516, 0.046255216002464294, 0.7024403214454651, -0.0072037274949252605, 0.08337786793708801, 0.3195533752441406, 0.05110733211040497, 0.0729081854224205, -0.04952263459563255, 0.041280582547187805, 0.3133683204650879, 0.3911064565181732, 0.02365732379257679, 0.02809920907020569, 0.009776502847671509, 0.2970595359802246, -0.0698479413986206], [0.06626342236995697, 0.07413036376237869, -0.01894279569387436, 0.37531790137290955, 0.1548624038696289, -0.02646234631538391, 0.19128437340259552, 0.010954052209854126, -0.14372600615024567, 0.6811155676841736, 0.08991585671901703, -0.7314931154251099, 0.11541340500116348, -0.9330336451530457, -0.053013261407613754, 0.2165379822254181, 0.04816505312919617, 0.5188122391700745, 0.32019442319869995, 0.004451494663953781, 0.1993539035320282, -0.9505268335342407, -0.02843516133725643, 0.1652618646621704, 0.2073901742696762, 0.10695955157279968, 0.013795644044876099, 0.39697736501693726, -0.0601525604724884, -1.215064287185669, 0.11408436298370361, 0.201510950922966, -0.021664634346961975, -0.7048701047897339, 0.3093983232975006, -0.8976832628250122, 0.09577448666095734, -0.44519245624542236, 0.4495810270309448, 0.20774570107460022, -0.11536358296871185, 0.268614262342453, -0.9998542070388794, -0.05389519780874252, 0.0589582733809948, 0.23989254236221313, 0.12368780374526978, 0.22356121242046356, -0.14785194396972656, 0.35894447565078735, -0.12109516561031342, -0.0030432194471359253, 0.29428836703300476, -0.0017632859526202083, 0.12604276835918427, -0.7416537404060364, 0.0670655220746994, 0.3187955319881439, 0.35149866342544556, -0.3139660060405731, -0.06604564189910889, -0.0703699141740799, 0.369336873292923, 0.0255572646856308], [-0.060193032026290894, 0.1439535915851593, 0.15566521883010864, 0.08861364424228668, 0.21843840181827545, -0.014048919081687927, 0.010277404449880123, -0.11454232037067413, 0.19751688838005066, 0.4332279562950134, 0.08359964191913605, -0.0659906342625618, -0.030419157817959785, 0.20934846997261047, 0.20337790250778198, -0.04414322227239609, 0.0064104050397872925, -0.12469776719808578, 0.19465568661689758, 0.12637895345687866, 0.17240022122859955, 0.04273682460188866, 0.180101677775383, -0.008984362706542015, 0.03984440118074417, 0.03269639611244202, 0.12409454584121704, 0.10259854048490524, -0.08782313764095306, -0.3553845286369324, 0.12462198734283447, -0.01118833664804697, 0.025371462106704712, 0.13581734895706177, 0.03913813456892967, -0.29545366764068604, -0.05266502499580383, 0.030205510556697845, 0.3283092975616455, 0.016727309674024582, -0.04909132421016693, 0.2097378671169281, 0.027037950232625008, 0.07282043248414993, 0.042912159115076065, 0.05184049531817436, -0.005979323759675026, 0.08927709609270096, 0.20705126225948334, 0.8296340107917786, 0.0855410024523735, 0.008060470223426819, 0.1451900452375412, 0.14654695987701416, 0.10403916239738464, -0.08099091798067093, 0.06931781768798828, 0.07864055782556534, 0.13848379254341125, 0.23426921665668488, 0.12181141972541809, 0.08741821348667145, 0.2017594873905182, -0.0973643809556961], [-0.07843442261219025, 0.19086748361587524, -0.054206687957048416, 0.30313119292259216, 0.002830292796716094, 0.053484126925468445, 0.20056380331516266, -0.06649452447891235, -0.014652756974101067, 0.7745712995529175, 0.031823351979255676, -0.24776853621006012, 0.2259797751903534, 0.026343511417508125, 0.15460890531539917, 0.0962667316198349, 0.0015630871057510376, 0.389250785112381, 0.17856083810329437, 0.14307770133018494, 0.2344488799571991, -0.33970382809638977, 0.07110173255205154, 0.04314340651035309, 0.2564379572868347, -0.10037440061569214, -0.08367188274860382, 0.4958290755748749, 0.11814653873443604, -0.6315934062004089, 0.05923613905906677, 0.045298125594854355, 0.028444036841392517, 0.04476846382021904, 0.34537407755851746, -0.33124247193336487, -0.005114510655403137, 0.07304228097200394, 0.4597820043563843, 0.12218495458364487, -0.031111761927604675, 0.4182390570640564, -0.09283231198787689, 0.13635145127773285, -0.025399014353752136, 0.21973472833633423, 0.13644327223300934, 0.12397138774394989, 0.12107483297586441, 0.5679062008857727, -0.050106219947338104, -0.029282093048095703, 0.35418131947517395, 0.1513761281967163, 0.11803071200847626, -0.20497317612171173, 0.03269469738006592, 0.2634240984916687, 0.26307734847068787, -0.017493214458227158, -0.047268643975257874, 0.10067901015281677, 0.21298593282699585, -0.04876305162906647], [-0.09357155859470367, 0.061712298542261124, 0.0878499448299408, -0.22418275475502014, 0.09060167521238327, -0.007817283272743225, 0.10747575759887695, -0.09291978180408478, -0.06021307408809662, -0.6856749057769775, 0.09738543629646301, 0.3222167193889618, 0.1521327644586563, 0.0038584298454225063, 0.003444000380113721, 0.161314457654953, -0.12037308514118195, -0.05424061045050621, 0.056607022881507874, 0.17946843802928925, 0.15156289935112, 0.31637459993362427, -0.018183633685112, 0.03508154675364494, -0.01837938278913498, -0.09490641951560974, 0.0832730084657669, -0.3032670319080353, -0.05336873233318329, 0.4761800765991211, -0.07403939962387085, 0.1558685004711151, -0.08097516000270844, 0.10280539095401764, -0.12144840508699417, 0.5697008371353149, 0.11152595281600952, 0.007711013779044151, -0.4734545946121216, 0.1487918645143509, 0.001239493489265442, -0.6496506929397583, -0.06593787670135498, -0.003373014274984598, 0.05631718412041664, 0.20768453180789948, 0.10187951475381851, -0.05443120747804642, 0.07364851981401443, -0.4706002473831177, -0.07831737399101257, -0.04936157166957855, -0.2156396359205246, -0.11851516366004944, 0.09209602326154709, 0.10766153037548065, -0.004683449864387512, -0.30173957347869873, -0.10889457911252975, 0.012707355432212353, 0.02254532277584076, 0.0982149988412857, 0.1851634532213211, -0.12182378768920898], [-0.027617156505584717, 0.012457896023988724, 0.2498556673526764, -0.40836602449417114, 0.13298681378364563, 0.035981982946395874, 0.1340455263853073, -0.10479418933391571, 0.20513957738876343, -0.6545217633247375, -0.022390425205230713, 0.2706509828567505, 0.04822945222258568, 0.16163069009780884, -0.0492069385945797, 0.3413562774658203, 0.031174570322036743, -0.4764400124549866, 0.3108532428741455, 0.2093438059091568, 0.15953214466571808, 0.34381529688835144, 0.08912215381860733, 0.013348476961255074, 0.17845511436462402, 0.013653874397277832, -0.09587545692920685, -0.22677510976791382, 0.09596867859363556, 0.5653689503669739, -0.012524068355560303, 0.21801863610744476, -0.10307043790817261, 0.24120771884918213, 0.14566388726234436, 0.32222339510917664, 0.021740257740020752, 0.11354152113199234, -0.2697761654853821, 0.045228492468595505, 0.0842597484588623, -0.5840045809745789, 0.15427066385746002, 0.23901517689228058, 0.1872296780347824, 0.1625504493713379, 0.14973506331443787, -0.18076950311660767, 0.010103829205036163, -0.10717809200286865, 0.0027903327718377113, 0.08318434655666351, -0.11786329001188278, 0.23247194290161133, 0.2649906873703003, 0.20032867789268494, 0.03355513513088226, -0.3190430700778961, -0.35322725772857666, 0.07836747914552689, -0.01933896541595459, 0.025597453117370605, 0.10389166325330734, 0.088260218501091], [0.12263579666614532, 0.18525731563568115, 0.1463385969400406, -0.2876327633857727, 0.21546871960163116, -0.12455911934375763, 0.22970344126224518, -0.08262991905212402, 0.1648494303226471, -0.7522767782211304, 0.11967906355857849, 0.19143225252628326, -0.040288958698511124, 0.14594873785972595, 0.031695250421762466, 0.20853786170482635, -0.09996174275875092, -0.3962743878364563, 0.13481537997722626, 0.09746526926755905, 0.06467420607805252, 0.3823448419570923, 0.17635442316532135, 0.048346392810344696, 0.0334123857319355, -0.12381379306316376, -0.0766887217760086, -0.38158151507377625, 0.10532023012638092, 0.5932456254959106, -0.026007160544395447, 0.20253215730190277, -0.09667789936065674, 0.2107396423816681, 0.09071292728185654, 0.40912365913391113, 0.027448952198028564, 0.15734615921974182, -0.8011302947998047, 0.08545724302530289, 0.008097022771835327, -0.6909714341163635, 0.20531001687049866, 0.21432101726531982, 0.1738663613796234, 0.2055380940437317, 0.24504759907722473, 0.011736679822206497, 0.18636855483055115, -0.30496302247047424, 0.013556253165006638, -0.0484406054019928, -0.18315564095973969, 0.06216172128915787, 0.04734165966510773, 0.27030226588249207, -0.08151131868362427, -0.18359744548797607, -0.36063575744628906, 0.07644988596439362, 0.04118061065673828, 0.06492169201374054, 0.25573596358299255, -0.10185036063194275], [-0.08666940033435822, 0.2229153960943222, 0.14475765824317932, -0.4259580671787262, 0.2025255560874939, -0.05133874714374542, 0.07899586111307144, 0.06160959601402283, 0.1933247596025467, -0.6342791318893433, -0.02358946204185486, 0.4005092978477478, 0.02397332713007927, 0.21325522661209106, 0.09649515897035599, 0.29979628324508667, 0.030329734086990356, -0.4342573881149292, 0.3335351049900055, 0.08363800495862961, 0.23589348793029785, 0.38608336448669434, -0.005922261159867048, 0.18854008615016937, 0.0580686554312706, 0.10717098414897919, 0.03667418658733368, -0.2718310058116913, 0.05912777781486511, 0.5156707763671875, 0.041799962520599365, 0.15375171601772308, 0.0156848281621933, 0.12951187789440155, 0.1457776427268982, 0.36428001523017883, -0.03999704122543335, 0.1911136507987976, -0.4828096032142639, 0.10879705101251602, -0.041822344064712524, -0.5383800268173218, 0.1292940080165863, 0.15876558423042297, 0.21823662519454956, 0.06606636196374893, 0.08979365229606628, -0.37003085017204285, 0.059776030480861664, -0.23399247229099274, 0.012111200019717216, -0.011904358863830566, -0.19057229161262512, 0.17828311026096344, 0.22677242755889893, 0.2349478155374527, 0.10836656391620636, -0.3181246221065521, -0.3713700473308563, -0.07334723323583603, -0.0534726083278656, 0.11103254556655884, 0.2790389955043793, 0.076756551861763], [0.1085754781961441, -0.03244105726480484, 0.015188961289823055, 0.13745276629924774, 0.18572063744068146, -0.01947958767414093, 0.005072598345577717, -0.04690445959568024, 0.018012121319770813, 0.3305801749229431, -0.04933035373687744, -0.09249059855937958, 0.17547380924224854, 0.15219856798648834, 0.06137168034911156, 0.12628735601902008, -0.0895242989063263, -0.1997123807668686, 0.20520254969596863, 0.13893547654151917, 0.16180242598056793, -0.23735392093658447, -0.06343892216682434, 0.1603652387857437, 0.16022273898124695, 0.05294385552406311, -0.03137552738189697, 0.13443267345428467, 0.002262994647026062, -0.5698673129081726, -0.03998585045337677, -0.01849331520497799, -0.03931964933872223, 0.10150447487831116, 0.19219082593917847, -0.3454538583755493, 0.10569776594638824, -0.001095025334507227, 0.28905922174453735, -0.05988050252199173, 0.10193154215812683, 0.30240991711616516, 0.044482409954071045, 0.1031353548169136, 0.05840109661221504, 0.07038463652133942, -0.0036029841285198927, 0.10279513895511627, 0.17160837352275848, 0.7387800216674805, -0.01857581175863743, -0.06911835074424744, 0.09683813154697418, 0.21631355583667755, -0.07894395291805267, -0.10433781147003174, -0.04799021780490875, 0.14495263993740082, 0.2710810601711273, 0.12130168825387955, 0.030588120222091675, -0.017131373286247253, 0.15805688500404358, -0.0286378413438797], [0.10443976521492004, 0.10656952112913132, 0.11307825148105621, -0.39596959948539734, 0.1467280387878418, -0.11470493674278259, 0.17291633784770966, 0.11049945652484894, -0.013587575405836105, -0.828353762626648, 0.035466328263282776, 0.1798914670944214, 0.22472532093524933, 0.15164491534233093, 0.046917445957660675, 0.1966831386089325, -0.10683757066726685, -0.26654699444770813, 0.18530264496803284, 0.14287306368350983, 0.27818214893341064, 0.15613195300102234, 0.0936407595872879, 0.08128563314676285, 0.15619349479675293, 0.08178357779979706, 0.001765415072441101, -0.41211774945259094, -0.11862654983997345, 0.5808174014091492, -0.01945929229259491, 0.12582670152187347, -0.0537695437669754, 0.015217174775898457, 0.14287351071834564, 0.32483360171318054, 0.026036769151687622, 0.17580686509609222, -0.6032999753952026, 0.08838358521461487, -0.12148304283618927, -0.5361047983169556, 0.0051085809245705605, 0.19693070650100708, 0.11542841047048569, 0.0877891480922699, 0.12973618507385254, -0.09727459400892258, 0.11677872389554977, -0.36864471435546875, 0.1106555163860321, -0.08026210963726044, -0.20443391799926758, 0.08933684974908829, 0.23505985736846924, 0.30329155921936035, -0.04844959080219269, -0.13385674357414246, -0.361955463886261, 0.012963995337486267, -0.07863117754459381, 0.013515010476112366, 0.16910405457019806, 0.04706016182899475], [-0.010313168168067932, 0.09643726795911789, 0.02905450202524662, -0.19329729676246643, 0.134121835231781, -0.008597046136856079, 0.1140274927020073, -0.11703035235404968, -0.008762289769947529, -0.2528174817562103, -0.12032271921634674, 0.04932597652077675, 0.013197884894907475, 0.04442485049366951, -0.2521107792854309, 0.054211437702178955, 0.09148822724819183, -0.2762850224971771, 0.047446124255657196, 0.05171835795044899, -0.06327905505895615, -0.01943669095635414, 0.03691801801323891, -0.1323370784521103, -0.02761096879839897, 0.011953935027122498, -0.019888684153556824, 0.00019709556363523006, -0.04683178663253784, -0.03393438830971718, -0.01507018506526947, -0.015824513509869576, 0.00950506329536438, 0.07215048372745514, 0.03778088092803955, -0.09995021671056747, -0.06263910233974457, 0.03997507691383362, -0.1557595580816269, -0.08648964762687683, 0.09007811546325684, 0.03138250112533569, -0.2908153533935547, -0.1503806710243225, -0.004959613084793091, 0.044819507747888565, -0.09239383786916733, 0.05176788568496704, -0.11876801401376724, 0.04341539368033409, -0.13117043673992157, 0.03734949231147766, -0.24254468083381653, 0.1556461900472641, -0.20987367630004883, 0.1498006135225296, 0.06128230690956116, 0.022365877404808998, -0.06046648696064949, 0.07583995163440704, -0.00761432945728302, 0.07227428257465363, 0.03948401287198067, 0.019443944096565247], [0.11233580112457275, 0.2828267812728882, 0.032830964773893356, 0.43754708766937256, 0.04027193784713745, -0.12064456939697266, 0.2989116907119751, -0.05689631402492523, -0.17813219130039215, 0.6709016561508179, -0.07350534200668335, -0.6994941830635071, 0.20739950239658356, -0.7710285186767578, -0.11330847442150116, 0.30413562059402466, 0.10650081932544708, 0.48466911911964417, 0.24537135660648346, -0.01322395633906126, 0.2945944666862488, -0.9117234945297241, 0.05263075232505798, 0.22948113083839417, 0.16656185686588287, 0.018275752663612366, 0.0338018536567688, 0.4772332012653351, -0.02126172184944153, -1.2745728492736816, 0.11233191192150116, 0.1575930416584015, 0.09915420413017273, -0.5984703302383423, 0.2434258908033371, -1.0113863945007324, -0.0356316864490509, -0.4583752453327179, 0.5603391528129578, 0.047185346484184265, -0.11803722381591797, 0.581697940826416, -0.9901005625724792, 0.0946689173579216, -0.015397517941892147, 0.14573070406913757, 0.10256987810134888, 0.320589154958725, -0.340579092502594, 0.2684110403060913, -0.17113666236400604, 0.06611064076423645, 0.33441898226737976, -0.08763323724269867, 0.13077373802661896, -0.7317864894866943, 0.09974135458469391, 0.4172963500022888, 0.38311949372291565, -0.31081122159957886, 0.07026518881320953, 0.07269901037216187, 0.2882360517978668, -0.0807267278432846], [0.10082216560840607, 0.08713642507791519, -0.06692750006914139, 0.13496308028697968, 0.0897236168384552, 0.00858442485332489, 0.07260408252477646, -0.006778523325920105, -0.11149542778730392, 0.05020297318696976, -0.043588846921920776, -0.09895435720682144, 0.09857528656721115, -0.02413824014365673, -0.023479577153921127, -0.09923882782459259, -0.10300220549106598, 0.2532053589820862, -0.1417599767446518, -0.02806229144334793, -0.01548139750957489, -0.13425245881080627, -0.1305866539478302, -0.0660577192902565, -0.11668408662080765, -0.010998815298080444, -0.1210104376077652, -0.001073537627235055, -0.0506177693605423, 0.0714232325553894, 0.04982282221317291, -0.05811798945069313, 0.014783143997192383, -0.10327475517988205, -0.07842057943344116, -0.044849149882793427, -0.09764260053634644, 0.024940157309174538, -0.15662944316864014, -0.05366601422429085, -0.05257005989551544, 0.042206309735774994, -0.090351901948452, 0.10477954149246216, -0.021688587963581085, -0.014611021615564823, 0.0892844870686531, 0.08553154766559601, 0.03700234740972519, -0.0582556389272213, 0.0711938738822937, 0.010848119854927063, -0.07343214750289917, 0.03957352787256241, -0.020865360274910927, -0.11599241197109222, 0.10472571849822998, 0.040961530059576035, -0.07669712603092194, -0.08322028815746307, 0.0771273821592331, 0.02651757001876831, -0.02242114767432213, -0.02159307897090912], [0.018076598644256592, -0.09881830215454102, 0.11757001280784607, -0.050133079290390015, -0.06875237822532654, 0.0014576911926269531, 0.0962471067905426, -0.05985438823699951, -0.08880974352359772, 0.0649891048669815, -0.07348823547363281, -0.11654433608055115, 0.04202154278755188, 0.08455361425876617, -0.11299219727516174, 0.062269747257232666, 0.014392346143722534, 0.019035175442695618, -0.03872385621070862, 0.01379925012588501, 0.07265160977840424, -0.03363810479640961, -0.08779190480709076, -0.0850595086812973, -0.09132379293441772, -0.020086809992790222, 0.027586758136749268, 0.11004742980003357, 0.1138264387845993, 0.02595457434654236, -0.0927690863609314, -0.061332494020462036, -0.026510000228881836, 0.019109487533569336, -0.07291759550571442, -0.11521807312965393, -0.05757229030132294, -0.07200370728969574, -0.015604808926582336, -0.07224977016448975, -0.10865598917007446, 0.07533502578735352, -0.022247597575187683, -0.010677903890609741, 0.10042057931423187, 0.00283600389957428, 0.056813791394233704, 0.09961995482444763, 0.004321441054344177, -0.04447835683822632, -0.12449280917644501, 0.006976574659347534, -0.005220755934715271, 0.09301254153251648, 0.04095347225666046, 0.09391692280769348, 0.11014309525489807, -0.09532664716243744, 0.07276436686515808, 0.08260981738567352, 0.03253871202468872, -0.06748710572719574, -0.0410270094871521, 0.046528205275535583], [0.06982956826686859, -0.039533793926239014, -0.08358202874660492, -0.08530758321285248, -0.08953587710857391, -0.0004920512437820435, -0.10033169388771057, 0.046692848205566406, 0.03224825859069824, 0.10024476051330566, -0.11145423352718353, 0.0036914944648742676, -0.05854630470275879, -0.09159454703330994, 0.04631543159484863, -0.05826053023338318, 0.0626727044582367, -0.06471243500709534, -0.12471632659435272, 0.10868285596370697, -0.10140068829059601, -0.09967280924320221, -0.04915298521518707, 0.09175747632980347, -0.11171384155750275, 0.0633782148361206, 0.027857139706611633, -0.10645097494125366, 0.006376221776008606, 0.10260394215583801, -0.003062337636947632, -0.11527489125728607, 0.051472485065460205, 0.012093260884284973, -0.009258508682250977, -0.020125508308410645, -0.05183131992816925, -0.019204050302505493, 0.07385610044002533, -0.06742218136787415, -0.10406003892421722, -9.016692638397217e-05, 0.0983748733997345, -0.08162461221218109, 0.043890580534935, -0.062017664313316345, -0.10055907070636749, -0.08695301413536072, 0.009754613041877747, 0.011108443140983582, 0.02584017813205719, -0.08520156145095825, -0.01354798674583435, -0.10656243562698364, 0.01263052225112915, 0.044831544160842896, -0.03874775767326355, -0.11610394716262817, 0.05371750891208649, 0.05954247713088989, -0.049590110778808594, -0.06424887478351593, -0.10383172333240509, -0.06936019659042358], [0.09031273424625397, 0.0911898985505104, 0.003389552468433976, 0.36151552200317383, 0.08572480082511902, -0.06104618310928345, 0.17058958113193512, 0.04684670269489288, 0.20051580667495728, 0.5390177369117737, 0.09088054299354553, -0.1007436215877533, 0.021624542772769928, -0.06301730871200562, -0.019794346764683723, 0.15733052790164948, -0.021575719118118286, 0.005574921146035194, 0.16779163479804993, 0.15064460039138794, 0.2594645917415619, -0.25283724069595337, 0.06324232369661331, 0.2041788250207901, 0.23120711743831635, 0.12057627737522125, 0.025098755955696106, 0.3543062210083008, 0.018249735236167908, -0.5966265797615051, -0.042762741446495056, 0.21509048342704773, -0.044742003083229065, -0.04619724303483963, 0.12333957105875015, -0.3763238191604614, 0.009248539805412292, 0.10883623361587524, 0.5609899759292603, 0.18401092290878296, 0.07826954126358032, 0.6047194004058838, -0.06399890035390854, 0.04636653512716293, 0.07047377526760101, 0.1553373634815216, -0.01601545698940754, 0.011696012690663338, 0.10987192392349243, 0.6489498615264893, -0.025967629626393318, -0.010389447212219238, 0.18283599615097046, 0.14042790234088898, 0.021786771714687347, -0.11143596470355988, 0.10006153583526611, 0.29934313893318176, 0.29085370898246765, 0.23311251401901245, 0.026849225163459778, 0.10692253708839417, 0.1139473021030426, -0.07467426359653473], [0.025521263480186462, 0.12322186678647995, -0.00821559876203537, 0.44302481412887573, 0.1965447962284088, -0.0601554811000824, 0.22496569156646729, -0.10993851721286774, 0.09890804439783096, 0.6748319864273071, 0.11667749285697937, -0.3001624345779419, 0.19392900168895721, -0.16714966297149658, 0.1404188573360443, 0.22410081326961517, -0.0620570033788681, 0.39816486835479736, 0.11095710098743439, 0.04028498753905296, 0.10683830082416534, -0.337909460067749, 0.05427001044154167, 0.18320626020431519, 0.22625985741615295, -0.06743267178535461, 0.11155739426612854, 0.5331529974937439, 0.11105915904045105, -0.6279999613761902, 0.11466547846794128, 0.03229054436087608, 0.08028066158294678, -0.08038276433944702, 0.22170385718345642, -0.4960484206676483, 0.03218165040016174, -0.03132970631122589, 0.6221912503242493, 0.0629928857088089, 0.05450837314128876, 0.5229126811027527, -0.16420762240886688, 0.08370808511972427, -0.005844358820468187, 0.16633343696594238, 0.15737155079841614, 0.3458535969257355, 0.08658464252948761, 0.5398423075675964, 0.12124136090278625, 0.08268792927265167, 0.32692646980285645, 0.021918274462223053, -0.020358802750706673, -0.2355310320854187, -0.09907479584217072, 0.28489363193511963, 0.4423999488353729, 0.06804308295249939, 0.10796687006950378, -0.0245894193649292, 0.1373474895954132, -0.07228946685791016], [0.11771076917648315, 0.21129052340984344, -0.08295762538909912, 0.27692899107933044, 0.2335406094789505, -0.0961790531873703, 0.15522171556949615, 0.049853578209877014, 0.06948065012693405, 0.7274841666221619, 0.0900057703256607, -0.1416427493095398, 0.15540798008441925, 0.08830823749303818, -0.031027497723698616, 0.06410491466522217, -0.06915578246116638, 0.19909150898456573, 0.29207757115364075, 0.08423277735710144, 0.15211200714111328, -0.2368365228176117, 0.04484264552593231, 0.11516523361206055, 0.27835652232170105, -0.08113664388656616, -0.08428418636322021, 0.412479430437088, 0.11883439123630524, -0.6141623854637146, 0.046188220381736755, 0.16813614964485168, -0.0077387988567352295, -0.06882582604885101, 0.23711031675338745, -0.44007766246795654, 0.1162240207195282, 0.1182284727692604, 0.4241013824939728, 0.0217952411621809, 0.017339885234832764, 0.5688624382019043, -0.020872218534350395, 0.08081531524658203, -0.0315227247774601, 0.16063192486763, -0.011139528825879097, 0.13138091564178467, 0.10118002444505692, 0.6601263284683228, 0.09440810978412628, -0.0821160227060318, 0.34030959010124207, 0.10747349262237549, -0.038301028311252594, -0.2262340486049652, 0.1065652072429657, 0.3298261761665344, 0.25300371646881104, 0.05545584484934807, -0.12222945690155029, 0.09931403398513794, 0.2910923361778259, 0.12116838991641998], [-0.10248290002346039, 0.06558991968631744, -0.07614727318286896, -0.01139780879020691, 0.093661367893219, 0.03729446232318878, 0.07767020165920258, 0.017940610647201538, 0.09185804426670074, 0.03397934138774872, 0.06479428708553314, 0.03948943316936493, -0.037993401288986206, 0.03494371473789215, 0.10953232645988464, 0.09295311570167542, -0.10862091183662415, 0.07066279649734497, -0.06066814064979553, -0.06871402263641357, -0.017533913254737854, -0.06261582672595978, -0.04588937759399414, -0.07532690465450287, 0.012062475085258484, -0.11844368278980255, -0.11236163973808289, 0.007140293717384338, -0.029503345489501953, -0.00770018994808197, 0.10464033484458923, -0.11141137778759003, -0.04598608613014221, -0.0010485649108886719, -0.08081956207752228, -0.016918227076530457, 0.024502083659172058, -0.11227694153785706, 0.019903168082237244, -0.04224501550197601, -0.10493114590644836, -0.06876648962497711, -0.0797642171382904, 0.05404046177864075, -0.022485598921775818, -0.07823602855205536, -0.07586786150932312, -0.008646979928016663, -0.04395696520805359, -0.01862676441669464, 0.024024754762649536, -0.12226998805999756, 0.039921894669532776, -0.03479306399822235, 0.025787726044654846, 0.032011568546295166, -0.0929088294506073, 0.03702852129936218, 0.08093735575675964, -0.11442656815052032, -0.052737459540367126, 0.04805333912372589, 0.057583555579185486, 0.03750179708003998], [0.06023126840591431, 0.05527246743440628, 0.06176533177495003, 0.13178670406341553, 0.04398626089096069, 0.04167132079601288, 0.11690016835927963, 0.08918556571006775, -0.13408847153186798, 0.20844867825508118, -0.10379639267921448, -0.6274149417877197, 0.12669259309768677, -0.6465768218040466, 0.12103275209665298, -0.007723530754446983, -0.04174549877643585, 0.4191124439239502, 0.10303718596696854, 0.02265702374279499, -6.102675979491323e-05, -0.7106127142906189, -0.11189968883991241, 0.1112881749868393, -0.15622736513614655, -0.09996408224105835, 0.09376385807991028, 0.08772480487823486, 0.06475880742073059, -0.30866697430610657, 0.04840180277824402, 0.14143988490104675, -0.041793227195739746, -0.4719682037830353, 0.015806300565600395, -0.3195568919181824, 0.07129445672035217, -0.2529771625995636, -0.03776830434799194, 0.1537858098745346, -0.00903928279876709, 0.2273378223180771, -0.5791130065917969, -0.08897040039300919, 0.04550571367144585, 0.1089911088347435, 0.12418042123317719, 0.4083040952682495, -0.09605441242456436, 0.1656094193458557, -0.11471838504076004, -0.07716204226016998, 0.24835829436779022, -0.24924461543560028, -0.025126827880740166, -0.4996749460697174, 0.10912223160266876, 0.04672636464238167, 0.03345794230699539, -0.352956622838974, -0.1043081134557724, -0.03606425225734711, 0.18424738943576813, 0.018116459250450134], [-0.10115949809551239, 0.19919641315937042, 0.06469036638736725, 0.3077036142349243, 0.13948041200637817, 0.09396630525588989, 0.2894512116909027, 0.020578548312187195, -0.0030550016090273857, 0.6031928658485413, -0.08283519744873047, -0.2933855354785919, 0.08644703775644302, -0.16421504318714142, 0.18075570464134216, 0.18779005110263824, -0.029194772243499756, 0.38553303480148315, 0.23317010700702667, 0.09008656442165375, 0.26281973719596863, -0.3284662067890167, 0.09230636060237885, -0.01036442443728447, 0.1410917341709137, 0.05530628561973572, 0.06627766788005829, 0.4528057873249054, -0.07300505042076111, -0.6638612747192383, 0.017213627696037292, 0.19088800251483917, -0.024439409375190735, 0.028619715943932533, 0.25262606143951416, -0.31787243485450745, 0.059885889291763306, -0.10582198947668076, 0.48733189702033997, 0.11411506682634354, -0.028113916516304016, 0.5574876666069031, -0.07344482094049454, 0.0561639703810215, 0.1610526591539383, 0.009086709469556808, -0.00867417547851801, 0.3862454891204834, -0.11032628268003464, 0.34466010332107544, 0.11695192754268646, 0.06854560971260071, 0.19896207749843597, 0.05729924142360687, -0.052525948733091354, -0.269927978515625, -0.08741915225982666, 0.3066330552101135, 0.3234352469444275, 0.11822618544101715, -0.10497263073921204, -0.02024105191230774, 0.2857847511768341, -0.05461910367012024]], "b": [0.024929389357566833, 0.01135966181755066, 0.08547423779964447, 0.0363168939948082, 0.005595943424850702, 0.05340242013335228, 0.07805337011814117, 0.02319471538066864, -0.04549633339047432, -0.05335230007767677, 0.09764701873064041, 0.065721295773983, 0.04244348779320717, 0.17735742032527924, 0.17339494824409485, -0.11133818328380585, 0.03952476382255554, 0.06692223995923996, 0.014550580643117428, 0.06007660552859306, -0.026790281757712364, -0.10610802471637726, 0.019113721325993538, 0.008238237351179123, 0.07638060301542282, 0.06634854525327682, 0.03386823087930679, 0.05400622636079788, -0.009028619155287743, -0.06724295020103455, 0.11334606260061264, 0.14865326881408691, -0.1270027458667755, 0.10835270583629608, -0.04279215633869171, -0.08060449361801147, 0.031979113817214966, 0.011442276649177074, -0.0076659321784973145, -0.08613765239715576, 0.07860897481441498, -0.010418921709060669, 0.1960725337266922, -0.027946712449193, -0.01581369712948799, 0.012676361948251724, -0.002193168271332979, 0.06117653101682663, 0.17379815876483917, 0.17148219048976898, 0.14336417615413666, 0.11424808949232101, 0.15013369917869568, -0.13401460647583008, -0.10364331305027008, -0.1248052790760994, -0.014395534992218018, 0.011849597096443176, -0.018287410959601402, 0.08949615806341171, 0.12734459340572357, -0.0660560131072998, -0.03709077090024948, 0.05182602256536484]}, {"name": "pi.net.mlp.0", "w": [[0.060181647539138794, -0.035263389348983765, 0.10356313735246658, -0.09755628556013107, -0.08079050481319427, 0.057244136929512024, 0.0661231279373169, -0.050484463572502136, -0.0409889817237854, 0.12005802989006042, -0.4188784658908844, -0.1706463247537613, -0.08392751216888428, 0.10238395631313324, -0.06251724064350128, -0.018802762031555176, -0.0806240364909172, -0.02283531427383423, -0.12988688051700592, 0.03357185795903206, -0.06042342260479927, 0.030415821820497513, -0.19610443711280823, -0.05972685292363167, 0.1043052226305008, 0.1002829298377037, 0.10063350200653076, 0.07346345484256744, 0.11573183536529541, 0.07925520837306976, -0.049678292125463486, -0.24123309552669525, -0.10950643569231033, 0.08218713104724884, 0.04740728437900543, -0.10466089099645615, -0.09095190465450287, 0.01664409227669239, 0.08585427701473236, 0.09518326818943024, -0.10859037935733795, 0.04813721776008606, -0.045893728733062744, 0.031746335327625275, -0.08315648138523102, 0.16328270733356476, -0.0670812800526619, -0.39015939831733704, 0.2711602449417114, 0.04023395851254463, 0.19446808099746704, 0.15121079981327057, -0.014027982950210571, -0.3449372947216034, -0.1030169352889061, -0.08955058455467224, -0.002008765935897827, -0.11004817485809326, 0.09842031449079514, -0.0432070717215538, -0.04433295875787735, -0.014678284525871277, -0.37234625220298767, -0.10203150659799576], [0.05233876407146454, -0.06845158338546753, 0.12035120278596878, 0.03745013102889061, -0.07912158221006393, -0.05148515850305557, -0.06421767920255661, -0.06135919690132141, 0.06347943842411041, -0.07163207978010178, 0.3221364915370941, 0.3203084170818329, 0.12737824022769928, 0.011725101619958878, -0.049599625170230865, -0.03317910432815552, 0.06498486548662186, 0.04618315398693085, -0.039712026715278625, 0.07794176787137985, 0.06559859216213226, 0.1234380230307579, -0.04059046134352684, 0.07333635538816452, 0.03961659222841263, 0.11202455312013626, 0.0077697210945189, -0.05977416783571243, -0.04731964319944382, -0.10357008874416351, -0.10483185201883316, 0.0824047401547432, 0.06623686105012894, 0.07804824411869049, 0.04055272042751312, 0.13490048050880432, 0.07162467390298843, 0.057715222239494324, -0.08129572868347168, 0.05809508636593819, -0.04483451321721077, -0.08732499182224274, 0.032441362738609314, -0.03772784024477005, 0.15853533148765564, -0.15611208975315094, -0.025405533611774445, 0.2949580252170563, -0.14030322432518005, -0.001959515968337655, -0.17786183953285217, -0.0644582062959671, 0.047551803290843964, 0.27789342403411865, -0.006723047699779272, 0.05102833732962608, 0.10349339246749878, -0.037113964557647705, 0.07626284658908844, 0.027931002900004387, -0.0493483766913414, -0.04711347818374634, 0.41064131259918213, 0.04140394926071167]], "b": [-0.0466187447309494, -0.020997436717152596]}]}