{"format": "ncof-gnb2-mlp-v1", "activation": "relu", "actions": ["DEEP_SLEEP", "ACTIVE"], "obs": {"features": ["wlan_dl_norm", "prev_wlan_dl_norm", "gnb2_active"], "norm_mbps": 1000.0}, "layers": [{"name": "encoder.encoder.net.mlp.0", "w": [[-0.4713268280029297, -0.24598172307014465, 0.12857504189014435], [0.4265674948692322, 0.23081165552139282, -0.24592071771621704], [0.6588127017021179, 0.5279884338378906, 0.3084090054035187], [0.7837803959846497, -0.2873019278049469, -0.2805422842502594], [0.6541397571563721, 0.595302402973175, -0.07789506763219833], [0.2318921685218811, -0.038962315768003464, 0.5627670884132385], [0.10529432445764542, 0.1758737564086914, 0.035784441977739334], [-0.5157321095466614, -0.13751035928726196, -0.44854530692100525], [0.24559386074543, -0.029003553092479706, -0.5670439600944519], [0.3683467507362366, -0.5230923295021057, 0.24573151767253876], [-0.5718492269515991, -0.1586488038301468, 0.0637088194489479], [-0.7829164266586304, 0.4350450336933136, -0.18303562700748444], [-0.4675373136997223, 0.4604850709438324, -0.4824020266532898], [0.7088237404823303, 0.13360998034477234, -0.2637716829776764], [0.7129217386245728, -0.4211963415145874, -0.2049897164106369], [0.583660364151001, 0.10645284503698349, -0.5398212671279907], [-0.08554350584745407, 0.05751514062285423, 0.2517513334751129], [-0.3846317529678345, 0.5940679311752319, -0.7794090509414673], [-0.3815392255783081, -0.24266068637371063, 0.03565343841910362], [0.3729369640350342, 0.5960609912872314, -0.21826647222042084], [0.5937008261680603, 0.6503617167472839, 0.19052381813526154], [0.310933917760849, 0.3629657030105591, 0.3759733736515045], [-0.2720435857772827, -0.1859600692987442, -0.462618887424469], [-0.6567741632461548, -0.5017227530479431, 0.2717224061489105], [-0.5375232100486755, 0.3378297686576843, 0.1771913319826126], [0.5744065046310425, 0.39684370160102844, -0.04951872304081917], [0.8029940724372864, -0.014855775982141495, -0.022995401173830032], [-0.3408483564853668, 0.23849736154079437, -0.26051265001296997], [0.7621941566467285, -0.5662775635719299, -0.467482328414917], [-0.5269786715507507, -0.14238329231739044, 0.05193920433521271], [0.3229661285877228, 0.33991891145706177, 0.3733956217765808], [0.4002879559993744, -0.21499741077423096, -0.41279107332229614], [-0.06746414303779602, -0.41497090458869934, 0.010708148591220379], [-0.21261803805828094, 0.033663611859083176, 0.14224863052368164], [0.5493493676185608, 0.3096364736557007, 0.5028864741325378], [-0.46036213636398315, 0.0018304625991731882, -0.08440053462982178], [-0.5759913921356201, 0.3872077167034149, -0.15114626288414001], [-0.4934435486793518, 0.11540703475475311, -0.4768146276473999], [0.4924054443836212, 0.3960440754890442, -0.09394778311252594], [0.7144947052001953, 0.3963666558265686, -0.295767217874527], [-0.3543581962585449, -0.5462532639503479, -0.16745027899742126], [-0.25792717933654785, 0.07828874886035919, -0.5309008955955505], [0.7276765704154968, -0.2145385593175888, 0.5652745366096497], [-0.5034851431846619, -0.3828243315219879, 0.387321412563324], [-0.8105912208557129, -0.29672253131866455, 0.5006178021430969], [-0.5538851618766785, -0.36355626583099365, -0.38053104281425476], [0.6731485724449158, 0.5099453926086426, 0.43136903643608093], [0.09760627895593643, -0.08365246653556824, -0.11776591092348099], [-0.22926397621631622, -0.2802121937274933, -0.2690415382385254], [-0.15488070249557495, 0.645887553691864, 0.2785519063472748], [0.24575647711753845, 0.2808651328086853, -0.5526497960090637], [-0.6954387426376343, -0.3344401717185974, 0.35960298776626587], [-0.5408043265342712, 0.227891743183136, -0.5453602075576782], [-0.43349549174308777, -0.2702242434024811, 0.3646876811981201], [0.318145751953125, 0.10831210762262344, 0.34425047039985657], [0.5748015642166138, 0.11390313506126404, 0.5573989152908325], [0.7140467166900635, 0.4118317663669586, 0.43814101815223694], [0.3801555037498474, 0.4464186429977417, 0.34063830971717834], [-0.5903335809707642, 0.5054935216903687, 0.46531230211257935], [0.65241539478302, 0.4223444163799286, 0.4420669674873352], [-0.5649334788322449, 0.053555358201265335, -0.3609447479248047], [-0.6688435077667236, 0.011998327448964119, 0.06007708981633186], [-0.2683946490287781, 0.3812609910964966, -0.22856946289539337], [0.5993544459342957, -0.4382181763648987, -0.5912503600120544]], "b": [0.33051860332489014, 0.06690381467342377, -0.16734516620635986, 0.5155926942825317, 0.7083470225334167, 0.23580729961395264, 0.6602595448493958, 0.3824733793735504, -0.2301834225654602, -0.4903847277164459, -0.15410850942134857, -0.19963176548480988, 0.6878717541694641, 0.5778247714042664, 0.524994969367981, 0.615880012512207, -0.4101228415966034, 0.6092849969863892, 0.24278958141803741, 0.43188491463661194, -0.17376311123371124, -0.4216773211956024, -0.057985976338386536, 0.42470771074295044, -0.07164416462182999, 0.694772481918335, 0.07639569044113159, 0.3547807037830353, -0.21561582386493683, 0.381168007850647, -0.36343371868133545, -0.38730815052986145, -0.20344945788383484, 0.5624956488609314, 0.33811938762664795, 0.3196949064731598, 0.30584657192230225, -0.2255835384130478, -0.18534059822559357, 0.1304035484790802, -0.11098355054855347, -0.4357433319091797, 0.2108016312122345, 0.2822033166885376, 0.6219890117645264, 0.5768517851829529, -0.16915884613990784, 0.6147648692131042, -0.3197934925556183, 0.25364169478416443, 0.6922984719276428, 0.44284704327583313, -0.19883380830287933, -0.5530506372451782, 0.35752347111701965, 0.19515514373779297, -0.16486135125160217, 0.41606763005256653, -0.25664427876472473, -0.261667400598526, 0.6120690107345581, 0.3610937297344208, -0.31488630175590515, 0.23133191466331482]}, {"name": "encoder.encoder.net.mlp.2", "w": [[-0.05143267288804054, -0.022742239758372307, -0.07931399345397949, -0.05520731955766678, 0.016233358532190323, -0.06058504804968834, 0.03126639500260353, -0.013471146114170551, 0.09129537642002106, -0.00689283013343811, -0.05751994252204895, -0.02226479910314083, -0.07522591203451157, -0.09886585175991058, 0.032548557966947556, 0.10142552852630615, -0.05145649611949921, 0.03251635283231735, 0.02206677384674549, 0.09766385704278946, -0.06072363257408142, -0.03679540753364563, 0.09577284753322601, -0.12007039040327072, -0.11872125416994095, -0.12209851294755936, 0.06127156689763069, -0.008821798488497734, -0.07431373745203018, -0.01087099127471447, 0.08474737405776978, -0.002732798457145691, 0.1081296056509018, -0.10761328786611557, 0.09633958339691162, -0.007465208414942026, 0.10674281418323517, 0.014918908476829529, 0.07533964514732361, -0.07511531561613083, -0.0336642861366272, -0.0737266093492508, -0.04764719307422638, -0.030120210722088814, -0.06140832602977753, 0.016959279775619507, 0.016400529071688652, -0.002630406292155385, 0.015927881002426147, 0.0721362829208374, 0.04353434592485428, -0.05797397717833519, -0.0873677134513855, 0.10840189456939697, -0.08860165625810623, -0.0941447988152504, 0.07238485664129257, -0.07768499106168747, -0.06647691875696182, 0.03299093246459961, 0.05513373389840126, -0.09837482869625092, 0.04969020187854767, 0.048332180827856064], [0.09555961936712265, -0.0178278386592865, 0.06794071197509766, 0.04608451947569847, 0.05125576630234718, 0.040192458778619766, -0.08346785604953766, -0.09146803617477417, 0.055693820118904114, -0.020726367831230164, -0.0973295122385025, 0.05352722108364105, 0.030658384785056114, -0.02382933720946312, -0.0653928890824318, -0.09284874051809311, -0.015285849571228027, -0.1250917762517929, -0.011333948001265526, 0.03692343086004257, -0.028776587918400764, 0.047096025198698044, -0.003248661756515503, 0.11264730989933014, 0.10610059648752213, 0.07972729206085205, -0.01560748927295208, 0.036014143377542496, 0.0380542129278183, -0.09518106281757355, 0.013820500113070011, 0.05102217197418213, -0.019689485430717468, -0.04837127774953842, -0.09702852368354797, -0.09131050109863281, -0.0447562076151371, -0.08890354633331299, -0.0754656195640564, -0.083878293633461, 0.10824048519134521, -0.11005160212516785, 0.059823762625455856, 0.020226696506142616, -0.007840195670723915, -0.06301960349082947, -0.12411762773990631, -0.09102199226617813, -0.12147456407546997, 0.03222557157278061, 0.09061672538518906, 0.08616060018539429, 0.07995928823947906, -0.08710253238677979, -0.06673498451709747, 0.02291889488697052, -0.061787039041519165, -0.12765222787857056, -0.08351930230855942, 0.10035111755132675, 0.11382528394460678, -0.05926692113280296, 0.10640452802181244, 0.005788668990135193], [0.04523606225848198, 0.029178231954574585, 0.0009529818780720234, 0.052434466779232025, 0.005243668798357248, -0.08167485892772675, 0.056740652769804, -0.0916413962841034, 0.04154707491397858, -0.11175268888473511, 0.09801685810089111, 0.06742542237043381, 0.041114695370197296, -0.12217430025339127, -0.05591682344675064, 0.024047009646892548, -0.0926235169172287, -0.06831151992082596, -0.09993505477905273, -0.05903234705328941, 0.11215923726558685, -0.08988618850708008, -0.0844946801662445, 0.11498519778251648, -0.011224135756492615, 0.002853547688573599, 0.027271859347820282, 0.05882183089852333, -0.0007043434889055789, 0.02797350473701954, -0.007219231687486172, 0.06033778190612793, -0.06523440778255463, 0.02862343192100525, -0.1342317759990692, -0.12345787137746811, 0.050664834678173065, 0.019684016704559326, 0.06551751494407654, 0.09403108805418015, 0.09080468118190765, 0.11031277477741241, 0.07025405764579773, -0.04028347134590149, -0.09848840534687042, 0.0636749118566513, 0.01128592062741518, -0.05270391330122948, 0.04895436763763428, 0.013449626043438911, -0.014174262061715126, -0.08276525884866714, -0.09626670181751251, -0.036763086915016174, -0.011229895986616611, -0.02658284641802311, 0.07683906704187393, -0.05327830836176872, -0.12190340459346771, -0.1113738864660263, 0.062091317027807236, -0.10788974910974503, -0.042596980929374695, -0.0537712387740612], [0.3771860599517822, 0.11047031730413437, 0.09224050492048264, 0.17939916253089905, 0.08781371265649796, 0.14936938881874084, 0.14645743370056152, 0.196987122297287, 0.08625786006450653, 0.10829546302556992, -0.08904832601547241, -0.02171977423131466, 0.1671370267868042, 0.058725204318761826, 0.16752856969833374, 0.1359567642211914, 0.10272109508514404, 0.37929171323776245, 0.6580203175544739, 0.18850232660770416, -0.046102672815322876, 0.10994303226470947, -0.09647370874881744, 0.3774939179420471, -0.07980798929929733, 0.09822341054677963, 0.004742971155792475, 0.4022504985332489, 0.40108492970466614, 0.3212146759033203, 0.028116904199123383, 0.0833965390920639, -0.09146146476268768, 0.06538834422826767, 0.06844394654035568, 0.14073748886585236, 0.2673696279525757, -0.030901998281478882, 0.13399241864681244, 0.13653989136219025, 0.12025824189186096, 0.008655205368995667, -0.08607932925224304, 0.3008066713809967, 0.2063194066286087, 0.28942325711250305, 0.03714240714907646, 0.04875778779387474, -0.03439159691333771, 0.06413795053958893, 0.17152392864227295, 0.2777138948440552, 0.10381445288658142, -0.013016358017921448, 0.14729800820350647, -0.03877359628677368, -0.008367479778826237, 0.19215036928653717, 0.08248206973075867, -0.15070733428001404, 0.2956030070781708, 0.3996546268463135, 0.08067421615123749, 0.216506227850914], [-0.043831437826156616, 0.09420877695083618, -0.04163070023059845, 0.003873869776725769, 0.04164363443851471, -0.0684717446565628, -0.02613741159439087, -0.009677007794380188, 0.09867313504219055, 0.07614599168300629, 0.03899464011192322, -0.0018992871046066284, -0.08014656603336334, -0.1156819611787796, -0.01044696569442749, 0.10072232782840729, 0.008205622434616089, 0.08374372124671936, -0.07764016091823578, -0.05165281891822815, -0.021993428468704224, 0.0659613162279129, 0.10305269062519073, 0.07319214940071106, -0.11326588690280914, -0.07690504193305969, 0.05547982454299927, 0.001973450183868408, 0.07192811369895935, 0.007874995470046997, -0.05480903387069702, -0.05536933243274689, -0.019728198647499084, -0.08464810252189636, -0.0315403938293457, 0.08787067234516144, -0.09461474418640137, -0.031594857573509216, 0.10519485175609589, -0.05588182806968689, 0.056572601199150085, 0.11699596047401428, 0.054779499769210815, 0.03368110954761505, -0.018247976899147034, 0.07452189922332764, 0.06921082735061646, -0.11464062333106995, -0.016110211610794067, -0.11013588309288025, -0.11274877190589905, -0.10612340271472931, -0.09040805697441101, 0.09406721591949463, 0.09423115849494934, -0.050357386469841, 0.02546389400959015, -0.08483107388019562, -0.1188676655292511, -0.018295347690582275, -0.11389714479446411, 0.04810240864753723, 0.05208618938922882, 0.06817224621772766], [0.3208404779434204, 0.12576192617416382, 0.019786687567830086, 0.2146552950143814, 0.12793265283107758, 0.06768231093883514, 0.20188012719154358, 0.1349678635597229, 0.10518573224544525, -0.20134979486465454, -0.046854764223098755, -0.30670279264450073, 0.25521042943000793, 0.16963963210582733, 0.1705205887556076, 0.29409950971603394, -0.0648694783449173, 0.11998149752616882, 0.6715492606163025, 0.17565806210041046, 0.03255368396639824, 0.13613831996917725, -0.06509383022785187, 0.34762710332870483, 0.02095598168671131, 0.16884750127792358, 0.339473158121109, 0.2919709086418152, 0.45361119508743286, 0.2290877103805542, -0.08372537046670914, 0.12312744557857513, 0.10171645879745483, 0.2454860359430313, 0.08963975310325623, 0.028284918516874313, 0.2937803864479065, -0.03409108519554138, 0.3051873445510864, 0.23040735721588135, 0.0031458139419555664, 0.014674872159957886, 0.05677003785967827, 0.08509977161884308, 0.28701815009117126, 0.18605093657970428, 0.05464041233062744, 0.28029417991638184, -0.11406180262565613, 0.052832767367362976, 0.20591385662555695, 0.10859069973230362, -0.0649634599685669, -0.03422731161117554, 0.058939505368471146, -0.023441480472683907, 0.17900636792182922, 0.10295950621366501, 0.13363732397556305, 0.1673634946346283, 0.1885874718427658, 0.19655263423919678, -0.11714804172515869, 0.3067035675048828], [-0.07423931360244751, 0.09385405480861664, -0.06434641778469086, -0.07503227889537811, -0.016561970114707947, 0.0963204950094223, 0.042724788188934326, 0.016152098774909973, 0.11950112879276276, 0.08379751443862915, 0.008862510323524475, -0.09292179346084595, -0.08423450589179993, 0.05387622117996216, -0.07626773416996002, -0.09992094337940216, -0.038694560527801514, -0.01224072277545929, -0.024523913860321045, 0.014146700501441956, -0.05525901913642883, 0.02884119749069214, 0.04431439936161041, 0.09567439556121826, -0.10715898871421814, -0.003613412380218506, -0.12184400856494904, -0.10135285556316376, 0.04744537174701691, 0.09147569537162781, 0.09003783762454987, -0.0777873694896698, 0.12270408868789673, -0.08406373858451843, 0.049168556928634644, -0.046556681394577026, -0.043665170669555664, 0.07853887975215912, -0.0649605244398117, 0.011995583772659302, -0.0403551310300827, 0.014514565467834473, -0.0508856326341629, 0.05156594514846802, -0.12214671075344086, 0.012597709894180298, -0.03545582294464111, 0.08771966397762299, -0.09060478210449219, -0.08081062138080597, -0.09511256217956543, 0.0292813777923584, 0.09027944505214691, 0.041905492544174194, 0.042521193623542786, -0.10790705680847168, -0.122168630361557, 0.0102110356092453, -0.0985935628414154, -0.09239637851715088, -0.11496880650520325, -0.11493593454360962, -0.05178402364253998, -0.11788366734981537], [0.17919984459877014, 0.193742573261261, 0.011998636648058891, 0.19723035395145416, 0.10731955617666245, 0.07178079336881638, 0.13982334733009338, 0.006617546547204256, 0.09979648888111115, -0.1363852620124817, -0.043815210461616516, -0.5285385251045227, 0.13530319929122925, 0.19529575109481812, 0.1296711564064026, 0.19945141673088074, -0.006926998496055603, 0.02134746126830578, 0.5439953207969666, 0.16398316621780396, 0.2424936145544052, 0.16861073672771454, -0.0964159369468689, 0.16336385905742645, 0.023090975359082222, 0.1976938098669052, 0.26676157116889954, 0.19998003542423248, 0.6442471146583557, 0.14304082095623016, -0.0017702102195471525, 0.010618254542350769, 0.07948832213878632, 0.05139026790857315, 0.19586119055747986, -0.09756910055875778, -0.0915084108710289, 0.11586020886898041, 0.3888775408267975, 0.17266453802585602, 0.009169429540634155, -0.08723184466362, 0.22890831530094147, -0.0003992449783254415, 0.07461551576852798, 0.0007237500976771116, 0.20292221009731293, 0.06969583034515381, -0.01944701373577118, -0.03319959342479706, 0.15225206315517426, -0.008898137137293816, -0.05737526714801788, -0.06367288529872894, 0.014352584257721901, 0.1833381950855255, 0.1768120974302292, 0.027376141399145126, 0.08638956397771835, 0.003747588489204645, 0.0660659596323967, 0.10158739238977432, 0.08142074942588806, 0.39105352759361267], [0.06598803400993347, 0.1774754822254181, 0.16151948273181915, 0.28428182005882263, 0.18871107697486877, 0.09030558168888092, 0.16193415224552155, -0.0025166324339807034, -0.03016301989555359, 0.008954379707574844, 0.10590669512748718, -0.6238885521888733, -0.10221486538648605, 0.2532777190208435, 0.15824265778064728, 0.18274660408496857, -0.0845501571893692, 0.039559509605169296, 0.32779183983802795, 0.11462512612342834, 0.15791068971157074, -0.031897127628326416, -0.109153151512146, 0.005085460375994444, -0.07551664859056473, 0.058991439640522, 0.3459252119064331, -0.07090194523334503, 0.6047425866127014, -0.18543361127376556, -0.05108156427741051, -0.1075541228055954, 0.10422751307487488, 0.13988487422466278, 0.17056787014007568, -0.20631375908851624, -0.1576225459575653, -0.009130388498306274, 0.37949100136756897, 0.16603058576583862, -0.0013202577829360962, 0.016104787588119507, 0.1374950110912323, 0.12246810644865036, -0.026020729914307594, -0.1251297891139984, 0.017338957637548447, 0.1087193712592125, 0.012382552027702332, 0.06622471660375595, 0.07492086291313171, 0.04979033023118973, -0.0844854861497879, 0.03722921013832092, 0.06828755140304565, 0.1440809816122055, 0.047842349857091904, 0.022937888279557228, -0.0884706974029541, 0.10918726772069931, 0.021675031632184982, 0.013866793364286423, 0.10732707381248474, 0.4015926122665405], [0.013407254591584206, 0.13260002434253693, -0.12216609716415405, -0.12323109060525894, 0.11500772088766098, -0.07830704748630524, 0.09779819846153259, -0.00450360169634223, -0.002549290657043457, -0.03299335762858391, -0.002441108226776123, 0.5962473750114441, 0.0899038314819336, -0.06811392307281494, -0.010320773348212242, -0.06396543979644775, 0.11157488822937012, 0.26428741216659546, -0.302619069814682, -0.03305473178625107, 0.0650608167052269, -0.15436674654483795, -0.0812048614025116, -0.10538822412490845, 0.1701793223619461, 0.09699440002441406, -0.27793022990226746, 0.09787911921739578, -0.07186432182788849, 0.15957532823085785, -0.13204114139080048, 0.011874377727508545, 0.061291247606277466, 0.1717624068260193, 0.04676416143774986, 0.12948068976402283, 0.4129106402397156, 0.05736629664897919, -0.003446533577516675, 0.1700212061405182, 0.0992644727230072, -0.08957085013389587, -0.08793489634990692, 0.07318215817213058, 0.03485081344842911, 0.18411283195018768, -0.06871912628412247, 0.08910820633172989, 0.1051909327507019, 0.14866769313812256, 0.03507545217871666, -0.04800887033343315, -0.06400761008262634, -0.02697901427745819, 0.038974013179540634, -0.05646388605237007, -0.1487758904695511, 0.10696594417095184, -0.012064356356859207, -0.05810165777802467, 0.10795269161462784, 0.23381386697292328, 0.12208421528339386, -0.04137386754155159], [0.1481952965259552, 0.21261653304100037, 0.06696490198373795, 0.09995102882385254, 0.037645552307367325, -0.02984710969030857, 0.19185583293437958, 0.06613336503505707, 0.03117579221725464, -0.13440024852752686, 0.036551401019096375, -0.24766306579113007, 0.23614215850830078, 0.05907699838280678, 0.2823146879673004, 0.3154582381248474, 0.012494400143623352, 0.13248802721500397, 0.4832761883735657, 0.1018718034029007, 0.13372783362865448, 0.0977400615811348, -0.04345583915710449, 0.2310696393251419, 0.00848724041134119, 0.2555783987045288, 0.3797670006752014, 0.11134994029998779, 0.5720705389976501, 0.03316234424710274, 0.1152181625366211, 0.0523466020822525, 0.09370099008083344, 0.12888415157794952, 0.0760372057557106, -0.026636900380253792, 0.16100217401981354, -0.0008902698755264282, 0.3343610465526581, 0.1683795154094696, 0.05858694016933441, 0.04296575486660004, 0.1926257312297821, 0.11512727290391922, 0.035006605088710785, 0.1746189147233963, 0.177238330245018, 0.23795995116233826, -0.09296275675296783, 0.19893735647201538, 0.2303345501422882, 0.0369858480989933, -0.10749149322509766, 0.00924353301525116, 0.10122494399547577, 0.20064471662044525, 0.13903988897800446, 0.15732693672180176, -0.06394951790571213, 0.03861385956406593, 0.12181823700666428, 0.09601635485887527, 0.09625369310379028, 0.3066185712814331], [-0.016752339899539948, -0.059834957122802734, -0.09997394680976868, 0.009625446051359177, 0.01003123726695776, 0.078431636095047, 0.040896762162446976, 0.11842866241931915, -0.07380960881710052, -0.05900232866406441, -0.04518371820449829, 0.016917511820793152, -0.0663694366812706, 0.08364861458539963, -0.05550773814320564, -0.10402799397706985, -0.12147511541843414, 0.01268107071518898, 0.09450744837522507, -0.041162796318531036, -0.059741273522377014, 0.011090142652392387, 0.03145107626914978, -0.045710284262895584, -0.13179056346416473, -0.12138396501541138, -0.008828208781778812, -0.071126788854599, 0.1235647201538086, -0.1287880688905716, 0.1060783788561821, -0.03868421912193298, 0.04096315801143646, 0.05064747482538223, -0.07015916705131531, -0.07346124947071075, 0.03981811925768852, 0.07004059851169586, -0.01693820208311081, -0.11257536709308624, -0.05903312563896179, -0.12116429209709167, 0.08474316447973251, -0.07762816548347473, 0.0653364434838295, 0.010599195957183838, 0.005292223300784826, -0.0992807149887085, 0.0855003297328949, -0.04099733382463455, -0.07552118599414825, -0.0098522137850523, -0.10919541120529175, -0.0290071964263916, 0.022921333089470863, 0.0449221208691597, 0.08257227391004562, 0.05521852895617485, -0.08726835250854492, -0.06673791259527206, -0.10604143887758255, -0.01691097766160965, 0.06056925654411316, 0.010053157806396484], [-0.05558936297893524, 0.013567715883255005, -0.10280585289001465, 0.07722383737564087, 0.11323729157447815, -0.023099765181541443, 0.1165645569562912, -0.04534912109375, -0.07557405531406403, 0.07555487751960754, -0.03706611692905426, 0.051144376397132874, 0.0038757622241973877, -0.10115061700344086, 0.001340240240097046, 0.08531787991523743, 0.018095269799232483, -0.02216459810733795, 0.0955931544303894, -0.09693531692028046, -0.042036205530166626, -0.10400047898292542, -0.06409811973571777, -0.026439890265464783, -0.0014685392379760742, -0.006630465388298035, 0.026889100670814514, 0.0009884685277938843, -0.0065930187702178955, -0.0022892355918884277, -0.036244094371795654, 0.11376260221004486, -0.023783236742019653, -0.058203354477882385, -0.09590233862400055, 0.08921116590499878, -0.11270615458488464, 0.11105617880821228, -0.04399915039539337, 0.07112154364585876, -0.11400897800922394, -0.027456283569335938, -0.11462816596031189, 0.12071093916893005, -0.05388084053993225, -0.02917751669883728, -0.013312160968780518, 0.01845930516719818, 0.06225365400314331, -0.04453510046005249, -0.11263081431388855, -0.01497708261013031, -0.03429055213928223, 0.056275174021720886, -0.04618632793426514, 0.07823824882507324, 0.07129371166229248, -0.08642330765724182, 0.060977280139923096, -0.05143961310386658, -0.04895178973674774, -0.11221620440483093, 0.11250260472297668, 0.08097481727600098], [0.32500720024108887, 0.13210910558700562, 0.1326131373643875, 0.20743829011917114, 0.2473893165588379, 0.1489211618900299, 0.12610681354999542, 0.1735495775938034, -0.07053676247596741, 0.014718824997544289, -0.011717334389686584, -0.11551832407712936, 0.0946708470582962, 0.26261329650878906, 0.1550043821334839, 0.12196625024080276, -0.041070252656936646, 0.2444741427898407, 0.6916714310646057, 0.16923508048057556, 0.002477627247571945, 0.15900292992591858, 0.12070593237876892, 0.17287534475326538, 0.03726916015148163, 0.032339777797460556, 0.2840765118598938, 0.17140790820121765, 0.5438912510871887, 0.14714692533016205, -0.07674679160118103, -0.02356649935245514, -0.02402283251285553, 0.15590092539787292, 0.2099306732416153, 0.167977973818779, 0.2046770602464676, -0.03647901117801666, 0.14193738996982574, 0.17928719520568848, -0.03358396887779236, -0.08716867864131927, 0.17372703552246094, 0.21802350878715515, 0.13110989332199097, 0.10834639519453049, 0.21504612267017365, 0.21016541123390198, -0.05822254717350006, 0.1369522660970688, 0.1789221167564392, 0.058380428701639175, -0.011446252465248108, 0.006865456700325012, 0.1433286964893341, 0.06529191136360168, 0.19702987372875214, 0.06848344206809998, 0.0056177061051130295, 0.11678337305784225, 0.24203011393547058, 0.17257674038410187, 0.09042985737323761, 0.27712541818618774], [0.5670915246009827, -0.2832830250263214, -0.22338229417800903, -0.04752034321427345, 0.1839991807937622, 0.14678752422332764, 0.1471944898366928, 0.32810452580451965, 0.02907046675682068, 0.11421448737382889, 0.006226733326911926, 0.3206994831562042, 0.5003116726875305, 0.022809069603681564, 0.02008385770022869, -0.0010207926388829947, -0.1068657785654068, 0.4618195593357086, 0.49820002913475037, 0.07960251718759537, -0.10777092725038528, 0.025772713124752045, -0.018465936183929443, 0.5668186545372009, 0.14752130210399628, -0.015043562278151512, -0.3266187012195587, 0.4274553954601288, -0.5315144658088684, 0.4217227101325989, -0.07174881547689438, 0.013205528259277344, -0.06053280830383301, 0.19852623343467712, -0.05035494640469551, 0.47197258472442627, 0.6702350974082947, -0.08229398727416992, -0.32334455847740173, -0.2727392613887787, 0.07160256803035736, -0.06120094656944275, -0.1642676144838333, 0.24731479585170746, 0.419528603553772, 0.298861563205719, -0.11795896291732788, 0.07516885548830032, 0.11787617206573486, 0.1713755577802658, 0.25221800804138184, 0.36641380190849304, -0.03611467778682709, 0.10911206901073456, -0.01145970355719328, -0.10355598479509354, -0.26428455114364624, 0.044260118156671524, 0.24093256890773773, -0.10437418520450592, 0.5068561434745789, 0.6163806915283203, 0.015031099319458008, 0.04477851092815399], [0.224202960729599, 0.17647098004817963, 0.04247887805104256, 0.2344353199005127, 0.22137409448623657, 0.1340973675251007, 0.1319228708744049, 0.12165167927742004, 0.028496772050857544, 0.04424545168876648, -0.03575412929058075, -0.3091636598110199, 0.1888730674982071, 0.19759322702884674, 0.1283932626247406, 0.1703282743692398, -0.09208811819553375, 0.11884235590696335, 0.6976749897003174, 0.2410763055086136, 0.08936963975429535, -0.07745063304901123, 0.07425563037395477, 0.21453925967216492, -0.12397804856300354, 0.047057684510946274, 0.1258281022310257, 0.16531023383140564, 0.628359317779541, 0.08518346399068832, -0.01750449649989605, 0.06063690781593323, 0.018277302384376526, 0.15691034495830536, 0.046364638954401016, -0.006869425065815449, 0.16524532437324524, 0.08068320155143738, 0.2155260592699051, 0.27295368909835815, 0.08449016511440277, -0.11619329452514648, 0.18943163752555847, 0.08640485256910324, 0.26898181438446045, 0.09770099073648453, 0.17149631679058075, 0.2041349709033966, -0.10686807334423065, 0.18669401109218597, 0.2709225118160248, 0.1694549024105072, -0.003409087657928467, -0.028654247522354126, 0.20552435517311096, 0.01775142177939415, 0.038052190095186234, 0.14893801510334015, 0.015358191914856434, 0.012293310835957527, 0.184372216463089, 0.3118317723274231, 0.0007570534944534302, 0.34735381603240967], [0.0418621264398098, -0.0371866375207901, 0.0642513781785965, 0.015265499241650105, -0.021672729402780533, -0.0718005895614624, -0.08970706909894943, -0.0046439021825790405, 0.043029382824897766, 0.040081195533275604, -0.1068936437368393, 0.07696090638637543, -0.08445362746715546, 0.018826395273208618, -0.12073478102684021, -0.03605455905199051, 0.06531187891960144, -0.05290007218718529, 0.07642152905464172, 0.028065809980034828, 0.10609779506921768, 0.09943319857120514, 0.03655429184436798, 0.08439160138368607, -0.12945230305194855, -0.027306759729981422, 0.015679504722356796, -0.015090405941009521, 0.0737842470407486, -0.043368373066186905, -0.10774986445903778, -0.042721882462501526, 0.05487605929374695, 0.047991298139095306, 0.1007639542222023, -0.02281196415424347, 0.0722433477640152, -0.10794930160045624, -0.10523038357496262, 0.02694620005786419, -0.0909319519996643, -0.058478981256484985, 0.07128863036632538, 0.024392375722527504, -0.09700867533683777, -0.12171363830566406, 0.07307261228561401, -0.029097840189933777, 0.10371415317058563, -0.08702503889799118, -0.00015753330080769956, 0.05320683494210243, -0.026880338788032532, 0.08993351459503174, -0.015953905880451202, -0.018002424389123917, -0.12520626187324524, -0.08898109197616577, -0.018910761922597885, -0.026982562616467476, 0.054186441004276276, -0.0038463303353637457, 0.004822090268135071, -0.12068391591310501], [-0.04446994885802269, 0.19449178874492645, 0.14095735549926758, 0.16362117230892181, 0.14017941057682037, 0.007471259217709303, 0.08034664392471313, -0.0027485534083098173, 0.07819771766662598, -0.15388083457946777, -0.0024475306272506714, -0.580459475517273, 0.06366319954395294, 0.11036397516727448, 0.2134365290403366, 0.1122623085975647, 0.11062605679035187, 0.07584403455257416, 0.16164052486419678, 0.1799575239419937, 0.03868180885910988, -0.049582935869693756, -0.08327440917491913, 0.07456109672784805, -0.1633097529411316, 0.13854311406612396, 0.3842594623565674, -0.030055513605475426, 0.6847957372665405, -0.1542736291885376, 0.09180627018213272, -0.07952933013439178, -0.10740818083286285, 0.10809386521577835, 0.0752599835395813, -0.26450565457344055, -0.11264893412590027, -0.029677242040634155, 0.2467862367630005, 0.204034686088562, -0.06013832986354828, 0.10456463694572449, 0.06557417660951614, 0.0386454276740551, 0.09605647623538971, -0.12230673432350159, 0.2025577872991562, 0.1666170060634613, -0.11783728003501892, 0.01684953272342682, 0.004589864984154701, 0.0794932022690773, -0.11448462307453156, -0.11826673150062561, 0.20636114478111267, 0.0782170444726944, 0.00620364909991622, 0.00896680448204279, 0.10713915526866913, -0.03473709151148796, 0.03712056949734688, 0.0822698324918747, 0.12214373052120209, 0.40639492869377136], [0.08302782475948334, -0.15787774324417114, -0.197453573346138, 0.004782811272889376, 0.06048428267240524, -0.018248872831463814, -0.1208021342754364, 0.0728432685136795, 0.0789441168308258, 0.22724217176437378, 0.01997777819633484, 0.27203693985939026, 0.040140580385923386, 0.005824362393468618, 0.04568763077259064, -0.18331009149551392, -0.08371195197105408, -0.11804109811782837, -0.30902358889579773, -0.02620607241988182, -0.10532017052173615, -0.004227968864142895, -0.11753898859024048, 0.17417079210281372, 0.20457661151885986, 0.04852451756596565, -0.19789589941501617, 0.05961860716342926, -0.3774864971637726, 0.005089674610644579, -0.06182112172245979, 0.08806303143501282, 0.08578386902809143, 0.1037336066365242, -0.16464464366436005, 0.21444077789783478, 0.14806678891181946, -0.12222549319267273, -0.36381155252456665, -0.326957643032074, -0.07949672639369965, -0.04330280423164368, -0.06274683028459549, 0.10542134940624237, 0.10224218666553497, -0.03893665969371796, -0.1918908655643463, -0.02104562148451805, 0.09392347931861877, -0.1278548389673233, -0.1353372037410736, -0.004895068239420652, 0.035518184304237366, -0.08811652660369873, 0.029161352664232254, -0.1690748631954193, -0.1716936081647873, -0.021687258034944534, 0.12842820584774017, -0.1342807561159134, -0.006560356356203556, 0.17576277256011963, -0.08636955916881561, -0.058210235089063644], [-0.03178662061691284, 0.04302556812763214, 0.05242418497800827, -0.13780568540096283, 0.013049602508544922, 0.07202863693237305, -0.085044264793396, 0.026376210153102875, 0.08348444104194641, 0.07937763631343842, 0.021820232272148132, -0.10492389649152756, -0.011553075164556503, 0.08934133499860764, 0.04304440692067146, 0.046011604368686676, 0.013380199670791626, -0.08917210251092911, -0.08894070237874985, 0.10197596251964569, -0.10149180144071579, 0.08889515697956085, 0.09089824557304382, -0.05249340832233429, -0.09204136580228806, -0.13278384506702423, -0.01448438223451376, -0.09797381609678268, -0.07327917218208313, 0.0300145260989666, 0.024529878050088882, 0.0018457919359207153, -0.02346949279308319, -0.10684313625097275, 0.06435161828994751, 0.02300483174622059, -0.05232478305697441, 0.0397317111492157, 0.014892896637320518, 0.009241201914846897, -0.03896884620189667, 0.023252740502357483, 0.0004370718088466674, 0.004334568977355957, -0.050674982368946075, 0.007782974746078253, -0.05469531565904617, 0.07416972517967224, 0.12490954995155334, -0.030592164024710655, -0.134379044175148, 0.05018323287367821, -0.05892927944660187, 0.10742878913879395, 0.02533326856791973, 0.07960070669651031, -0.05761087313294411, -0.14751772582530975, 0.07225443422794342, -0.04365631192922592, 0.10075110197067261, 0.07024918496608734, -0.04465752840042114, 0.07481321692466736], [0.2635248005390167, 0.2955027222633362, 0.1991935670375824, 0.2662713825702667, 0.13281333446502686, 0.08038697391748428, 0.1793525218963623, 0.2486487179994583, 0.08048216998577118, -0.1368410587310791, 0.0932561606168747, -0.16414237022399902, 0.22744576632976532, 0.1827842891216278, 0.3096098005771637, 0.28269413113594055, 0.014471679925918579, 0.16263307631015778, 0.6410367488861084, 0.11031808704137802, 0.005389771424233913, 0.11692697554826736, -0.01234978437423706, 0.09481338411569595, -0.01762629672884941, 0.21393033862113953, 0.3104530870914459, 0.2620869576931, 0.6032890677452087, 0.13417159020900726, -0.09144088625907898, 0.10661298036575317, 0.11741551756858826, 0.016292301937937737, 0.0890435054898262, 0.14475105702877045, 0.2656543552875519, -0.03158643841743469, 0.3494965732097626, 0.1413576602935791, 0.02712920308113098, -0.11963477730751038, 0.08331312239170074, 0.15507467091083527, 0.10065983235836029, 0.06521255522966385, 0.036568090319633484, 0.23470433056354523, 0.07538577914237976, 0.12209510803222656, 0.06082991883158684, 0.17277804017066956, 0.027413412928581238, 0.10910750925540924, 0.2165975421667099, 0.0305146723985672, 0.06765527278184891, 0.1469293087720871, 0.12436206638813019, 0.17657314240932465, 0.11311893910169601, 0.19714398682117462, -0.09346866607666016, 0.2744388282299042], [0.2636626958847046, 0.09890135377645493, 0.10253271460533142, 0.16228418052196503, 0.12141618132591248, 0.17395636439323425, -0.0030131705570966005, 0.11264877766370773, -0.013042107224464417, -0.0489925891160965, 0.08461165428161621, -0.388375848531723, 0.11660856753587723, 0.11057107895612717, 0.14239676296710968, 0.3019401729106903, 0.0013130903244018555, 0.18219093978405, 0.6518084406852722, 0.2447052299976349, 0.12401635944843292, 0.10010503232479095, -0.118827223777771, 0.29143521189689636, -0.006448764819651842, 0.1218179240822792, 0.23428206145763397, 0.21263207495212555, 0.534437894821167, 0.2292070835828781, 0.1031443402171135, -0.12345217168331146, 0.004625186324119568, 0.21031516790390015, 0.11456247419118881, 0.09170103818178177, 0.1824086606502533, -0.04843081533908844, 0.2740742862224579, 0.31112566590309143, 0.11783002316951752, -0.024604544043540955, 0.017891328781843185, 0.11581607908010483, 0.09041139483451843, 0.11187297850847244, 0.18547043204307556, 0.19585047662258148, -0.07703752815723419, 0.1623370498418808, 0.18128599226474762, 0.024652333930134773, 0.07924304902553558, 0.01278640329837799, 0.10865706205368042, 0.19834887981414795, 0.10392909497022629, 0.13662630319595337, -0.07985131442546844, 0.17394350469112396, 0.10626823455095291, 0.20117966830730438, 0.014590993523597717, 0.3169878125190735], [0.011035582050681114, 0.012538498267531395, -0.09775186330080032, 0.029864899814128876, -0.08169271051883698, 0.06539665162563324, -0.049431513994932175, -0.12736821174621582, 0.11279591917991638, 0.032911527901887894, 0.04282216727733612, -0.12335844337940216, -0.011303934268653393, 0.00983102060854435, 0.07677627354860306, -0.012325574643909931, 0.11092618107795715, 0.04662056639790535, 0.09642680734395981, -0.0340249240398407, 0.0029862485826015472, -0.029910782352089882, 0.044720277190208435, 0.004034156911075115, 0.015834465622901917, 0.04698767885565758, -0.06281838566064835, -0.09813818335533142, 0.054743293672800064, 0.06989685446023941, -0.03681126609444618, 0.11980849504470825, 0.08861599862575531, -0.08420311659574509, 0.012236574664711952, 0.005851167719811201, -0.00819176435470581, 0.11957745254039764, -0.05466579645872116, 0.04284518584609032, 0.004681810736656189, 0.09743845462799072, 0.0021546350326389074, -0.11875548958778381, -0.034673526883125305, -0.08009709417819977, 0.07316049933433533, -0.04510290175676346, 0.044621169567108154, -0.1289326399564743, -0.11576099693775177, -0.005068205296993256, 0.08698560297489166, -0.10837103426456451, -0.013089501298964024, 0.07985168695449829, -0.019260406494140625, -0.13147038221359253, 0.08039525151252747, 0.06621884554624557, 0.04571279510855675, 0.059838131070137024, -0.0262347012758255, 0.09347129613161087], [0.37835460901260376, 0.19639191031455994, -0.006506074219942093, 0.19388319551944733, 0.15016506612300873, -0.028227007016539574, 0.08522528409957886, 0.2562803328037262, -0.03557741641998291, -0.08412197232246399, -0.001336604356765747, -0.07583612203598022, 0.2903496026992798, 0.11192776262760162, 0.22527167201042175, 0.20527896285057068, 0.06060454249382019, 0.2976888418197632, 0.6759315133094788, 0.12739095091819763, 0.04191804677248001, 0.12098175287246704, -0.09777145087718964, 0.22013947367668152, 0.08777277916669846, 0.24081328511238098, 0.15288689732551575, 0.403143972158432, 0.3302842080593109, 0.24195770919322968, -0.019666457548737526, 0.037225812673568726, -0.020686045289039612, 0.15335725247859955, 0.12253066897392273, 0.1881175935268402, 0.3511112332344055, -0.004705309867858887, 0.1555071771144867, 0.046868693083524704, 0.05943438410758972, 0.01645447313785553, -0.045363426208496094, 0.16203749179840088, 0.2646496593952179, 0.32909297943115234, 0.11658352613449097, 0.2719358503818512, 0.0933995246887207, 0.028896566480398178, 0.19289802014827728, 0.3197942078113556, -0.027006909251213074, 0.06426967680454254, 0.06968534737825394, 0.03424747288227081, -0.06874553114175797, 0.11135925352573395, 0.12100749462842941, -0.01803782396018505, 0.39481180906295776, 0.31724435091018677, 0.12327967584133148, 0.36779069900512695], [0.001340852933935821, -0.00539034279063344, 0.08641964197158813, 0.09545622020959854, -0.008902170695364475, -0.11751527339220047, -0.032772429287433624, 0.03709719330072403, 0.005820363759994507, -0.05254724621772766, 0.11236515641212463, -0.07747386395931244, -0.032285138964653015, -0.08642213046550751, 0.09220428764820099, -0.052455708384513855, 0.1005803793668747, 0.027368053793907166, -0.05232725292444229, -0.08646733313798904, 0.09886649250984192, 0.04909215494990349, -0.1073480099439621, -0.05962354317307472, -0.11490903049707413, -0.04000173509120941, -0.029574668034911156, 0.008410913869738579, 0.020815035328269005, -0.0013214817736297846, 0.004774180706590414, -0.09619064629077911, 0.027752801775932312, -0.08108867704868317, 0.02187943458557129, 0.018818672746419907, 0.11116651445627213, 0.1022283136844635, -0.050584644079208374, 0.09995653480291367, -0.0804600864648819, 0.006011307239532471, 0.09403511881828308, -0.07163054496049881, -0.03099195659160614, -0.022909333929419518, -0.0771983191370964, -0.044390968978405, -0.0970970094203949, -0.008673392236232758, 0.071048304438591, 0.03630771115422249, 0.0725056529045105, -0.11843258142471313, -0.13272972404956818, -0.006905285641551018, 0.014888309873640537, -0.07173328101634979, 0.09817051887512207, 0.04647097364068031, 0.10058862715959549, 0.09755323082208633, 0.020306944847106934, -0.07223514467477798], [-0.045204807072877884, 0.06167541816830635, 0.10980428755283356, 0.025816598907113075, 0.004579257685691118, -0.018040258437395096, 0.08405917137861252, 0.008904393762350082, 0.10443781316280365, 0.01420263946056366, 0.03898125886917114, -0.09015451371669769, -0.06354010105133057, -0.022641833871603012, 0.03904442489147186, -0.006874381564557552, -0.0619540810585022, -0.019277526065707207, 0.10839854925870895, -0.06986556947231293, -0.0487331785261631, 0.04418390616774559, 0.012347057461738586, -0.058598656207323074, 0.0872616320848465, -0.0672953650355339, 0.11489053070545197, -0.012170970439910889, -0.062347520142793655, 0.07400597631931305, -0.04249326512217522, -0.08232206106185913, 0.05113840103149414, 0.009296251460909843, -0.010147802531719208, 0.07059487700462341, 0.08865275979042053, -0.12365992367267609, 0.047888755798339844, 0.06369905918836594, -0.005565330386161804, 0.01894320547580719, 0.04141248017549515, 0.0005601415759883821, -0.0923469141125679, 0.08984275907278061, -0.032813139259815216, -0.04904330521821976, 0.03063720464706421, 0.1107623353600502, -0.045322250574827194, 0.021195320412516594, -0.09968942403793335, -0.11862793564796448, -0.09673480689525604, 0.026753578335046768, -0.03779131546616554, -0.08845772594213486, -0.03493976593017578, 0.049651384353637695, 0.09136979281902313, 0.026690538972616196, -0.09215857088565826, 0.09497569501399994], [-0.013780290260910988, 0.16170203685760498, -0.00991993397474289, -0.03474560007452965, 0.08648350089788437, 0.013673962093889713, 0.012262333184480667, 0.09879308193922043, -0.016839683055877686, 0.09783003479242325, -0.05825723707675934, 0.6479989886283875, 0.15932603180408478, 0.015071388334035873, 0.015091159380972385, -0.034103117883205414, 0.10476042330265045, 0.3179989159107208, -0.2845748960971832, 0.11823492497205734, 0.1213141456246376, -0.049991026520729065, -0.07925193011760712, 0.050977129489183426, 0.336702823638916, -0.07449042052030563, -0.20335009694099426, 0.25631895661354065, -0.1613154262304306, 0.04875999316573143, -0.12195653468370438, -0.05090901255607605, 0.11064043641090393, 0.02456485480070114, 0.05281996354460716, 0.1635584980249405, 0.20771634578704834, 0.07043950259685516, -0.09152570366859436, 0.05632656812667847, -0.002582639455795288, 0.03893697261810303, -0.04630661383271217, -0.14920049905776978, -0.01051660068333149, 0.06792654097080231, -0.038858599960803986, -0.09385031461715698, 0.09923157095909119, 0.1373416781425476, 0.09120873361825943, -0.08648490160703659, 0.049758702516555786, 0.10883301496505737, -0.16027572751045227, -0.04254801571369171, 0.11942125856876373, 0.08967311680316925, 0.1290208101272583, 0.05138981714844704, 0.2355695515871048, 0.14584006369113922, -0.10673026740550995, -0.12054923176765442], [-0.05247000232338905, 0.07994717359542847, 0.09295246005058289, 0.01827291026711464, -0.13021919131278992, 0.08198212832212448, 0.06497540324926376, -0.10963095724582672, 0.0585455596446991, -0.018258312717080116, -0.030319496989250183, 0.05952179431915283, 0.08197061717510223, -0.13623279333114624, -0.07594943046569824, 0.03203696012496948, 0.08992420136928558, -0.09757976233959198, 0.07690669596195221, -0.12204898148775101, 0.09586764872074127, -0.012032803148031235, 0.06812922656536102, -0.05257170647382736, 0.03697396442294121, 0.022257786244153976, 0.09917324781417847, -0.051677703857421875, 0.008205696940422058, -0.08939474076032639, 0.043055497109889984, 0.0332915335893631, -0.047905340790748596, -0.1131184846162796, -0.06447646021842957, 0.02683490514755249, 0.09623201936483383, -0.10306617617607117, -0.08904580771923065, -0.12125155329704285, 0.03377754986286163, 0.05263252556324005, 0.07017256319522858, 0.06385713070631027, -0.03643813356757164, 0.06047643721103668, 0.05782323330640793, -0.02210911363363266, -0.12348021566867828, 0.059382177889347076, -0.12786369025707245, -0.06417404860258102, 0.04752717912197113, -0.011961787939071655, 0.09129995107650757, 0.06294729560613632, -0.12263720482587814, -0.12062165886163712, -0.10304132103919983, -0.03654380142688751, -0.05655572563409805, 0.0709894597530365, -0.03677856922149658, 0.014912575483322144], [0.10908086597919464, 0.2466556429862976, 0.12916260957717896, 0.28061220049858093, 0.06838250905275345, -0.03724640980362892, 0.1057942658662796, 0.09109965711832047, -0.0891399085521698, -0.06278461962938309, -0.08554267883300781, -0.320570170879364, 0.0992777943611145, 0.25666484236717224, 0.25954005122184753, 0.26104259490966797, -0.006500616669654846, 0.1922561079263687, 0.3955039083957672, 0.16025716066360474, 0.2876150906085968, -0.03943173214793205, -0.014838650822639465, -0.1267700046300888, -0.16132499277591705, 0.1389942765235901, 0.30037692189216614, 0.16396157443523407, 0.6549109816551208, -0.03975449874997139, 0.0015415496891364455, 0.06408685445785522, 0.0030633360147476196, 0.15701892971992493, -0.01250268705189228, -0.17637567222118378, -0.054031625390052795, -0.11288443207740784, 0.4332064092159271, 0.240340456366539, 0.014441654086112976, 0.0434010773897171, 0.097603440284729, -0.02579508163034916, 0.1381298154592514, 0.06187815219163895, 0.09266878664493561, 0.09969738870859146, 0.11045397818088531, -0.026967691257596016, 0.07632479071617126, -0.09517327696084976, -0.10062074661254883, 0.11095885932445526, 0.06728867441415787, 0.20198537409305573, 0.2904515564441681, 0.0027526901103556156, -0.014534221962094307, 0.09211289137601852, 0.122452013194561, 0.002338616643100977, -0.11560189723968506, 0.4410836100578308], [0.3373032212257385, 0.13147029280662537, 0.046268101781606674, 0.18102599680423737, 0.10347460955381393, 0.13556328415870667, 0.09699635207653046, 0.08740811049938202, -0.08518457412719727, -0.15085364878177643, 0.099571093916893, -0.35399389266967773, 0.1231800839304924, 0.20451021194458008, 0.3160131871700287, 0.08323967456817627, 0.029301345348358154, 0.2828376293182373, 0.5467228293418884, 0.2616569399833679, 0.15318375825881958, 0.07629377394914627, 0.12303528189659119, 0.17974835634231567, -0.057686250656843185, 0.18802393972873688, 0.2170734703540802, 0.123203344643116, 0.6034539341926575, 0.061357282102108, 0.0925847515463829, -0.12218739092350006, 0.06748250126838684, 0.01363616343587637, 0.15122714638710022, -0.0059300377033650875, 0.20993618667125702, 0.11140656471252441, 0.21941785514354706, 0.156190887093544, 0.11824217438697815, 0.0805593878030777, 0.14505909383296967, 0.18773943185806274, 0.13343459367752075, 0.11838589608669281, 0.21275343000888824, 0.2570302486419678, 0.0358482301235199, 0.19492606818675995, 0.1875663697719574, 0.22099554538726807, -0.04913477599620819, 0.11528521776199341, -0.010446781292557716, 0.09191416203975677, 0.1417437344789505, 0.1839340329170227, 0.17506691813468933, -0.042901694774627686, 0.15869703888893127, 0.053606245666742325, 0.006246432662010193, 0.21884042024612427], [-0.1128990426659584, 0.2130616009235382, 0.08150027692317963, 0.2543093264102936, 0.10825894773006439, 0.1448454111814499, -0.005341130308806896, -0.31179073452949524, 0.1053522378206253, -0.14003799855709076, -0.06370925903320312, -0.6148552298545837, 0.141903817653656, 0.07413198798894882, 0.26157596707344055, 0.3012153208255768, -0.020825907588005066, -0.019958972930908203, 0.15304924547672272, 0.2682037353515625, 0.3109508454799652, 0.051007237285375595, 0.09894181787967682, -0.10278219729661942, -0.2907894551753998, 0.19118383526802063, 0.34621381759643555, 0.15765880048274994, 0.7401896119117737, -0.31176435947418213, -0.02800825424492359, 0.0026192814111709595, -0.05271834135055542, 0.1274718940258026, -0.027691245079040527, -0.26068729162216187, 0.07063272595405579, 0.054719820618629456, 0.25461333990097046, 0.37949055433273315, 0.11067643761634827, 0.10041822493076324, 0.15798233449459076, -0.06627712398767471, 0.09585320949554443, -0.05608576163649559, 0.07836044579744339, -0.007695730775594711, -0.054658904671669006, 0.0772462710738182, 0.08364356309175491, 0.04269132763147354, -0.06171266734600067, -0.049665987491607666, 0.1941816359758377, -0.025787442922592163, 0.21202123165130615, 0.14211677014827728, 0.008947196416556835, 0.21058496832847595, 0.15882538259029388, -0.1432841718196869, 0.11121317744255066, 0.38697248697280884], [-0.07742831856012344, 0.2018432319164276, 0.18390758335590363, 0.34390679001808167, 0.058824099600315094, 0.06780581176280975, 0.232223778963089, 0.16305813193321228, -0.0700133889913559, -0.20271003246307373, -0.02489425241947174, -0.6464836001396179, 0.05010354518890381, 0.20989255607128143, 0.2293623387813568, 0.267636239528656, 0.04224233329296112, 0.19607289135456085, 0.4649982750415802, 0.1800212413072586, 0.1984339952468872, -0.017698947340250015, 0.07908987998962402, -0.009170614182949066, -0.2543609142303467, 0.08805933594703674, 0.3563425838947296, 0.15096105635166168, 0.6176085472106934, 0.06342796236276627, 0.0007745132315903902, -0.1184537410736084, -0.10699699819087982, 0.0005600980366580188, 0.17616111040115356, 0.06742991507053375, 0.007699023466557264, 0.10201486945152283, 0.1320144385099411, 0.27871719002723694, -0.015565484762191772, -0.09307551383972168, 0.08862542361021042, 0.08697935193777084, -0.013057852163910866, 0.04428387060761452, 0.19867606461048126, 0.08729898929595947, -0.021974235773086548, 0.12317217141389847, 0.16804492473602295, 0.10736483335494995, 0.030960023403167725, -0.08857190608978271, -0.013158808462321758, 0.046928975731134415, 0.06780453771352768, 0.0038138399831950665, 0.09402966499328613, -0.008558603934943676, 0.2966274917125702, -0.1030336245894432, -0.02218988537788391, 0.3743698000907898], [-0.06734508275985718, 0.07050248980522156, -0.0892438292503357, -0.09290312230587006, -0.06227432191371918, 0.11526572704315186, 0.1205853819847107, 0.06354832649230957, -0.00777667760848999, 0.04233837127685547, -0.022447526454925537, 0.07789695262908936, -0.05441215634346008, -0.07595589756965637, 0.006236374378204346, 0.03944341838359833, -0.10123945772647858, 0.08315761387348175, 0.09208901226520538, 0.08332867920398712, -0.010435983538627625, -0.0009389668703079224, -0.055009856820106506, -0.09987987577915192, 0.017106205224990845, -0.06410643458366394, 0.08120985329151154, -0.04674467444419861, -0.06815250217914581, -0.003880128264427185, -0.09905114769935608, 0.009204253554344177, -0.07829625904560089, -0.11525525152683258, 0.06404007971286774, 0.12058138847351074, -0.03848789632320404, 0.03228801488876343, 0.09349168837070465, -0.07276664674282074, 0.014771133661270142, -0.0001847296953201294, -0.11783690750598907, -0.0028137415647506714, 0.011181771755218506, -0.10448941588401794, -0.07087413966655731, -0.1055658608675003, 0.12046284973621368, -0.10949422419071198, -0.07121378183364868, -0.04898476600646973, 0.05884793400764465, -0.04042629897594452, 0.11815173923969269, -0.046246737241744995, 0.02996090054512024, -0.03384985029697418, -0.12228861451148987, 0.03518640995025635, -0.12225408852100372, 0.10798828303813934, 0.10418881475925446, 0.005388230085372925], [-0.2067282348871231, 0.05470377206802368, -0.000285936490399763, 0.21565566956996918, 0.13323314487934113, 0.03855280205607414, -0.031762927770614624, -0.1395680010318756, -0.10867613554000854, -0.1604798287153244, 0.03687797486782074, -0.4537229835987091, -0.002634285716339946, 0.10766959935426712, 0.3110872209072113, 0.263967901468277, 0.06511084735393524, -0.2252109944820404, 0.13956722617149353, 0.14990252256393433, 0.10341112315654755, 0.18674606084823608, 0.0336272269487381, -0.011006936430931091, -0.1530708223581314, 0.11806748807430267, 0.4261656403541565, -0.0642048791050911, 0.7198840379714966, -0.13674357533454895, 0.15542113780975342, -0.11869755387306213, -0.07912106812000275, 0.009973777458071709, 0.0756041631102562, -0.4286578595638275, -0.16991309821605682, 0.05672089755535126, 0.19197115302085876, 0.11548686027526855, -0.031071707606315613, -0.10349081456661224, 0.09714100509881973, -0.0028315186500549316, 0.09176594763994217, 0.024935459718108177, 0.1967790573835373, -0.018726127222180367, -0.1106637716293335, 0.0745856836438179, -0.0053930142894387245, 0.08542057126760483, -0.02106231451034546, 0.03249065577983856, 0.1717899590730667, 0.16215653717517853, 0.143297016620636, 0.1255815029144287, -0.03767567127943039, 0.14643728733062744, -0.16906893253326416, -0.013359388336539268, 0.06978201866149902, 0.4106457829475403], [0.01526595652103424, 0.06730926036834717, 0.026476457715034485, -0.06990544497966766, 0.040717631578445435, 0.06023453176021576, 0.07169809937477112, -0.09052106738090515, -0.0665808916091919, -0.09131793677806854, -0.01380494236946106, -0.08565463125705719, -0.11428005993366241, -0.016124427318572998, 0.12277333438396454, 0.047950536012649536, -0.035516247153282166, 0.04177817702293396, -0.09658962488174438, -0.04350866377353668, -0.03884011507034302, 0.07721731066703796, 0.06578965485095978, -0.024763360619544983, -0.10836099088191986, 0.028202548623085022, 0.005398184061050415, 0.10170188546180725, -0.0719803124666214, -0.12346766889095306, 0.04432123899459839, -0.03229893743991852, -0.00953662395477295, -0.08645506203174591, -0.11168207228183746, 0.0647941529750824, -0.06436729431152344, -0.0831158310174942, -0.0334039032459259, 0.0736476331949234, 0.08066557347774506, 0.06551648676395416, -0.013313651084899902, -0.017228633165359497, -0.0662853866815567, 0.048532307147979736, 0.07424314320087433, -0.07940874993801117, 0.045258909463882446, 0.03822314739227295, -0.07374732196331024, -0.06391309201717377, 0.051689133048057556, -0.10430790483951569, -0.054997071623802185, -0.07891614735126495, -0.10069341957569122, 0.0297519713640213, 0.09478633105754852, 0.034070998430252075, 0.03374965488910675, -0.026694849133491516, -0.08361098170280457, -0.05621424317359924], [0.44131749868392944, -0.36826813220977783, -0.24627333879470825, -0.08300642669200897, -0.007417183369398117, 0.03217609226703644, 0.07747523486614227, 0.4127817451953888, 0.04507055878639221, 0.16321627795696259, -0.07607494294643402, 0.1623711884021759, 0.48567333817481995, 0.15026919543743134, 0.05760519579052925, 0.0335160493850708, -0.02277049422264099, 0.43699911236763, 0.36211755871772766, -0.0031949938274919987, -0.331356406211853, -0.17410793900489807, -0.08366404473781586, 0.40491217374801636, 0.199580579996109, 0.14515095949172974, -0.3595725893974304, 0.2704397439956665, -0.7315036058425903, 0.4238134026527405, -0.015589307062327862, 0.08620138466358185, -0.06311839818954468, 0.19992120563983917, 0.1121830940246582, 0.36517754197120667, 0.44400712847709656, 0.040241435170173645, -0.6357647180557251, -0.15216277539730072, -0.10614465177059174, 0.04619881510734558, 0.05860641598701477, 0.2564891278743744, 0.4251719117164612, 0.30548205971717834, -0.18228885531425476, 0.2882607579231262, 0.05347539484500885, 0.09854425489902496, 0.09653662890195847, 0.38706716895103455, 0.11985297501087189, 0.066033735871315, 0.17498604953289032, -0.1050395593047142, -0.10672316700220108, -0.04410253465175629, 0.164798766374588, -0.17767727375030518, 0.48137858510017395, 0.39076802134513855, -0.015254691243171692, -0.04253048449754715], [-0.07133468985557556, 0.10226640105247498, -0.10320114344358444, -0.12064480036497116, 0.07487665861845016, -0.006966304499655962, 0.04931044578552246, -0.10084597766399384, -0.015200287103652954, 0.04683098569512367, -0.10208508372306824, 0.02163812518119812, -0.025669967755675316, 0.07773644477128983, 0.07185861468315125, -0.11677895486354828, -0.027485132217407227, -0.09070669114589691, -0.0823652446269989, -0.009141415357589722, 0.06598005443811417, 0.006877440493553877, -0.004741862416267395, -0.10081154108047485, -0.06620457023382187, -0.12104428559541702, -0.06278731673955917, -0.09769675135612488, -0.11983625590801239, -0.08688580989837646, -0.1316029131412506, -0.11584678292274475, -0.09619034826755524, -0.1164378821849823, -0.031939223408699036, -0.10821269452571869, 0.02394023910164833, -0.030703961849212646, 0.073151595890522, 0.10715590417385101, -0.0518016517162323, 0.08868491649627686, 0.014330126345157623, -0.08729875087738037, 0.07731985300779343, 0.030003026127815247, -0.06311196833848953, -0.1083989143371582, 0.04252538084983826, 0.028860218822956085, -0.12707309424877167, 0.09174368530511856, -0.09970937669277191, 0.07270310819149017, -0.05725720524787903, 0.10109063982963562, 0.11210621893405914, -0.005323123186826706, -0.1260881870985031, -0.10805825144052505, -0.09623704105615616, -0.012531362473964691, 0.015869274735450745, -0.02818925678730011], [0.3080550730228424, 0.13991469144821167, 0.009890444576740265, 0.2365596741437912, 0.21114152669906616, 0.015046682208776474, 0.10075457394123077, 0.2268800288438797, 0.06460769474506378, -0.06350744515657425, -0.12077273428440094, -0.2705555260181427, 0.2686659097671509, 0.04241817072033882, 0.14873582124710083, 0.17687247693538666, 0.0009427815675735474, 0.11733932048082352, 0.5365902185440063, 0.20290209352970123, -0.045001428574323654, -0.017765847966074944, -0.04530823230743408, 0.2510407567024231, 0.12379449605941772, 0.08645685017108917, 0.0908198356628418, 0.3139212429523468, 0.42619702219963074, 0.32426807284355164, -0.10533395409584045, 0.07940678298473358, -0.10010656714439392, 0.06659477204084396, 0.07579607516527176, 0.17597922682762146, 0.31283366680145264, -0.02322027087211609, 0.18958322703838348, 0.2429734170436859, 0.010084107518196106, -0.032816797494888306, 0.06384339183568954, 0.27668124437332153, 0.14004282653331757, 0.25108668208122253, 0.15838344395160675, 0.2869313955307007, 0.059248656034469604, 0.12300464510917664, 0.15114642679691315, 0.27263495326042175, -0.08074133098125458, -0.09819574654102325, 0.08325877040624619, -0.012959680519998074, 0.146737739443779, 0.11028752475976944, 0.14807048439979553, -0.03779494762420654, 0.16441762447357178, 0.23857487738132477, 0.11449006199836731, 0.19699111580848694], [-0.11576184630393982, 0.11080560833215714, -0.027043867856264114, -0.07133270800113678, 0.1127004325389862, 0.09601861983537674, 0.024538256227970123, 0.06222820281982422, 0.095741406083107, -0.11939796805381775, -0.05280214548110962, -0.10470409691333771, -0.022914478555321693, 0.10347115993499756, -0.07733925431966782, -0.048455860465765, -0.015624970197677612, -0.09871517866849899, -0.12364353239536285, 0.0879441499710083, -0.12729454040527344, -0.11206163465976715, 0.10403862595558167, 0.11893832683563232, 0.04432792589068413, 0.08511000871658325, -0.09183259308338165, 0.09032134711742401, 0.04196958243846893, 0.001180112361907959, 0.016470199450850487, -0.02642609179019928, -0.11906175315380096, -0.008068561553955078, -0.12438691407442093, 0.1165316253900528, -0.10011260211467743, 0.009614527225494385, -0.12251666933298111, 0.025560228154063225, 0.0875328779220581, -0.006502225995063782, 0.013965187594294548, -0.11172517389059067, -0.09767279028892517, 0.0981527715921402, -0.12097453325986862, -0.09592366218566895, 0.013509735465049744, -0.028354855254292488, -0.11695632338523865, -0.10347752273082733, 0.0402485728263855, -0.0986192524433136, -0.05490247532725334, 0.07412048429250717, 0.06201358139514923, 0.008680569007992744, -0.07488659769296646, 0.10432659089565277, 0.06314854323863983, -0.0979606956243515, -0.07951495051383972, -0.09798245131969452], [0.2936367392539978, 0.35565048456192017, 0.1796276569366455, 0.30194351077079773, 0.16464565694332123, 0.09480900317430496, 0.05305982008576393, 0.22171111404895782, -0.12251333892345428, -0.0953863114118576, -0.029814541339874268, -0.24277625977993011, 0.0776960700750351, 0.17232464253902435, 0.30269819498062134, 0.267844557762146, -0.10196369886398315, 0.2596139907836914, 0.6369110941886902, 0.1749829202890396, 0.19421321153640747, 0.15910829603672028, -0.12254954874515533, 0.09612604975700378, -0.12064046412706375, 0.04149170219898224, 0.22149451076984406, 0.3137061297893524, 0.7501967549324036, 0.1018989235162735, 0.1160840094089508, -0.11259478330612183, -0.08832433819770813, 0.22278720140457153, 0.08384564518928528, 0.0027453587390482426, 0.17048494517803192, -0.003690078854560852, 0.3849499225616455, 0.10353706032037735, -0.0018523186445236206, -0.10206040740013123, 0.1430797129869461, 0.16279174387454987, 0.12574510276317596, 0.06821529567241669, 0.1511334329843521, 0.057585664093494415, 0.10321128368377686, 0.15760736167430878, 0.2592490613460541, 0.21562199294567108, -0.0683584213256836, -0.005462631583213806, 0.10841799527406693, 0.19012875854969025, 0.13333405554294586, 0.017415883019566536, 0.05029835179448128, 0.17399223148822784, 0.24775393307209015, 0.2624644637107849, -0.08378760516643524, 0.32616546750068665], [0.15296326577663422, 0.08147457242012024, 0.18280644714832306, 0.29304593801498413, 0.06681246310472488, 0.07484209537506104, 0.13909578323364258, 0.11261332780122757, -0.12427301704883575, -0.0385759100317955, 0.005945473909378052, -0.5501457452774048, 0.1406153291463852, 0.04981409013271332, 0.16186469793319702, 0.19427809119224548, -0.011269643902778625, 0.12275686860084534, 0.39800286293029785, 0.16171453893184662, 0.12809257209300995, 0.11003141105175018, -0.005787566304206848, -0.05400123819708824, -0.21065936982631683, -0.020181674510240555, 0.325485497713089, 0.14973200857639313, 0.6179640293121338, 0.03178335353732109, 0.13922303915023804, -0.10622715950012207, -0.03951112926006317, 0.02244192361831665, 0.07193996012210846, -0.09802988916635513, -0.1335422694683075, -0.009753406047821045, 0.3536089360713959, 0.10206390172243118, 0.041603684425354004, -0.014195442199707031, 0.19814199209213257, 0.04754750430583954, 0.0362277552485466, 0.0728655755519867, 0.02852286584675312, 0.13577716052532196, 0.12419265508651733, 0.12067139893770218, 0.06454921513795853, 0.015717707574367523, -0.004217982292175293, -0.09647658467292786, 0.18668590486049652, 0.14727379381656647, 0.20232686400413513, 0.06479628384113312, -0.03358226642012596, 0.004878082312643528, 0.15349483489990234, 0.0493684820830822, 0.0022243112325668335, 0.23802070319652557], [0.2635708749294281, 0.2504141926765442, 0.20078231394290924, 0.24995127320289612, 0.13047091662883759, 0.12476927787065506, 0.2150450050830841, 0.17019321024417877, 0.11859171092510223, -0.05277633294463158, 0.016405001282691956, -0.4253312647342682, 0.10103338211774826, 0.11690948903560638, 0.28090739250183105, 0.2545289993286133, 0.0974961668252945, 0.028893647715449333, 0.5664048194885254, 0.09303341060876846, 0.1269456446170807, 0.07151132076978683, -0.07484625279903412, 0.11044702678918839, -0.15437659621238708, 0.15385743975639343, 0.3801850974559784, 0.20980338752269745, 0.5723599195480347, 0.01550297997891903, 0.022730303928256035, 0.037329062819480896, -0.07632620632648468, 0.18441957235336304, 0.16706816852092743, -0.07088277488946915, 0.15819820761680603, -0.042009562253952026, 0.22253446280956268, 0.14869995415210724, 0.04646523296833038, 0.009035348892211914, 0.11376290768384933, 0.07810122519731522, 0.0806683748960495, 0.22832077741622925, 0.16273891925811768, 0.03623323142528534, 0.053459689021110535, 0.08219002932310104, 0.12983302772045135, 0.1890638917684555, -0.04317885637283325, 0.001437649130821228, 0.0044569699093699455, 0.1657886654138565, 0.1845938116312027, 0.1602088063955307, -0.01532353088259697, 0.08293063193559647, 0.18629348278045654, 0.1650545746088028, 0.00612969696521759, 0.26984480023384094], [0.0982719287276268, 0.22021420300006866, 0.12165755778551102, 0.25312429666519165, 0.20802398025989532, 0.18498195707798004, 0.1757015734910965, 0.10225341469049454, -0.0680014044046402, -0.15696626901626587, -0.02245694398880005, -0.35836726427078247, 0.07917868345975876, 0.170096293091774, 0.3269694447517395, 0.18462622165679932, 0.06589844822883606, 0.015413129702210426, 0.5164036750793457, 0.046018440276384354, 0.0003705003182403743, 0.07434430718421936, 0.04288144409656525, 0.10285128653049469, -0.10719109326601028, 0.1314559131860733, 0.2067844420671463, 0.11721697449684143, 0.6269732713699341, 0.12322498112916946, 0.04733030125498772, -0.04781363904476166, -0.11042161285877228, -0.03508636727929115, 0.1523624211549759, 0.07065081596374512, -0.04757635295391083, 0.016006633639335632, 0.1903412789106369, 0.3147146701812744, 0.043052688241004944, -0.04885117709636688, 0.2323613315820694, 0.23125562071800232, 0.028441548347473145, 0.1937931776046753, 0.22102028131484985, 0.23378686606884003, -0.09356239438056946, 0.0614725798368454, 0.18088234961032867, 0.03537917137145996, -0.10736744105815887, 0.0586247444152832, 0.030343495309352875, 0.1344059854745865, 0.19965946674346924, 0.13145072758197784, 0.07702904939651489, 0.15692970156669617, 0.11988809704780579, 0.02143656648695469, -0.0006377547979354858, 0.4445917308330536], [0.09523382782936096, 0.07671092450618744, -0.011076122522354126, 0.10935844480991364, 0.04060418903827667, -0.12203429639339447, -0.05730566382408142, -0.07632993161678314, 0.009125441312789917, -0.10994146764278412, 0.07746529579162598, 0.05849631130695343, -0.0011878013610839844, -0.046867161989212036, 0.0009985268115997314, -0.03343521058559418, -0.042617812752723694, -0.04457263648509979, -0.0002551078796386719, -0.12315574288368225, 0.0005512535572052002, -0.06360012292861938, -0.05355022847652435, -0.09858950972557068, -0.015613064169883728, -0.07743792235851288, -0.051106005907058716, 0.09962570667266846, 0.08576290309429169, -0.11667774617671967, -0.11557275056838989, -0.05047029256820679, -0.1092437207698822, 0.06646841764450073, -0.06361271440982819, -0.08860008418560028, 0.03417055308818817, 0.03307144343852997, 0.06854422390460968, 0.08791239559650421, 0.009881988167762756, 0.05415642261505127, -0.009968504309654236, -0.0904884785413742, -0.09733375906944275, 0.11730152368545532, -0.07181912660598755, -0.03509894013404846, 0.07317857444286346, -0.027155235409736633, -0.04252699017524719, 0.028551757335662842, 0.022659003734588623, -0.12206780910491943, 0.03652980923652649, -0.058921411633491516, 0.08677747845649719, 0.043974608182907104, -0.08452284336090088, -0.1073867529630661, -0.006342276930809021, 0.10054005682468414, 0.03180877864360809, -0.08492657542228699], [-0.00237325974740088, 0.013775604777038097, -0.009880742989480495, 0.054760247468948364, -0.12013231217861176, -0.06346385926008224, -0.10958852618932724, 0.022157657891511917, -0.01232638955116272, -0.018029913306236267, 0.07183501124382019, -0.023601695895195007, -0.007284926250576973, 0.08042246103286743, -0.020968355238437653, 0.08928386121988297, 0.06376281380653381, -0.00032909406581893563, 0.02483372949063778, 0.04027319326996803, -0.04580748453736305, -0.02489122748374939, -0.025445997714996338, -0.05194272845983505, -0.030339345335960388, 0.08316443115472794, 0.093929223716259, 0.06791132688522339, -0.056192219257354736, -0.04521746560931206, 0.007095545530319214, -0.09896396100521088, -0.05477036535739899, -0.10492479801177979, 0.11794112622737885, -0.03054484911262989, -0.008574147708714008, -0.003028199076652527, 0.04829363897442818, -0.10381445288658142, 0.0014649182558059692, -0.05214487016201019, -0.11430124938488007, -0.09452111274003983, -0.03533023223280907, -0.08900124579668045, -0.10346496850252151, 0.012562928721308708, 0.011003434658050537, -0.062098585069179535, -0.11331839859485626, 0.09126860648393631, -0.04443885385990143, 0.006252408027648926, 0.03743114694952965, -0.11335847526788712, -0.012921006418764591, 0.0508497916162014, 0.11558418720960617, -0.010363847017288208, 0.09754961729049683, -0.12058951705694199, -0.12145280838012695, -0.07031369209289551], [-0.11908033490180969, 0.002819076180458069, -0.08933296799659729, -0.04953263700008392, 0.014704480767250061, -0.08302740752696991, -0.03258109092712402, -0.09773202240467072, -0.03896342217922211, -0.0970524400472641, 0.05738283693790436, 0.09008286893367767, -0.08970746397972107, -0.059907346963882446, 0.09550657868385315, 0.003257766366004944, -0.08500677347183228, 0.020442038774490356, -0.027256011962890625, -0.05526517331600189, -0.12186303734779358, 0.05112448334693909, -0.10291525721549988, 0.10874904692173004, -0.058510586619377136, 0.12111400067806244, -0.03414402902126312, 0.07415349781513214, 0.04756523668766022, -0.09472356736660004, -0.045478880405426025, 0.12222826480865479, 0.011977046728134155, 0.03211989998817444, -0.02580133080482483, 0.10229252278804779, -0.04202772676944733, 0.10207769274711609, -0.03709875047206879, -0.12451711297035217, -0.031802698969841, -0.020924925804138184, 0.08573779463768005, -0.024142012000083923, -0.10837690532207489, 0.054494693875312805, 0.026606351137161255, -0.04444713890552521, -0.044821277260780334, -0.06879329681396484, -0.08768276870250702, -0.05476599931716919, 0.09659519791603088, -0.0568481981754303, 0.03807078301906586, -0.042308077216148376, 0.023088723421096802, -0.009228706359863281, -0.060212403535842896, -0.06248950958251953, -0.0257226824760437, 0.017601817846298218, 0.07333187758922577, -0.04468294978141785], [0.21084274351596832, 0.2904658019542694, 0.134027898311615, 0.21354921162128448, 0.12728899717330933, 0.0695267766714096, 0.07762691378593445, 0.2508715093135834, -0.0020295679569244385, 0.020653443410992622, 0.11058492958545685, -0.29125624895095825, 0.2288852035999298, 0.17189887166023254, 0.32628679275512695, 0.18845514953136444, 0.11385148763656616, 0.07113069295883179, 0.5128738880157471, 0.27416032552719116, 0.07185954600572586, -0.04871533066034317, -0.09946751594543457, 0.1231035366654396, -0.0516907162964344, 0.138003408908844, 0.378328800201416, 0.23580734431743622, 0.5441046953201294, 0.18592412769794464, -0.03546717017889023, 0.12392818927764893, 0.09847193956375122, 0.09989852458238602, 0.05704605206847191, 0.07379302382469177, 0.05452189967036247, -0.09683309495449066, 0.35737377405166626, 0.3268997073173523, -0.0814913958311081, 0.10131658613681793, 0.08599605411291122, 0.2812398672103882, 0.05263659358024597, 0.16364341974258423, 0.2562373876571655, 0.297745943069458, -0.04735678434371948, -0.024722671136260033, 0.13878850638866425, 0.11890247464179993, -0.10385267436504364, 0.04426667094230652, 0.03560293838381767, 0.23516640067100525, 0.04574901983141899, 0.06120133399963379, 0.09091798961162567, 0.07844030112028122, 0.19919410347938538, 0.14256255328655243, -0.09991021454334259, 0.3662981390953064], [-0.06628543138504028, -0.033465415239334106, -0.09548254311084747, -0.028730928897857666, -0.043617382645606995, -0.09890376031398773, -0.024163171648979187, 0.027628019452095032, 0.051004230976104736, -0.06230464577674866, 0.04742223024368286, 0.022435709834098816, 0.04115092754364014, 0.01377221941947937, 0.032616838812828064, -0.11538849771022797, -0.05901011824607849, -0.013191506266593933, -0.059677913784980774, -0.02997325360774994, 0.08807778358459473, -0.10743479430675507, 0.04404193162918091, -0.07870511710643768, -0.11749160289764404, 0.07719118893146515, 0.028899580240249634, -0.09379059076309204, 0.10196925699710846, 0.03661838173866272, -0.05866609513759613, -0.07606860995292664, 0.09479549527168274, -0.032616838812828064, 0.07111576199531555, 0.03664611279964447, -0.08244238793849945, 0.06257264316082001, -0.034636422991752625, -0.06633386015892029, 0.05407653748989105, 0.05061061680316925, -0.038472846150398254, -0.05878511071205139, -0.06522320210933685, -0.03506869077682495, -0.07453756034374237, -0.014711663126945496, 0.0712893009185791, -0.0755622386932373, 0.09255144000053406, -0.055515795946121216, -0.11537952721118927, 0.08521232008934021, 0.03092747926712036, -0.12248365581035614, -0.0897693783044815, -0.07815814018249512, -0.10362653434276581, -0.011338815093040466, -0.07859954237937927, 0.03246395289897919, 0.09879043698310852, -0.0803544819355011], [0.3734557330608368, -0.2152751386165619, -0.17997336387634277, -0.10657890141010284, 0.10151505470275879, -0.04664706811308861, 0.05522807687520981, 0.35517188906669617, 0.0014326870441436768, 0.10761904716491699, 0.09143751859664917, 0.37774592638015747, 0.3663881719112396, -0.07192286103963852, -0.07572134584188461, 0.036542925983667374, -0.009896636009216309, 0.43785804510116577, 0.6060608625411987, 0.10223466902971268, -0.07736083120107651, -0.12010667473077774, 0.06167793273925781, 0.4712052345275879, 0.19637665152549744, 0.06534868478775024, -0.36282581090927124, 0.30070391297340393, -0.4245060980319977, 0.4528331458568573, -0.10542968660593033, -0.09896725416183472, 0.09122040867805481, 0.2658979892730713, 0.0006806101882830262, 0.35488709807395935, 0.5025112628936768, -0.055913522839546204, -0.4267893135547638, -0.03817007690668106, 0.08881929516792297, 0.09058606624603271, -0.17887471616268158, 0.18102410435676575, 0.3076871335506439, 0.27607855200767517, -0.16599920392036438, 0.1609232872724533, 0.0795740932226181, 0.02599760890007019, 0.05485868081450462, 0.3650612533092499, 0.05681252479553223, 0.0654585212469101, 0.002577283652499318, -0.09917391091585159, -0.11353891342878342, -0.005793736316263676, 0.04880819842219353, -0.16002677381038666, 0.3495570719242096, 0.5083537101745605, 0.06026315689086914, -0.07587344199419022], [0.08769342303276062, -0.004999746102839708, -0.06730205565690994, -0.023639583960175514, 0.10961803793907166, 0.08312352001667023, 0.11435920745134354, -0.1851680427789688, 0.09928947687149048, 0.04415775462985039, -0.11143185198307037, 0.02851991355419159, -0.07263731956481934, 0.0843065157532692, 0.07812449336051941, -0.04571444168686867, -0.07806693017482758, -0.0850011482834816, 0.0009860823629423976, -0.09102735668420792, -0.016387205570936203, -0.11210647225379944, 0.07288205623626709, 0.06803065538406372, 0.03705625981092453, 0.051067765802145004, 0.1491110473871231, 0.012765318155288696, 0.057924460619688034, 0.028611093759536743, -0.07372498512268066, 0.0906384289264679, 0.09140051901340485, 0.08456920087337494, 0.01843878999352455, -0.10193651169538498, -0.18427695333957672, 0.11878480017185211, -0.040618691593408585, -0.07097252458333969, 0.03240174055099487, -0.054882511496543884, 0.15981875360012054, 0.1607556790113449, 0.038981255143880844, -0.13483954966068268, 0.13380049169063568, 0.010665214620530605, 0.033614009618759155, -0.06097634136676788, 0.06617537885904312, 0.0619821660220623, 0.04986332356929779, -0.06026826798915863, -0.016641685739159584, 0.01460300199687481, 0.013019709847867489, 0.07836136221885681, -0.040738411247730255, 0.180708110332489, 0.019782792776823044, 0.03871568292379379, 0.03726048767566681, 0.1353287547826767], [0.31902554631233215, 0.2885960638523102, 0.1280585527420044, 0.2644921839237213, 0.2671493887901306, 0.12625573575496674, 0.14963991940021515, 0.21361945569515228, -0.0899411141872406, -0.09590770304203033, 0.05113212764263153, -0.21847344934940338, 0.24283647537231445, 0.22336803376674652, 0.3080030381679535, 0.10967142879962921, -0.06617400050163269, 0.07808870077133179, 0.5906229615211487, 0.03372345119714737, 0.1656186580657959, 0.027953660115599632, 0.10271552205085754, 0.22013071179389954, -0.14532582461833954, 0.050471533089876175, 0.2997187376022339, 0.11901300400495529, 0.6760709881782532, 0.13534362614154816, 0.029283512383699417, -0.04862537980079651, -0.0398259162902832, 0.22635763883590698, 0.041491031646728516, 0.16975072026252747, 0.05020538717508316, 0.03440140187740326, 0.3484470248222351, 0.14004594087600708, 0.056030839681625366, 0.009457945823669434, 0.18768446147441864, 0.046585146337747574, 0.19824568927288055, 0.04468302056193352, 0.12683925032615662, 0.05153391882777214, -0.0023079663515090942, -0.04675334692001343, 0.15288327634334564, 0.2134658545255661, -0.10115696489810944, 0.10516250133514404, 0.06900735944509506, 0.0023053716868162155, 0.20805226266384125, 0.10401249676942825, 0.026970496401190758, 0.13182516396045685, 0.2209501564502716, 0.1341373324394226, 0.07958459854125977, 0.41415372490882874], [0.19136491417884827, 0.1237521767616272, 0.10949456691741943, 0.19844408333301544, 0.1865539848804474, 0.05582442879676819, 0.21080972254276276, 0.18720951676368713, 0.02319091558456421, -0.019522294402122498, -0.07474842667579651, -0.36291801929473877, 0.14910031855106354, 0.29961535334587097, 0.19598636031150818, 0.29748138785362244, -0.006791055202484131, 0.0945291593670845, 0.5040469765663147, 0.22566629946231842, 0.24633654952049255, -0.0182009506970644, -0.007831528782844543, 0.2762472331523895, 0.0730062946677208, 0.06867099553346634, 0.22873717546463013, 0.26178935170173645, 0.6014841198921204, 0.29319775104522705, 0.03643956780433655, 0.02101592719554901, 0.11091627180576324, 0.11241669207811356, 0.13935546576976776, 0.09019234776496887, 0.2280222475528717, 0.11384199559688568, 0.2008681446313858, 0.2968267500400543, -0.11467799544334412, 0.046689197421073914, 0.01766940765082836, 0.1348060518503189, 0.05164835602045059, 0.08934102952480316, 0.07475114613771439, 0.07200600951910019, -0.10413707792758942, 0.05445203185081482, 0.08730820566415787, 0.07043177634477615, 0.007200703024864197, -0.07234165072441101, 0.1768614798784256, 0.18762962520122528, 0.018724791705608368, 0.23346282541751862, -0.05125667527318001, 0.07995769381523132, 0.14834514260292053, 0.22807663679122925, 0.05711723864078522, 0.3074709475040436], [-0.054388727992773056, 0.1534392535686493, 0.1676667034626007, 0.17066867649555206, 0.09395836293697357, -0.012236686423420906, 0.19417038559913635, -0.04762589558959007, 0.11935800313949585, -0.18304499983787537, 0.045407816767692566, -0.5658006072044373, -0.05693868175148964, 0.1125846728682518, 0.23313304781913757, 0.1267499327659607, -0.10080939531326294, 0.08694755285978317, 0.439383327960968, 0.1133984923362732, 0.014832199551165104, 0.08441582322120667, 0.08905583620071411, 0.11341843754053116, -0.3255870044231415, 0.08127230405807495, 0.3424856960773468, 0.16541428864002228, 0.5067526698112488, 0.08195992559194565, 0.056063681840896606, 0.09365653991699219, -0.12295657396316528, 0.012014055624604225, 0.11123920232057571, 0.05748015269637108, -0.10225020349025726, -0.07363604009151459, 0.10199081152677536, 0.011035002768039703, 0.09188666939735413, -0.08778704702854156, 0.18736352026462555, 0.11294045299291611, 0.07594609260559082, 0.1915176510810852, 0.06296714395284653, 0.057216234505176544, -0.09083899855613708, -0.028832221403717995, 0.1985337883234024, -0.056580524891614914, -0.029867693781852722, -0.10705429315567017, -0.028645463287830353, 0.01641700230538845, 0.20900261402130127, 0.14059904217720032, -0.1009254902601242, 0.034125007688999176, 0.1619235724210739, 0.08382423222064972, -0.09802033007144928, 0.21669761836528778], [-0.01837490126490593, 0.1055634617805481, -0.11556155979633331, -0.012928280979394913, -0.09975828975439072, -0.11230073124170303, -0.004449064843356609, 0.06762237101793289, -0.007736802101135254, -0.03367329388856888, 0.08760696649551392, 0.034312665462493896, 0.011982646770775318, -0.08879627287387848, -0.10731775313615799, -0.010317971929907799, -0.009688422083854675, 0.11473652720451355, 0.01606467179954052, -0.11531245708465576, -0.1085435301065445, 0.048713285475969315, 0.03600253164768219, 0.029136665165424347, 0.05911532789468765, 0.08646511286497116, 0.10561283677816391, 0.06245290860533714, -0.1283222734928131, -0.11743631958961487, -0.033543433994054794, 0.0034122616052627563, -0.0071575939655303955, -0.02609461173415184, 0.0667574554681778, 0.0336412712931633, -0.00047856441233307123, 0.11247479915618896, -0.06672985106706619, -0.1123640313744545, -0.011973246932029724, -0.024996787309646606, 0.00228297826834023, -0.04417622089385986, 0.10607702285051346, 0.02986501157283783, -0.060478150844573975, -0.04814454913139343, 0.1083778589963913, -0.036460451781749725, 0.054147567600011826, 0.05557861924171448, -0.006796807050704956, 0.05618275701999664, 0.1019812747836113, 0.09876858443021774, -0.12836745381355286, -0.004586581140756607, -0.10516514629125595, -0.0881119966506958, -0.028143417090177536, 0.07056856155395508, 0.038757145404815674, -0.006628600414842367], [0.005318604875355959, 0.09642985463142395, -0.08768101781606674, -0.05132152885198593, -0.09594861418008804, 0.004937664605677128, 0.00879011768847704, 0.10092157125473022, -0.04218856990337372, -0.06227172538638115, -0.027689069509506226, -0.03045080602169037, 0.02781028114259243, 0.09684847295284271, 0.06828179955482483, -0.1207113265991211, -0.040855661034584045, -0.10823377966880798, 0.06622959673404694, 0.07431977242231369, -0.038788240402936935, -0.1049826517701149, -0.010269850492477417, 0.09208540618419647, 0.029063036665320396, 0.03370325639843941, 0.0628255233168602, -0.058024000376462936, -0.011741265654563904, 0.050264012068510056, -0.11711160838603973, 0.026962146162986755, -0.07910779118537903, 0.026706520467996597, -0.09167343378067017, 0.09399062395095825, 0.07626797258853912, 0.09332583844661713, -0.01117852795869112, -0.05376341566443443, -0.03473462164402008, -0.024468302726745605, 0.06959113478660583, -0.03783547505736351, -0.03879903256893158, -0.06758236885070801, -0.005772063508629799, 0.030822966247797012, -0.0644124448299408, -0.14307203888893127, -0.14391639828681946, -0.029395094141364098, -0.05921201407909393, 0.03657133877277374, 0.09462183713912964, 0.000348400033544749, 0.048421889543533325, -0.07319994270801544, 0.08956368267536163, -0.01760963164269924, 0.04272186756134033, 0.09642180800437927, 0.08688202500343323, 0.046772301197052], [0.3114376664161682, 0.1943807154893875, 0.14718745648860931, 0.12139449268579483, 0.11607314646244049, 0.0299919955432415, 0.14010366797447205, 0.28347650170326233, -0.09077174961566925, -0.0977282002568245, 0.10834987461566925, -0.32825523614883423, 0.24641858041286469, 0.22977879643440247, 0.16296906769275665, 0.325422078371048, -0.10765910148620605, 0.21429146826267242, 0.5366684198379517, 0.25163042545318604, 0.1595911979675293, 0.14039668440818787, -0.006957292556762695, 0.1796126514673233, 0.051733944565057755, 0.0660785362124443, 0.34934234619140625, 0.1456322818994522, 0.6198379993438721, 0.24584078788757324, 0.02419705130159855, -0.008094578981399536, 0.12467785179615021, 0.170375794172287, 0.20828132331371307, 0.008553188294172287, 0.04775644838809967, 0.10220791399478912, 0.2596540153026581, 0.24968652427196503, -0.07273468375205994, 0.029140591621398926, -0.017604973167181015, 0.27620357275009155, 0.07326915115118027, 0.11299058049917221, 0.1898398995399475, 0.06009853631258011, 0.06712973117828369, -0.014272655360400677, 0.14785966277122498, 0.23496489226818085, -0.07054872810840607, 0.05591210722923279, 0.1513841152191162, 0.06754445284605026, 0.2028493881225586, 0.030830025672912598, 0.032407503575086594, 0.13994364440441132, 0.2727441191673279, 0.2347424030303955, -0.04254470765590668, 0.23203334212303162], [0.4033472537994385, 0.24188914895057678, 0.14855782687664032, 0.2269461303949356, 0.206944540143013, 0.12022216618061066, 0.07903461158275604, 0.2741200029850006, -0.011063456535339355, 0.05884114280343056, -0.09019626677036285, -0.21636883914470673, 0.3496183753013611, 0.17355023324489594, 0.04252764955163002, 0.28887778520584106, -0.03914664685726166, 0.3257885277271271, 0.6392992734909058, 0.23130157589912415, 0.07311834394931793, -0.024460116401314735, -0.0023958683013916016, 0.16413241624832153, 0.07342350482940674, 0.21110787987709045, 0.1504037082195282, 0.367762953042984, 0.48641151189804077, 0.2740693688392639, -0.051620956510305405, 0.02271498739719391, -0.09647798538208008, 0.17845949530601501, 0.014597767032682896, 0.21992576122283936, 0.1645900309085846, -0.08089502155780792, 0.03658214583992958, 0.1395556926727295, -0.10615316033363342, -0.08645594120025635, 0.006955902557820082, 0.26842814683914185, 0.17084744572639465, 0.1724383383989334, 0.03375259414315224, 0.11959993839263916, -0.07974910736083984, -0.00690080039203167, 0.15472424030303955, 0.2406177520751953, 0.054099857807159424, -0.06852993369102478, 0.10781246423721313, 0.12760449945926666, 0.017106488347053528, 0.03141544386744499, 0.07113996148109436, -0.13178405165672302, 0.3472655117511749, 0.21561704576015472, -0.06395268440246582, 0.38277366757392883], [-0.12725554406642914, 0.051643431186676025, 0.05405081808567047, -0.008343586698174477, -0.046614401042461395, -0.04596172273159027, -0.024369671940803528, -0.09472817182540894, -0.025772124528884888, -0.08508443832397461, 0.078646719455719, 0.12683530151844025, 0.0902160033583641, -0.08512745052576065, -0.0847080647945404, -0.0172059815376997, -0.006027773022651672, 0.031487077474594116, -0.02655341848731041, 0.014694017358124256, -0.018757687881588936, 0.034727711230516434, 0.06891739368438721, 0.00032550154719501734, 0.08707861602306366, -0.02553153969347477, -0.10364457964897156, -0.04263073578476906, 0.12059805542230606, 0.015552750788629055, -0.10513143241405487, 0.08304983377456665, -0.03595148026943207, -0.0536101870238781, -0.02323310635983944, 0.019420336931943893, 0.08084062486886978, -0.07399395108222961, 0.05689443647861481, -0.054406531155109406, 0.11911791563034058, 0.03260040283203125, 0.062247782945632935, 0.06766783446073532, 0.0012050651712343097, 0.09393896907567978, -0.051044706255197525, 0.03602548688650131, -0.014263331890106201, -0.058463335037231445, -0.002719010692089796, 0.07596442103385925, 0.003969565033912659, -0.05685143172740936, -0.026668934151530266, 0.11431081593036652, -0.09123796224594116, -0.06725475192070007, 0.0068562948144972324, -0.06680591404438019, -0.12253105640411377, 0.06822358816862106, -0.11899596452713013, -0.010048753581941128], [-0.11751613020896912, -0.025835886597633362, 0.07842099666595459, -0.04643633961677551, -0.1038735955953598, -0.08382439613342285, -0.08526957035064697, -0.01480284333229065, -0.03623276948928833, -0.11914712190628052, 0.03459426760673523, 0.022593647241592407, 0.0041981041431427, -0.04226610064506531, -0.07108516991138458, -0.09257954359054565, -0.060254648327827454, -0.09400218725204468, -0.04586736857891083, -0.12087918817996979, -0.010170131921768188, -0.11420127749443054, 0.11722636222839355, 0.049386411905288696, 0.054421648383140564, 0.058571264147758484, 0.10124073922634125, -0.10736735165119171, -0.11153264343738556, -0.07474081218242645, 0.0794004499912262, -0.019720643758773804, -0.11939987540245056, -0.061309948563575745, 0.03803268074989319, 0.07515169680118561, 0.11309804022312164, -0.007026985287666321, -0.06152459979057312, -0.09029313921928406, -0.06763282418251038, -0.11554864048957825, 0.12106339633464813, -0.10669134557247162, -0.0906442254781723, -0.0143231600522995, 0.1059703528881073, -0.08160652220249176, 0.023419544100761414, -0.06862306594848633, 0.09590692818164825, -0.08268460631370544, 0.09759922325611115, 0.006066873669624329, 0.12326309084892273, -0.03949515521526337, -0.10179772973060608, 0.10211460292339325, 0.0947435200214386, -0.11698929965496063, 0.08003297448158264, -0.01228933036327362, -0.00244787335395813, 0.04321040213108063], [-0.03174450248479843, 0.02569672092795372, 0.08607133477926254, 0.103063203394413, 0.056296028196811676, -0.03628397360444069, 0.05963830649852753, 0.05173347890377045, -0.018847107887268066, 0.03506232798099518, -0.0975562334060669, -0.06368095427751541, -0.017460083588957787, -0.09214315563440323, 0.040926504880189896, 0.02762802131474018, -0.000715211033821106, 0.03500383347272873, -0.04140159860253334, -0.029556676745414734, -0.12340915203094482, 0.0027999281883239746, 0.03047814965248108, 0.10632842779159546, 0.04377119243144989, -0.05484102666378021, -0.12334499508142471, -0.116632841527462, -0.04202694818377495, -0.05639415234327316, -0.06941120326519012, 0.00489024817943573, 0.12347142398357391, -0.07494546473026276, -0.04010390862822533, 0.07298487424850464, 0.10709996521472931, -0.022929862141609192, 0.056464362889528275, 0.06253969669342041, 0.09222771227359772, -0.10022331774234772, -0.019440170377492905, 0.01428071316331625, 0.033159948885440826, 0.06773444265127182, 0.09336835145950317, -0.07819564640522003, 0.12406156957149506, 0.028424905613064766, 0.050731536000967026, -0.05239666998386383, 0.07633578777313232, -0.10774357616901398, -0.10294482111930847, -0.06538460403680801, -0.03959771990776062, -0.06405797600746155, 0.004722666926681995, -0.02266937494277954, -0.12847673892974854, 0.048108648508787155, -0.03575114905834198, 0.03742077574133873], [-0.011359409429132938, 0.09077651798725128, -0.11087516695261002, -0.10886704921722412, -0.06733614206314087, 0.0007393602281808853, 0.026198724284768105, -0.061694446951150894, -0.07244637608528137, -0.0692877396941185, -0.00877109169960022, -0.07018086314201355, -0.09205091744661331, 0.0643010213971138, 0.10087627917528152, -0.08200842887163162, -0.0512649267911911, -0.036342475563287735, -0.08884431421756744, 0.012089017778635025, -0.12926308810710907, 0.0666399896144867, 0.0718902200460434, 0.09299836307764053, 0.0027652138378471136, 0.07673852145671844, -0.08476745337247849, 0.0029333767015486956, 0.0558011420071125, 0.07945820689201355, -0.08905589580535889, -0.12163938581943512, -0.0017924010753631592, -0.05797974392771721, -0.07713185995817184, -0.12854470312595367, -0.10674243420362473, 0.10858592391014099, 0.10633176565170288, -0.011968586593866348, 0.07808098196983337, 0.09545436501502991, 0.051616329699754715, -0.07714106142520905, -0.062564417719841, 0.012757685035467148, 0.09828872233629227, -0.053534552454948425, -0.058901697397232056, 0.10374709218740463, 0.021597446873784065, -0.12176983058452606, 0.09480279684066772, 0.03520992398262024, 0.002810603938996792, 0.03503984212875366, 0.025357430800795555, 0.03511970862746239, 0.005920424126088619, -0.0214955136179924, 0.029023095965385437, 0.03386266157031059, -0.09005673229694366, 0.05364876613020897], [-0.07264438271522522, 0.10720736533403397, -0.12877604365348816, 0.11721348017454147, -0.08204946666955948, -0.10985787957906723, -0.08737500756978989, -0.06253015995025635, 0.08191795647144318, 0.05005902051925659, -0.08119869232177734, 0.08208180963993073, 0.005316144786775112, -0.1284531205892563, -0.06437220424413681, 0.09093966335058212, 0.055814146995544434, -0.09248103201389313, -0.02005835250020027, -0.05887297913432121, 0.08491650968790054, -0.032736219465732574, -0.06952746212482452, 0.01885196752846241, 0.04238557815551758, 0.017991242930293083, 0.0527179129421711, 0.041382867842912674, 0.08524882793426514, -0.05440567061305046, -0.09742964804172516, -0.05127745866775513, 0.09208714962005615, -0.0690472275018692, 0.05998177453875542, 0.049879711121320724, 0.0097068315371871, -0.11132924258708954, -0.10045036673545837, -0.07099983096122742, -0.014443740248680115, 0.12069430947303772, -0.08658609539270401, 0.04628035053610802, 0.06602510809898376, 0.025939716026186943, 0.11280430853366852, 0.09886444360017776, 0.03468203544616699, 0.06020421162247658, 0.02992793172597885, 0.10814957320690155, -0.0755009800195694, -0.105216383934021, -0.03021509386599064, -0.03743128105998039, -0.09775794297456741, -0.13027557730674744, 0.10637945681810379, -0.09687226265668869, -0.05699300765991211, 0.10221497714519501, 0.05778422951698303, -0.0220778975635767], [-0.01311180368065834, 0.05209009349346161, -0.11944939196109772, -0.09312883764505386, 0.055657122284173965, 0.005179855972528458, -0.044898297637701035, 0.09071308374404907, -0.04788598418235779, 0.06883662939071655, 0.019329696893692017, -0.03359793499112129, 0.06080786883831024, -0.02533617988228798, -0.1014607846736908, -0.10110930353403091, -0.09393608570098877, -0.037062663584947586, -0.04027673602104187, -0.049899518489837646, 0.03436645492911339, -0.009592553600668907, 0.041899457573890686, 0.0310492105782032, -0.06796962767839432, -0.051402103155851364, -0.08632678538560867, -0.004231542814522982, 0.10292892158031464, -0.050649311393499374, -0.03751198947429657, 0.040348827838897705, 0.02995818853378296, 0.11714518815279007, -0.008233672007918358, -0.05130907893180847, -0.08029960095882416, -0.10407470166683197, -0.11427821218967438, -0.03903539106249809, -0.04118514060974121, -0.07049886882305145, 0.02486112341284752, 0.06167330592870712, -0.041068028658628464, 0.025041058659553528, 0.09821956604719162, -0.06605228036642075, -0.07299898564815521, 0.08769924938678741, 0.10914559662342072, -0.1232038363814354, -0.06105777621269226, 0.06534472107887268, -0.032207947224378586, 0.06583397090435028, 0.026893744245171547, -0.0034369330387562513, -0.05272756889462471, -0.025806883350014687, -0.08966176956892014, 0.09478996694087982, 0.11725768446922302, -0.04292730987071991], [0.4498964250087738, 0.05803249776363373, 0.1072302758693695, 0.2365184873342514, 0.17953677475452423, 0.06985044479370117, 0.22806096076965332, 0.33818936347961426, 0.07209061086177826, 0.05934622511267662, 0.1085275411605835, -0.1296354979276657, 0.17313739657402039, 0.2260076105594635, 0.27046999335289, 0.06252158433198929, -0.04176609218120575, 0.2247525006532669, 0.7268258929252625, 0.020811719819903374, 0.1272359937429428, -0.09437423199415207, 0.12047736346721649, 0.3651635944843292, -0.000864434870891273, 0.0828743502497673, 0.1669405996799469, 0.22388087213039398, 0.4396860599517822, 0.3166568875312805, 0.010145561769604683, -0.057165175676345825, 0.04907013475894928, 0.23579351603984833, -0.01568315364420414, 0.013673759065568447, 0.25777310132980347, -0.10094626247882843, 0.06661239266395569, 0.1562924087047577, 0.042218804359436035, 0.047114014625549316, 0.12935428321361542, 0.24685846269130707, 0.23451760411262512, 0.12013513594865799, -0.040390096604824066, 0.2218390703201294, -0.049180611968040466, 0.09074907749891281, 0.15279370546340942, 0.2280348539352417, 0.11249709129333496, 0.08021096885204315, 0.05269534885883331, 0.0639573261141777, 0.14035803079605103, 0.1441822052001953, 0.15496791899204254, -0.0252530500292778, 0.2774890661239624, 0.222349151968956, 0.06795689463615417, 0.3655961751937866]], "b": [0.09581830352544785, -0.08199398964643478, 0.05007999390363693, 0.14102989435195923, -0.08154056966304779, 0.21170642971992493, -0.10795922577381134, 0.12738436460494995, 0.06200750172138214, 0.06071576103568077, 0.27844542264938354, -0.035212863236665726, -0.03440447151660919, 0.19231796264648438, 0.2662304937839508, 0.22911040484905243, 0.11003517359495163, 0.057064615190029144, 0.0077114650048315525, 0.05534900352358818, 0.2003103643655777, 0.13504278659820557, -0.055757392197847366, 0.1674308180809021, 0.05006105825304985, -0.09479235112667084, -0.0422627255320549, 0.10783054679632187, 0.048316244035959244, 0.21449518203735352, 0.19056996703147888, 0.054322078824043274, -0.004396915435791016, -0.038555070757865906, -0.0010042637586593628, 0.21109972894191742, 0.00893090944737196, 0.2033643275499344, -0.1304272711277008, 0.11070916801691055, 0.13479571044445038, 0.059073325246572495, 0.2021777331829071, 0.01647898554801941, 0.03327639028429985, -0.017413392663002014, 0.28325435519218445, 0.07372508943080902, 0.12057266384363174, -0.04436221718788147, 0.1753697693347931, 0.22161723673343658, 0.22445757687091827, -0.10563408583402634, -0.12176892906427383, 0.21850644052028656, 0.17720761895179749, 0.007371836807578802, -0.0027557462453842163, -0.009675143286585808, 0.005073380656540394, 0.0322345495223999, 0.009751626290380955, 0.27392590045928955]}, {"name": "pi.net.mlp.0", "w": [[0.01546655222773552, 0.030748123303055763, -0.05818489193916321, 0.26151466369628906, 0.008630529046058655, 0.06812743842601776, -0.040488362312316895, -0.20286057889461517, -0.22809280455112457, 0.5738754272460938, -0.13134904205799103, 0.004759166389703751, 0.00867636501789093, 0.05450741574168205, 0.7884473204612732, -0.029315637424588203, 0.0865793451666832, -0.29539358615875244, -0.06085316464304924, -0.0383840836584568, 0.08124131709337234, -0.017749257385730743, -0.10621125251054764, 0.13209770619869232, -0.09672489762306213, -0.10274257510900497, 0.47571179270744324, -0.10162967443466187, -0.2575686275959015, 0.06611362099647522, -0.18452762067317963, -0.2996941804885864, -0.08788305521011353, -0.4948217272758484, 0.0536634624004364, 0.7427794933319092, -0.0064211878925561905, 0.1519932746887207, -0.09529870748519897, 0.04332450032234192, -0.12272129207849503, -0.13153313100337982, -0.1768677681684494, 0.06249977648258209, -0.08805190771818161, -0.12385331094264984, -0.0418950691819191, 0.01832255721092224, 0.6281443238258362, -0.040041882544755936, -0.0900619849562645, 0.058733854442834854, -0.2561718225479126, -0.02389335446059704, -0.017584551125764847, 0.03774184733629227, 0.11777231842279434, -0.0547269843518734, 0.11946871876716614, -0.04839923232793808, -0.08773310482501984, -0.01392499078065157, -0.033836834132671356, 0.150371715426445], [0.013987544924020767, -0.06325200200080872, 0.025105200707912445, -0.17454864084720612, 0.005687907338142395, -0.034691229462623596, 0.020155861973762512, 0.19629400968551636, 0.356736958026886, -0.5131656527519226, -0.02389586716890335, 0.0056741200387477875, 0.017206355929374695, 0.03515719622373581, -0.9430215358734131, -0.127735897898674, -0.06844872236251831, 0.2852470278739929, -0.1439693570137024, -0.09760941565036774, 0.08400870114564896, 0.05414580926299095, -0.10410008579492569, -0.2221614420413971, -0.050425928086042404, 0.02182772383093834, -0.5112649202346802, -0.08176460862159729, 0.15720035135746002, 0.07814843952655792, 0.3201391398906708, 0.18229293823242188, -0.01337464153766632, 0.5422660112380981, 0.007059216499328613, -0.8359151482582092, 0.04740278050303459, -0.0974820926785469, -0.0664454773068428, 0.1322861611843109, 0.16743718087673187, 0.09470629692077637, 0.11353825777769089, 0.035017162561416626, -0.08911392837762833, -0.1176777333021164, 0.06589026749134064, 0.040914759039878845, -0.7544825077056885, 0.11291078478097916, 0.020374437794089317, 0.10784900188446045, 0.28842470049858093, 0.004369040485471487, 0.01933356001973152, 0.04928320646286011, -0.12105333805084229, 0.02812887169420719, -0.09845200181007385, -0.03125213831663132, 0.08457235991954803, 0.025046424940228462, -0.11991769075393677, -0.08793314546346664]], "b": [0.12529191374778748, -0.20538808405399323]}]}